143 70
！ 0.29370794 -0.15060334 -0.038329873 -0.053819943 -0.19811755 0.019693173 -0.06851019 0.18948755 0.008879666 -0.29644242 0.1027996 0.0042411997 0.25286373 -0.2355486 0.05175017 -0.07801525 0.123201706 0.06253425 0.05441912 -0.15979289 0.009622757 -0.27028924 -0.072190784 -0.07253267 -0.13411917 -0.18693222 -0.07226863 0.1423656 -0.10954017 0.042975243 -0.07397041 0.02636448 0.43168184 0.0004453577 0.14264286 -0.34721312 0.023493517 -0.18000434 -0.025775114 0.0846692 0.022521233 -0.08663851 -0.07682595 0.124558516 0.22816025 0.12491968 0.018002931 -0.11528046 -0.048726972 -0.00013689262 0.10458717 0.060713433 -0.059117228 0.034025207 0.08885971 0.090749055 0.19109459 0.21163745 -0.038169224 0.057436384 0.12630798 -0.002744138 0.0137300445 0.1086567 0.12562513 0.30052337 0.109741695 0.04794258 -0.14750841 -0.122890905
は 0.302225 -0.13761573 -0.04797322 -0.07990809 -0.17628245 0.030641422 -0.06710847 0.17262252 0.012382019 -0.30176252 0.091849 0.011981323 0.2649646 -0.23241673 0.049478296 -0.07118184 0.12561342 0.052873053 0.061533507 -0.13550228 0.0013930355 -0.27290404 -0.07734305 -0.0758228 -0.12700757 -0.17287809 -0.084061176 0.12192471 -0.09450631 0.057294052 -0.07353753 0.032048047 0.4188049 0.015856242 0.15641172 -0.35051134 0.012621605 -0.16289274 -0.029116714 0.080947004 0.036658354 -0.10430125 -0.07089867 0.14117754 0.23049414 0.13433209 0.040318854 -0.11935648 -0.06165058 -0.015857253 0.1212719 0.04619414 -0.042593833 0.018881924 0.08574444 0.099234805 0.1779093 0.22677414 -0.035428874 0.053176552 0.14065243 -0.00811842 0.020156149 0.11110683 0.13350408 0.29824615 0.11803242 0.045684066 -0.12760651 -0.11319104
て 0.29028213 -0.1557308 -0.05731157 -0.06324095 -0.17893122 0.040824465 -0.065100685 0.16291663 0.019585457 -0.27281216 0.10034409 -0.006078456 0.24224499 -0.22775017 0.05423234 -0.058222726 0.12469119 0.0671022 0.061661184 -0.12742674 -0.012610841 -0.2547011 -0.08295598 -0.07790815 -0.1306422 -0.16481929 -0.054088786 0.11597839 -0.08118267 0.054478228 -0.062131982 0.013452224 0.3986922 0.017084358 0.13640921 -0.3338052 0.0017330572 -0.1665182 -0.014938507 0.08240304 0.023404302 -0.08219679 -0.05138551 0.11517515 0.2160787 0.114677705 0.027183099 -0.13612099 -0.05062259 -0.021428565 0.11384318 0.04900591 -0.048287157 0.019159613 0.0679494 0.094826676 0.18377349 0.20521578 -0.046300877 0.04820889 0.1199587 0.0034164775 0.0105233565 0.11145797 0.13338268 0.293583 0.09847602 0.039381236 -0.14814271 -0.11263366
を 0.27488014 -0.14772415 -0.029821256 -0.060698602 -0.16404256 0.021006534 -0.06799529 0.1782713 0.0049342993 -0.28288698 0.07932053 0.0036079527 0.23975699 -0.24182408 0.065433994 -0.07571586 0.12336475 0.06402857 0.05311521 -0.13144661 0.0071712546 -0.27019244 -0.087237425 -0.07796994 -0.1461148 -0.17484148 -0.06999113 0.13076614 -0.08930628 0.044172995 -0.06408392 0.028723849 0.38765883 0.017433016 0.14586085 -0.31796286 0.014492507 -0.16843417 -0.029896658 0.08393372 0.035924107 -0.09094998 -0.06758464 0.11457903 0.20110656 0.10911856 0.026583388 -0.13051876 -0.06407323 -0.018763859 0.119901456 0.04563895 -0.03939306 0.033695728 0.059924442 0.10486351 0.18839492 0.21718462 -0.041592464 0.050619736 0.1266755 0.0060418686 0.027074302 0.11580193 0.11801186 0.29279208 0.11471135 0.04144488 -0.1376813 -0.12179843
の 0.3300486 -0.18010138 -0.062429603 -0.07334434 -0.20249337 0.025988955 -0.09271853 0.18091969 0.032121148 -0.32146513 0.0977938 0.01796734 0.29792568 -0.2736482 0.07519238 -0.073172756 0.13903292 0.06668456 0.084598646 -0.17152983 -0.013898852 -0.28817624 -0.08993348 -0.087461345 -0.14898987 -0.20959978 -0.07310153 0.1554587 -0.097439855 0.041663308 -0.05128811 0.037548106 0.46067423 -0.00046630518 0.17569402 -0.38265726 0.026922386 -0.19809026 -0.03903027 0.111368746 0.041776605 -0.10560127 -0.05429577 0.16144049 0.23416339 0.14143746 0.042785864 -0.13622262 -0.059914768 -0.0143196415 0.13283685 0.055401027 -0.06990322 0.03294003 0.08826407 0.119445115 0.2186241 0.23570897 -0.053212516 0.06312005 0.1447368 0.006676139 0.034194626 0.12667906 0.15455115 0.33162808 0.12496934 0.037056103 -0.16249838 -0.14251807
に 0.3285847 -0.16578026 -0.06314368 -0.085607715 -0.21093954 0.032325547 -0.08294207 0.20413062 0.027222624 -0.3235604 0.102334544 0.01713818 0.29308584 -0.26766348 0.06847814 -0.08987583 0.12856959 0.07660208 0.0671857 -0.17226316 0.0061776433 -0.30351877 -0.09016947 -0.07087061 -0.15790892 -0.20799208 -0.08571283 0.15472943 -0.114498705 0.054816976 -0.072924435 0.039689872 0.45574188 0.014169609 0.15729928 -0.37998983 0.02704216 -0.18150117 -0.03147917 0.08559308 0.027382756 -0.10345048 -0.06890592 0.14194658 0.26054472 0.13572882 0.041313313 -0.15168364 -0.06689397 -0.021499446 0.12024377 0.061761968 -0.068592645 0.031212475 0.086008124 0.11382809 0.20485675 0.24309821 -0.042672426 0.05974546 0.1292163 0.004796694 0.01211389 0.1311801 0.13450521 0.31794006 0.113730215 0.050322633 -0.14869983 -0.14503835
ます 0.30816862 -0.16744836 -0.03543285 -0.055539418 -0.19479364 0.030969938 -0.07922825 0.19062139 0.005219894 -0.30108958 0.105452195 0.012257175 0.26983646 -0.26598376 0.073142886 -0.08546067 0.11816946 0.06715895 0.06610941 -0.14965312 0.0010327599 -0.2936606 -0.09879158 -0.06668775 -0.1383391 -0.19797608 -0.069417976 0.13806923 -0.09375869 0.03982887 -0.057072084 0.035670586 0.4426484 0.003242801 0.15073892 -0.3665678 0.00028938122 -0.19161358 -0.028047672 0.08623382 0.04429624 -0.10594757 -0.061147135 0.1382093 0.22894087 0.12800619 0.04557747 -0.1215027 -0.06514848 -0.0024318667 0.11515451 0.06482811 -0.06182844 0.039394952 0.08398132 0.109033614 0.18886143 0.24116346 -0.02488091 0.03139182 0.120374925 -0.012897124 0.026071642 0.119277544 0.123004675 0.2957308 0.12545787 0.04098028 -0.160283 -0.13913898
。 0.32535234 -0.16799143 -0.040844947 -0.07768992 -0.1952602 0.02134031 -0.07723221 0.19675453 0.01930748 -0.3085445 0.08833191 0.014812604 0.27907988 -0.275303 0.048142616 -0.08251355 0.13300651 0.070188954 0.06038972 -0.16637148 -0.008306073 -0.29885307 -0.09942131 -0.0992504 -0.15632659 -0.20786671 -0.08784121 0.13578753 -0.10769492 0.049568173 -0.07856035 0.02941839 0.45732784 0.019915476 0.14940572 -0.37655187 0.019239305 -0.20177738 -0.025786005 0.105978586 0.046776675 -0.11322955 -0.07437246 0.13101247 0.24333127 0.14752816 0.04231274 -0.13583528 -0.055661317 -0.021299869 0.14353213 0.047486816 -0.06945248 0.03203574 0.07974765 0.09834169 0.19948883 0.24945012 -0.037028834 0.045343056 0.1434676 -0.014447409 0.03382292 0.14152874 0.12574254 0.32325557 0.13058412 0.02850907 -0.1624198 -0.15035333
、 0.32584485 -0.16068731 -0.033834297 -0.08243478 -0.18947221 0.036388446 -0.08155053 0.18626316 0.0078063523 -0.32028842 0.10339897 0.019940669 0.28424025 -0.24868868 0.05760064 -0.06682504 0.11090155 0.068741016 0.06871027 -0.1476872 0.010134627 -0.29719138 -0.07773946 -0.09742551 -0.15111248 -0.20661002 -0.083415344 0.15035824 -0.105852656 0.054428406 -0.04965669 0.04284407 0.42081016 0.0042956434 0.16866405 -0.3569173 0.011999335 -0.1958342 -0.021881849 0.08576139 0.05156746 -0.10471209 -0.06635579 0.14123467 0.23970646 0.13272703 0.04117485 -0.13782687 -0.06568545 -0.018244402 0.1367817 0.05941312 -0.05676295 0.04718572 0.069841735 0.099081315 0.20910247 0.24254818 -0.03261321 0.03350957 0.13847865 -0.0060134553 0.037940998 0.1268768 0.1398255 0.31683236 0.110314 0.031304825 -0.1486148 -0.13754062
が 0.27710763 -0.12355839 -0.043426264 -0.054625377 -0.17537326 0.03022378 -0.08139756 0.14560647 0.0067135068 -0.2760564 0.09456988 -0.00028459594 0.24545807 -0.23044331 0.05646331 -0.053588998 0.09493607 0.03891162 0.054243416 -0.1348329 -0.0013031896 -0.25936487 -0.08500082 -0.06691149 -0.13918313 -0.17793892 -0.06932669 0.10745526 -0.09767248 0.0314374 -0.05547219 0.01823902 0.38172948 0.010104155 0.12771064 -0.301445 0.0021872558 -0.16193224 -0.032424834 0.07619281 0.030999396 -0.07362076 -0.06125733 0.12654836 0.21312986 0.101529226 0.034441918 -0.10734244 -0.055106085 -0.0043638544 0.11710556 0.03926398 -0.058104422 0.033316847 0.06423149 0.07821862 0.18228747 0.19280371 -0.0396775 0.03969011 0.111521475 -0.0009005431 0.015836103 0.10719389 0.11561293 0.26907307 0.10915163 0.026057415 -0.13122326 -0.10767382
た 0.24219055 -0.12455017 -0.023181021 -0.03995585 -0.15014778 0.023655998 -0.05422981 0.12992159 0.005455232 -0.23647255 0.07179112 0.0065311086 0.2073827 -0.1934515 0.044684727 -0.053942505 0.09919214 0.04645039 0.042444203 -0.12796521 -0.00095823855 -0.20270719 -0.061818227 -0.072443955 -0.12268753 -0.1334215 -0.060479783 0.11072772 -0.08515359 0.04918788 -0.05565161 0.026365958 0.32097492 -0.0030302783 0.10954528 -0.26940233 0.001834608 -0.13629144 -0.0303349 0.0751005 0.042355474 -0.07571853 -0.049223404 0.107399456 0.18884781 0.0886342 0.013140318 -0.104924254 -0.030770192 -0.010872298 0.08108141 0.040576205 -0.028053226 0.014872032 0.051053733 0.088308945 0.13228065 0.1781706 -0.026564384 0.043485142 0.11124222 -0.0058694347 0.011250747 0.106657505 0.103326514 0.24002934 0.071848944 0.041205894 -0.1135686 -0.108689174
で 0.25471857 -0.1284095 -0.033105846 -0.0586385 -0.1630987 0.028573686 -0.053551033 0.14258608 0.018139131 -0.25858554 0.06888744 0.006588275 0.20704725 -0.20243298 0.05187362 -0.06539285 0.10743133 0.06526878 0.06857009 -0.12700313 0.0025683427 -0.23833811 -0.0810733 -0.055417582 -0.123954505 -0.15585227 -0.062909685 0.10506922 -0.076524206 0.034249876 -0.065670036 0.036743335 0.35791704 0.021866899 0.13360392 -0.286773 0.025002629 -0.15276529 -0.031494506 0.08357293 0.03601206 -0.08776425 -0.037542406 0.105932064 0.2052524 0.1078674 0.016945764 -0.11219677 -0.060422804 -0.015876831 0.102817215 0.061298773 -0.033729818 0.01812886 0.07102149 0.08499613 0.15441284 0.17405057 -0.02987613 0.025290696 0.11632769 -0.010652636 0.025459908 0.116475165 0.10818918 0.25735387 0.08958427 0.0411315 -0.11546837 -0.12132519
と 0.26361558 -0.13107489 -0.040351387 -0.060709395 -0.16957253 0.024832271 -0.069471866 0.1646408 0.00879273 -0.2682767 0.084602855 0.00822537 0.23385815 -0.22738619 0.058904193 -0.07084392 0.10890352 0.056039535 0.0677504 -0.14146523 -0.00959945 -0.25449154 -0.060306765 -0.07138979 -0.14142102 -0.16551048 -0.0707726 0.12928341 -0.10191062 0.04831833 -0.06850976 0.026942642 0.38198408 0.01933253 0.12056539 -0.31977198 0.0019766933 -0.16681066 -0.03585973 0.079957545 0.031135935 -0.09464814 -0.04811005 0.12043593 0.21286422 0.11460055 0.028369687 -0.12743665 -0.054094717 -0.005320537 0.09943576 0.051298782 -0.043799024 0.02819052 0.08270292 0.099098176 0.171008 0.21053149 -0.022660222 0.031435546 0.10846543 -0.011179249 0.008325395 0.11924394 0.1130675 0.2578444 0.091313474 0.04128374 -0.1326047 -0.12006251
し 0.18351637 -0.09685693 -0.0303095 -0.039416518 -0.117399156 0.030959869 -0.042356577 0.09149432 0.018998468 -0.18869103 0.05943477 0.011189818 0.1491894 -0.15240169 0.048333026 -0.05129774 0.061075892 0.050463814 0.037235487 -0.09677858 0.011853488 -0.16275553 -0.043455947 -0.03362936 -0.0995398 -0.10263547 -0.040737588 0.087138705 -0.05750303 0.035370257 -0.03183233 0.024649752 0.24837233 -0.001551593 0.08898028 -0.20653175 0.002215185 -0.09706876 -0.008686693 0.06725554 0.027200123 -0.04516691 -0.041011874 0.09183054 0.14502712 0.06456283 0.011944828 -0.08279653 -0.027854113 -0.010175786 0.068179384 0.04335032 -0.018479975 0.01840455 0.038208403 0.052054223 0.10710607 0.12177199 -0.018287186 0.021248711 0.0830801 0.0068427124 0.007194284 0.05980214 0.080204755 0.17308867 0.06991828 0.018295964 -0.07780572 -0.07734274
です 0.25260442 -0.12990907 -0.041837405 -0.042973265 -0.15350173 0.018112311 -0.07713251 0.1474731 0.02352494 -0.23637706 0.0671533 0.020895202 0.2212109 -0.19093771 0.062269438 -0.070516065 0.08626097 0.0573347 0.06758092 -0.11654797 0.0088220695 -0.23058663 -0.054824386 -0.0789108 -0.12854275 -0.1630664 -0.06636658 0.12001675 -0.086847134 0.0282065 -0.037785474 0.018043393 0.3577362 -0.0002349915 0.1283431 -0.27860746 0.014125848 -0.1494326 -0.015991077 0.06389917 0.025781559 -0.08039694 -0.0411167 0.10424207 0.17834863 0.11001639 0.025476493 -0.11329371 -0.037469935 -0.006870491 0.09462004 0.046278015 -0.03345512 0.04000711 0.07180052 0.086842984 0.16012661 0.18208645 -0.03936046 0.036605656 0.10281505 -0.0008522256 0.009178754 0.11060051 0.09795494 0.23622064 0.08636647 0.030108498 -0.1304943 -0.10646276
あなた 0.21094772 -0.11348023 -0.04513016 -0.045717668 -0.13288955 0.022723999 -0.06536055 0.12744145 0.022678439 -0.21060798 0.056861937 0.0017205968 0.19494009 -0.17743771 0.030006738 -0.04853457 0.07565273 0.033395838 0.053131063 -0.1129591 0.003515283 -0.18986462 -0.064229846 -0.04282595 -0.10161966 -0.12149816 -0.045383383 0.086072706 -0.077124044 0.045352217 -0.036159877 0.03352377 0.3146581 0.018493712 0.09466277 -0.2477956 0.001990962 -0.121665165 -0.010724339 0.074232824 0.036322474 -0.06587416 -0.047771867 0.10615927 0.1587769 0.092123225 0.035957992 -0.103560045 -0.036956146 -0.02134783 0.10117042 0.05310938 -0.03857132 0.03186487 0.05821634 0.06238543 0.13538939 0.17254443 -0.03200748 0.026626838 0.10101163 0.0020940884 0.013384627 0.08331173 0.103435464 0.21052179 0.07444869 0.018999794 -0.11137986 -0.10622066
訴え 0.18344101 -0.10921642 -0.028037379 -0.055320542 -0.13306361 0.007531985 -0.059615605 0.12257331 0.01527227 -0.18754372 0.05615496 -0.0054974193 0.16742095 -0.15734908 0.038525566 -0.046522338 0.07717588 0.03855658 0.031360235 -0.10265053 -0.012679945 -0.17937414 -0.05093884 -0.037933525 -0.09471476 -0.120804235 -0.03197525 0.08589783 -0.06644335 0.043022856 -0.03622332 0.010027385 0.2773854 0.01235521 0.08379503 -0.22211924 0.0089735305 -0.102148615 -0.018983586 0.05493533 0.027004372 -0.05879376 -0.03921767 0.08044776 0.1374337 0.09037822 0.030418783 -0.07133169 -0.049697056 -0.0058383974 0.07070808 0.0486648 -0.03165349 0.028084077 0.053607147 0.070803516 0.111327626 0.15335321 -0.025231121 0.021176232 0.07945683 0.012174514 0.0042378376 0.07427287 0.09182423 0.19088514 0.061703045 0.014902979 -0.078844234 -0.07296426
罪 0.22369173 -0.11585617 -0.046582334 -0.044913743 -0.12530331 0.012691505 -0.06859563 0.1258792 0.0043164594 -0.21799749 0.06509753 -0.001968893 0.20561253 -0.19480278 0.04935721 -0.04786236 0.084382705 0.057212073 0.06304065 -0.11484869 -0.008348661 -0.21248937 -0.07228947 -0.060005125 -0.11359931 -0.14755182 -0.05073036 0.10278667 -0.062856585 0.0318024 -0.05151845 0.021869678 0.30704337 0.02050359 0.10820185 -0.24252504 -0.0021458198 -0.11414725 -0.022675809 0.07982173 0.017384905 -0.06703804 -0.044389542 0.096085094 0.15993544 0.07904446 0.011821448 -0.10464047 -0.039624408 -0.008701733 0.08428015 0.051456403 -0.043492243 0.02261801 0.045460034 0.056843832 0.14916714 0.15499799 -0.03535537 0.03941355 0.10411576 -0.012514906 0.017576061 0.07826046 0.0959129 0.21226102 0.07479061 0.029035494 -0.09273357 -0.08382477
い 0.16717336 -0.10225606 -0.01748579 -0.037154246 -0.120489135 0.019557156 -0.03488524 0.106139965 -0.0027026485 -0.17638265 0.06637667 0.014437369 0.16420434 -0.15853213 0.035489157 -0.045741484 0.07960526 0.025417257 0.029142655 -0.08939461 -0.012895044 -0.16036949 -0.05109497 -0.032770105 -0.09611307 -0.11244173 -0.031974547 0.07503472 -0.067292966 0.031373836 -0.033301387 0.013295246 0.2642135 -0.005569355 0.09457856 -0.21085261 0.020560175 -0.09766949 -0.006327661 0.06754077 0.009048339 -0.04361917 -0.049349003 0.07694726 0.1322423 0.07009175 0.006575368 -0.09046681 -0.042641215 -0.010417957 0.06531898 0.04300341 -0.047004342 0.012548805 0.06035962 0.06964674 0.124999374 0.14133953 -0.020921178 0.019075932 0.08753758 0.0024368754 0.0241569 0.083765075 0.090452805 0.1950407 0.052596048 0.012560534 -0.08612758 -0.06983822
私 0.19139186 -0.085833155 -0.016840704 -0.04921778 -0.10314831 0.01219044 -0.06038559 0.12233729 0.012595719 -0.18153457 0.0515733 -0.0027210359 0.1658606 -0.14476003 0.032279555 -0.057564996 0.06782182 0.037180644 0.049710304 -0.0936365 -3.5995618e-05 -0.16775997 -0.060854014 -0.041330326 -0.09048997 -0.107871935 -0.034934923 0.07868901 -0.06344363 0.041180655 -0.03096344 0.026711099 0.26221517 0.019073213 0.09998257 -0.2130083 0.02053823 -0.09818395 -0.008708645 0.054592878 0.02022949 -0.06382682 -0.049941376 0.08494858 0.15217932 0.089381374 0.014667739 -0.06919583 -0.029081093 -0.014669008 0.07504788 0.025823252 -0.021213029 0.026925337 0.052252017 0.065319076 0.12519246 0.14541994 -0.02287113 0.016493836 0.09021772 0.008425997 0.015062467 0.07134398 0.07067135 0.1765571 0.080259405 0.018684443 -0.09741592 -0.06335986
だ 0.23676927 -0.100408584 -0.03377082 -0.061575975 -0.12769839 0.018672116 -0.0530184 0.1389578 0.027491672 -0.2340618 0.084211335 -0.005582254 0.18715307 -0.1964652 0.034450475 -0.04615819 0.10162156 0.039901584 0.05557191 -0.11521499 0.011357859 -0.19862364 -0.06178598 -0.065606155 -0.1166531 -0.13101633 -0.054153297 0.09709016 -0.0626905 0.030978873 -0.059672855 0.01795229 0.31274155 -0.0038134914 0.10338357 -0.27274385 0.02310742 -0.12100087 -0.018421993 0.07832189 0.039943285 -0.07083474 -0.038889542 0.10543853 0.1783044 0.10534166 0.017414795 -0.102138266 -0.041858755 -0.006643235 0.09664862 0.04587196 -0.03550206 0.013225749 0.051609147 0.061847594 0.15560667 0.175388 -0.024505757 0.03933046 0.08672184 -0.010588786 0.020732531 0.10111974 0.10325196 0.23355716 0.07872468 0.022986377 -0.10687886 -0.103342816
？ 0.18710345 -0.11217364 -0.02286196 -0.046183314 -0.12478603 0.008735143 -0.038260747 0.118084215 0.014078229 -0.18968606 0.05086593 0.007575577 0.17656611 -0.1753549 0.045633797 -0.046139136 0.08870289 0.04693194 0.040602088 -0.10621101 0.010348382 -0.18005525 -0.0474225 -0.04147478 -0.09258838 -0.13140039 -0.047336303 0.09933649 -0.07350422 0.044739727 -0.050759185 0.023763722 0.27969474 0.01693099 0.090455174 -0.23293437 -0.00022459214 -0.10860713 -0.024074454 0.071434505 0.018665066 -0.07369829 -0.04758076 0.095092036 0.14078003 0.074552074 0.008639397 -0.07551087 -0.033208523 -0.0061575514 0.073553205 0.045212485 -0.045210898 0.01889857 0.042992935 0.06254652 0.120882705 0.1584316 -0.023209523 0.016711563 0.07730862 -0.012023799 0.018770086 0.09289375 0.07730394 0.20851125 0.08421522 0.013977094 -0.107108936 -0.07093602
から 0.21913952 -0.11255198 -0.0406728 -0.033790298 -0.12293133 0.033107877 -0.06554013 0.10518799 0.0153055815 -0.21665618 0.05767465 0.0024745113 0.19371624 -0.15556352 0.035420056 -0.043384653 0.093817286 0.03881705 0.058746517 -0.09046643 0.0035223209 -0.19410318 -0.06332106 -0.059654947 -0.08747 -0.13737741 -0.05581062 0.10432956 -0.062237028 0.041110773 -0.052546974 0.018968308 0.29320258 -0.0017134051 0.11373238 -0.22584423 0.00902996 -0.12381118 -0.019445581 0.052950572 0.013680469 -0.06645792 -0.045812774 0.09931464 0.14774878 0.09368279 0.0112304175 -0.10146357 -0.027414318 0.0031207541 0.07917755 0.04222216 -0.045555547 0.008674652 0.041770585 0.07593523 0.13876148 0.16550286 -0.012441365 0.04042162 0.090314455 -0.016247908 0.022632062 0.08229697 0.099192835 0.20815475 0.07099373 0.03782874 -0.09679327 -0.08827323
も 0.14689304 -0.09022919 -0.035446476 -0.021419423 -0.10867628 0.028613448 -0.05375449 0.089918755 0.0068912604 -0.16333754 0.061695542 0.014037264 0.13808393 -0.118145645 0.030636657 -0.024008607 0.07230975 0.017631028 0.027528875 -0.07785291 0.0030623397 -0.14779228 -0.039524816 -0.050614882 -0.06890089 -0.08773918 -0.030260107 0.06414556 -0.061321583 0.011112391 -0.03188072 0.004560065 0.20388365 0.0132059185 0.085842125 -0.17453809 -0.0044407225 -0.09756505 -0.0013571065 0.052508704 0.011612884 -0.0586564 -0.03007695 0.07365006 0.11964515 0.069959454 0.0090909405 -0.0812239 -0.03991028 -0.0065440736 0.06823783 0.034883626 -0.02649303 0.024731154 0.0398924 0.05585553 0.08342141 0.12544684 -0.009795046 0.030463116 0.074970104 0.011352796 0.011865914 0.05990652 0.0674531 0.13988362 0.06764398 0.010503129 -0.062012125 -0.072329886
ね 0.19952512 -0.114864364 -0.044549152 -0.054817274 -0.13464926 0.021603389 -0.06262606 0.111642204 0.003079507 -0.20203005 0.07287567 0.012552253 0.18579297 -0.15317112 0.03134491 -0.039369848 0.06592482 0.036679316 0.0336714 -0.091502175 0.0026267178 -0.17493698 -0.050212212 -0.06152859 -0.08443509 -0.13115567 -0.03458119 0.09479448 -0.071640894 0.027024824 -0.04785816 0.009566736 0.29262105 0.002685731 0.10966605 -0.24362576 0.0115652215 -0.11868901 -0.0052650585 0.04891861 0.034892924 -0.0686006 -0.050090265 0.07874531 0.1465787 0.07857574 0.015106419 -0.09716109 -0.03730707 -0.011240285 0.077348486 0.041244213 -0.047291514 0.018361852 0.05887781 0.07688462 0.11082792 0.15864888 -0.01656684 0.02396694 0.09915643 -0.013970363 0.02500795 0.08818874 0.08775358 0.19229972 0.067026615 0.020814186 -0.093924165 -0.08364077
下さい 0.24712346 -0.10782079 -0.024484172 -0.058958545 -0.13430695 0.023372728 -0.054040603 0.14459696 0.012545167 -0.2273751 0.06818659 -0.0016370381 0.1949301 -0.19148766 0.057019617 -0.056264225 0.09594508 0.052906137 0.06385375 -0.12882647 0.0027808729 -0.2306048 -0.059582017 -0.04444782 -0.10259091 -0.13533911 -0.043899193 0.115226544 -0.06813169 0.05236614 -0.05529807 0.03449591 0.33862478 0.0027157026 0.12897024 -0.2659709 0.023176616 -0.1336845 -0.0051077344 0.07467664 0.042246457 -0.06836604 -0.04065085 0.09921995 0.1896143 0.109370716 0.020965502 -0.10587001 -0.040663294 -0.022195151 0.10868563 0.03019308 -0.05398422 0.03019233 0.07160389 0.06903024 0.15198833 0.18999107 -0.039180476 0.026140083 0.093584776 -0.0056104264 0.018587941 0.109589614 0.11230023 0.23738337 0.09121442 0.04190256 -0.101027444 -0.09398715
わかり 0.23462617 -0.12873356 -0.042385515 -0.05841031 -0.13364293 0.019857522 -0.07171645 0.14535707 0.025923677 -0.22862661 0.08386913 0.0043289484 0.19308797 -0.1882316 0.04545637 -0.062761776 0.09492021 0.055068847 0.062213384 -0.12460762 -0.002822568 -0.21799415 -0.051694844 -0.048176832 -0.1155378 -0.13837314 -0.062173244 0.10274493 -0.06111092 0.033345528 -0.053458184 0.011511724 0.31450045 0.006322632 0.11739748 -0.24975833 0.005982428 -0.12836638 -0.005293048 0.073359795 0.030162893 -0.05698855 -0.03307627 0.11134592 0.1648001 0.11060649 0.030111749 -0.08391758 -0.046769448 -0.0060643097 0.10013644 0.03774762 -0.03292763 0.028898902 0.07237472 0.0702352 0.13869154 0.17828001 -0.040264655 0.022831298 0.088419616 -0.0033367833 0.013948499 0.10178086 0.112235464 0.22630091 0.08477876 0.031634234 -0.11274934 -0.11020664
れる 0.23196991 -0.11887243 -0.026797904 -0.03719743 -0.13387537 0.026424719 -0.051734947 0.12713598 0.018095002 -0.21722864 0.07776011 0.013645255 0.1944926 -0.1737342 0.031156538 -0.045683444 0.10126141 0.038972665 0.050908238 -0.11750061 0.00034244277 -0.2004387 -0.04925719 -0.055537544 -0.10187929 -0.13421449 -0.040393014 0.08993309 -0.08067119 0.032238107 -0.0486886 0.027767772 0.29733318 0.003682554 0.098573595 -0.24955568 0.0063005267 -0.14217107 -0.012933653 0.08205303 0.023015495 -0.07815962 -0.04223364 0.09783161 0.15508886 0.10510391 0.0118112825 -0.10325271 -0.04643186 -0.017962934 0.091553204 0.05523766 -0.03403483 0.035024237 0.05626733 0.07360946 0.1334681 0.15306452 -0.021014417 0.03539852 0.08229584 -0.0085081635 0.0026084941 0.07992556 0.10115615 0.23462339 0.086773016 0.031478956 -0.094770595 -0.09621254
まし 0.199343 -0.11651167 -0.031622 -0.04843534 -0.12567267 0.031090178 -0.061996028 0.11180941 0.0026326359 -0.2029254 0.059417073 0.008463532 0.18019475 -0.1718318 0.032730363 -0.04908831 0.08842343 0.048475593 0.04068769 -0.10534411 -0.008188576 -0.18685707 -0.05191847 -0.04913441 -0.08565627 -0.12900406 -0.04699277 0.081791 -0.06858138 0.021929326 -0.042096302 0.020346055 0.2691332 0.017506836 0.08561595 -0.24786644 -0.0027509418 -0.10622364 -0.009428315 0.07472197 0.028252274 -0.061627578 -0.045466226 0.10273976 0.1576565 0.09053669 0.018268963 -0.08637007 -0.029567506 -0.009878833 0.08553403 0.0372088 -0.02955223 0.026771467 0.05503919 0.057522643 0.11947218 0.15554367 -0.031862885 0.029526323 0.08556351 0.002475427 0.0028567468 0.09319494 0.08645572 0.19439222 0.07904025 0.022855064 -0.10770057 -0.091985926
二宮 0.18878943 -0.10820314 -0.028449621 -0.03796309 -0.12207058 0.023387343 -0.045913998 0.12437776 0.013332086 -0.18187585 0.06402355 0.0038543025 0.151385 -0.14091444 0.03354534 -0.06035409 0.06502073 0.031979043 0.04733378 -0.08491667 0.007903121 -0.18274803 -0.050464764 -0.05481356 -0.0966959 -0.10472429 -0.040465694 0.07792938 -0.072867766 0.023368347 -0.03929592 0.028914686 0.2690544 -0.008237309 0.08017297 -0.20891778 0.004557478 -0.11613851 -0.006734281 0.049550887 0.031160275 -0.059702843 -0.049547672 0.08364312 0.15204512 0.09260184 0.023645222 -0.07648448 -0.044275526 -0.01118439 0.06971514 0.03575945 -0.037596144 0.015413829 0.03733131 0.074618936 0.12240275 0.13689923 -0.027020738 0.039274316 0.07201993 0.0035571526 0.015292132 0.088140324 0.09213714 0.18433467 0.0717886 0.020356705 -0.10370352 -0.085692614
鈴鹿 0.21779276 -0.1016684 -0.017353568 -0.035173193 -0.14576784 0.03167735 -0.06418349 0.12360808 0.013804077 -0.2020108 0.07558435 0.013689188 0.20071836 -0.17503066 0.031068444 -0.0620582 0.09545452 0.036678277 0.042840503 -0.10048965 -0.0038557108 -0.20581475 -0.061513133 -0.055721566 -0.09883597 -0.12482384 -0.058570907 0.09899718 -0.06112505 0.038234454 -0.035952117 0.013892204 0.3060327 -0.0059521026 0.11046644 -0.26358858 0.005761945 -0.13897774 -0.019822279 0.058208972 0.02103919 -0.066010684 -0.04059398 0.095287755 0.15210351 0.0824969 0.02320716 -0.10116876 -0.05543645 -0.011873077 0.098168425 0.04815088 -0.05289845 0.027163504 0.044303503 0.056754924 0.13591293 0.15976927 -0.03504611 0.023441147 0.08952801 0.0082539115 0.0056675402 0.09801944 0.09486545 0.2171771 0.0921561 0.034223426 -0.107589856 -0.086904645
う 0.21960126 -0.10083698 -0.032070465 -0.05607402 -0.13228607 0.013651652 -0.055070046 0.13590752 0.018765813 -0.19810091 0.05752734 -0.0023585423 0.19783132 -0.17572476 0.03252259 -0.053056587 0.08915172 0.040670365 0.040498797 -0.09877621 0.013335674 -0.210939 -0.059958413 -0.05944684 -0.11273944 -0.13446534 -0.058267873 0.11040235 -0.07987315 0.04084735 -0.045205634 0.026701191 0.30500263 0.020286338 0.10762032 -0.25897923 0.008254733 -0.122755736 -0.023170417 0.055463824 0.019269768 -0.078141995 -0.037119094 0.10115145 0.17605442 0.101286575 0.013382875 -0.08975827 -0.02938871 -0.008103801 0.09055122 0.04777229 -0.052471846 0.03821822 0.06675419 0.082678154 0.12287037 0.16984813 -0.01650854 0.030139478 0.08465287 0.0064053307 0.004941841 0.07966776 0.09912232 0.22747341 0.09155215 0.020520322 -0.116592266 -0.07898039
河野 0.23911865 -0.12011111 -0.047823712 -0.057672516 -0.14878902 0.01966337 -0.059769794 0.13573614 0.007935286 -0.23495743 0.08689126 0.001770619 0.18915235 -0.17604096 0.04774309 -0.044323206 0.08380807 0.03571689 0.05115302 -0.113387585 -0.014810296 -0.21350841 -0.0579946 -0.05387636 -0.09739318 -0.13599555 -0.06380698 0.10041713 -0.08068087 0.046782132 -0.056646377 0.024230296 0.31539676 -0.0014521136 0.10342358 -0.25747645 -0.0024984805 -0.13582925 -0.014017653 0.081949554 0.017603582 -0.06657672 -0.035887353 0.09127067 0.16863215 0.10391524 0.03183631 -0.09756437 -0.032544557 -0.010823597 0.09565262 0.038838256 -0.052657343 0.03144425 0.06014951 0.06123514 0.14240311 0.17357479 -0.024487399 0.04563836 0.097426 -0.009951835 0.028545223 0.08131563 0.0870476 0.22677843 0.069538645 0.027987422 -0.10605817 -0.103343494
お 0.18061793 -0.09811385 -0.03146342 -0.037267473 -0.10725968 0.028251605 -0.037680455 0.10032423 0.024482412 -0.19061257 0.07182091 0.009474548 0.17222066 -0.1708046 0.023305222 -0.03470534 0.07164339 0.043012124 0.052176688 -0.09370744 0.014015375 -0.17888145 -0.066257544 -0.059462205 -0.093534835 -0.13037424 -0.03441141 0.09106925 -0.0762498 0.042630818 -0.026772227 0.025708735 0.27775368 -0.007918132 0.094606526 -0.23396136 0.003361658 -0.110617764 -0.017116476 0.059891313 0.027930297 -0.056243066 -0.032136947 0.09409526 0.13575408 0.09138045 0.027086789 -0.069495246 -0.03058839 -0.014266622 0.07027956 0.03461913 -0.038108643 0.035448212 0.051483523 0.06689635 0.12432475 0.12907052 -0.013042807 0.039364763 0.08083845 0.00091837865 0.004466903 0.06871944 0.09437992 0.18543692 0.07956351 0.02595805 -0.094065554 -0.077244066
理由 0.18278533 -0.09990592 -0.028055195 -0.035151526 -0.12082069 0.01983733 -0.06111325 0.12589404 -0.00285707 -0.17701592 0.0652649 -0.0032953604 0.1590795 -0.16767362 0.029340452 -0.03726966 0.09010626 0.04149381 0.04297681 -0.07908285 -0.008541371 -0.17650728 -0.04757793 -0.05908522 -0.10452454 -0.13138115 -0.032857984 0.09353808 -0.06941101 0.018670259 -0.036822002 0.022828393 0.26406792 0.008825403 0.087489076 -0.21236753 0.009923337 -0.09740746 -0.031026684 0.051208533 0.009804853 -0.059493482 -0.050131742 0.09074536 0.1346995 0.07046934 0.02618878 -0.093121395 -0.034951508 -0.01928179 0.08937226 0.04814758 -0.032297138 0.02976445 0.05564398 0.05328282 0.13377392 0.12732048 -0.01221555 0.031849474 0.07828577 -0.0070186853 0.02732189 0.06859498 0.09401059 0.18072963 0.0810026 0.022826929 -0.08006184 -0.08578599
覚悟 0.15336426 -0.062022127 -0.021293025 -0.02986397 -0.0829419 0.027146088 -0.026154477 0.0968267 0.018939849 -0.13241802 0.05879538 0.0031956104 0.124919176 -0.11691153 0.029102925 -0.033925496 0.0450498 0.015267827 0.029686756 -0.05918502 -0.00515996 -0.14501284 -0.03212748 -0.03535486 -0.067587025 -0.08355066 -0.02941971 0.07296856 -0.04637509 0.024819609 -0.017189667 0.016071022 0.19666165 0.01272174 0.07881971 -0.16416453 0.00048190015 -0.07961127 -0.0022769086 0.05444799 0.020100804 -0.056619305 -0.030238481 0.06464049 0.11643655 0.04694887 0.02838232 -0.073203616 -0.019103294 -0.02093815 0.071149625 0.036633395 -0.02466391 0.011549203 0.036842577 0.047175065 0.08157826 0.11615679 -0.012984825 0.02771007 0.051821835 0.011691667 0.010605634 0.05843343 0.049829535 0.15150985 0.06309993 0.029307736 -0.07964979 -0.073069856
近い 0.20101272 -0.10813186 -0.04537289 -0.058732156 -0.1334155 0.023148661 -0.069073156 0.11823668 0.014749875 -0.19610459 0.06903721 0.0040779943 0.17083931 -0.18246128 0.041527897 -0.04084714 0.0908971 0.04067439 0.048930038 -0.11854138 -0.0015658801 -0.2006865 -0.049011897 -0.054682314 -0.10825451 -0.14172222 -0.05107324 0.08388069 -0.07118666 0.028582327 -0.046041597 0.0143404035 0.28254288 0.003140321 0.105322406 -0.24781619 -0.0026401237 -0.12657286 -0.030429335 0.0631437 0.03603991 -0.06896037 -0.039782923 0.099705756 0.17379834 0.096401446 0.034592528 -0.10479401 -0.050564796 -0.020033438 0.07284117 0.02622516 -0.049348313 0.019190507 0.056705594 0.06345247 0.11843997 0.1644157 -0.023112407 0.037933305 0.09916347 0.011104498 0.013031685 0.08971401 0.083012484 0.21219687 0.08403146 0.041105885 -0.10627589 -0.086804755
うち 0.17949489 -0.09910051 -0.017107114 -0.046945516 -0.11853679 0.005736321 -0.06320324 0.12401033 0.0026441242 -0.17762586 0.04988199 0.0025113064 0.15240581 -0.14368662 0.045999493 -0.037963577 0.08721667 0.037500072 0.027928146 -0.08106945 -0.007802285 -0.16392462 -0.04410352 -0.049766663 -0.10149605 -0.11720795 -0.037119366 0.07463211 -0.05951338 0.017814305 -0.027006896 0.0134607935 0.27703577 -0.003030783 0.080272555 -0.23029713 0.0024144936 -0.10344495 -0.016699059 0.07117409 0.026715903 -0.05466058 -0.035765834 0.095561 0.14010715 0.090161905 0.005638731 -0.07903754 -0.037229203 -0.008729831 0.08566419 0.030078411 -0.03814327 0.021200432 0.048606347 0.05515164 0.12717864 0.13140473 -0.0111385 0.027785605 0.08389973 0.0030543557 0.012240727 0.079891965 0.07644602 0.19505581 0.070508786 0.019106116 -0.10357601 -0.09604761
なる 0.2140331 -0.117870614 -0.03357954 -0.05388794 -0.14733765 0.02326747 -0.04789151 0.12442164 0.002284407 -0.20569217 0.065975145 -0.0035091809 0.18581112 -0.17796609 0.037152328 -0.069206245 0.09551204 0.04920983 0.0448279 -0.09481006 0.0005311564 -0.1885377 -0.06048047 -0.043842655 -0.10319634 -0.1419258 -0.05710289 0.10970149 -0.070429556 0.037359897 -0.03161894 0.011522124 0.2977677 -0.004633004 0.09535051 -0.26254067 0.015966987 -0.12057822 -0.011327686 0.07006161 0.029381583 -0.060095694 -0.04884188 0.09922544 0.17613304 0.09175617 0.031394187 -0.1022499 -0.031209014 -0.0025005043 0.0923471 0.025335828 -0.0404014 0.028247077 0.047487892 0.060147144 0.14295492 0.14989112 -0.032412708 0.043081243 0.08245803 0.010375591 0.016155427 0.09180182 0.088607 0.20692992 0.06694457 0.025737373 -0.11099078 -0.094669186
刑務所 0.18830934 -0.101317585 -0.036450177 -0.04743271 -0.1187945 0.004200671 -0.048276287 0.11960805 0.022144897 -0.18018924 0.042482138 0.00235778 0.1410096 -0.1530558 0.026835836 -0.039432053 0.058523547 0.03810051 0.041912172 -0.078902416 -0.0035170217 -0.17806642 -0.04189463 -0.05435844 -0.07786737 -0.105793305 -0.029898133 0.08078318 -0.0605327 0.038666606 -0.04593937 0.0038817804 0.25224155 0.0019226865 0.081636064 -0.20745565 -0.006079303 -0.10352517 -0.01746026 0.049530786 0.025123239 -0.048928928 -0.028662348 0.06660002 0.12670586 0.06113148 0.004818731 -0.082333736 -0.036259025 -0.020688232 0.06321969 0.02957024 -0.022786576 0.022055613 0.057838324 0.045231346 0.10382491 0.13086344 -0.008086016 0.027585845 0.07822742 0.00047241725 0.016819624 0.057124004 0.08146216 0.1847674 0.072718166 0.027656619 -0.09677835 -0.08163379
もちろん 0.19505149 -0.09449024 -0.0425 -0.032146014 -0.12491895 0.028552309 -0.04028637 0.100519106 0.013791521 -0.1739936 0.05221769 0.0028188727 0.17466812 -0.13782567 0.023227502 -0.035216704 0.08727887 0.033142585 0.045665275 -0.09410024 0.011776772 -0.17064632 -0.04231865 -0.03389466 -0.08215914 -0.12520538 -0.04717251 0.084889665 -0.058391448 0.033147797 -0.023300875 0.022912946 0.27246496 -0.00577779 0.08267453 -0.2099464 0.013425454 -0.107768804 -0.026662417 0.052084487 0.009392158 -0.043523844 -0.0325697 0.06947874 0.14428182 0.08262545 0.01152988 -0.08773726 -0.034019843 0.005073725 0.059406117 0.03511123 -0.044104934 0.019418962 0.052426413 0.052522738 0.111969694 0.13721429 -0.031823844 0.03688412 0.08482341 -0.01391433 0.010837447 0.07814715 0.06665712 0.17258562 0.055097435 0.015211456 -0.07585341 -0.0683906
れ 0.21289295 -0.1188817 -0.023104066 -0.040824883 -0.12970282 0.008801317 -0.056932475 0.12320213 0.0012767046 -0.20130989 0.06669578 -0.0034517038 0.16970253 -0.16270195 0.027562022 -0.0598937 0.09062193 0.042376988 0.042181045 -0.10931537 -0.0022416578 -0.1843876 -0.064930126 -0.06262662 -0.10619639 -0.13706708 -0.061613258 0.0790233 -0.05715684 0.04557744 -0.047489382 0.007572661 0.28676555 0.00083605706 0.11720301 -0.23783202 0.0010875913 -0.12666984 -0.03145487 0.06683219 0.020169836 -0.06961576 -0.03520916 0.10352958 0.16456795 0.07861397 0.03047974 -0.10433794 -0.050155044 -0.021403534 0.08119966 0.039231677 -0.042702597 0.026258942 0.06544193 0.07743088 0.12937328 0.16861257 -0.021824615 0.027279349 0.08100308 0.0072507435 0.003511624 0.08050208 0.10257325 0.2048703 0.07766554 0.015702525 -0.09277382 -0.07894717
裁判 0.14959507 -0.088014826 -0.01419403 -0.03252623 -0.10208782 0.016432498 -0.057013262 0.11158546 0.0064485692 -0.16758552 0.05516808 0.0048306077 0.13344535 -0.12652345 0.029338866 -0.04944589 0.07504047 0.043173216 0.04955209 -0.07981356 0.00061837805 -0.16287962 -0.037633553 -0.027811887 -0.079829864 -0.103312835 -0.044856988 0.07290498 -0.06449167 0.034953866 -0.032113995 0.0286279 0.22057109 -0.0021356721 0.07206823 -0.1997707 0.011286729 -0.087296195 -0.012392312 0.055669148 0.0068679503 -0.053165805 -0.04600561 0.076496 0.1215113 0.081821546 0.0115816705 -0.06135706 -0.025244871 -0.0054270313 0.06395988 0.041573286 -0.026850332 0.029281631 0.047886044 0.06118558 0.10895374 0.110863976 -0.02722325 0.026376842 0.07033921 0.0011534871 0.012616677 0.07653252 0.06353747 0.16387749 0.069914125 0.024678042 -0.072643064 -0.06368356
星座 0.20318948 -0.11803126 -0.026541075 -0.059037812 -0.13214031 0.008077368 -0.054238472 0.10900125 0.02281908 -0.20856273 0.07983954 -0.00735219 0.17137024 -0.16584072 0.034962293 -0.049473636 0.07640539 0.04124702 0.03739853 -0.11510786 0.00869516 -0.18809868 -0.04612779 -0.06373117 -0.09276347 -0.14299041 -0.03633295 0.09863849 -0.07693816 0.045820054 -0.048346657 0.0073876376 0.2881633 0.01006945 0.08957827 -0.25173682 0.022447206 -0.11709925 -0.015736522 0.06716043 0.021876274 -0.062370863 -0.03952899 0.1060502 0.14895143 0.09035486 0.02969976 -0.09843502 -0.05236423 0.0026947435 0.09283448 0.032784916 -0.028843656 0.023699181 0.04514192 0.06449521 0.12113879 0.1617449 -0.021253863 0.018357556 0.08814678 -0.005102423 0.024989653 0.07971606 0.10097434 0.20874888 0.06924878 0.0369277 -0.094606735 -0.09246288
ぶち込ま 0.16765222 -0.095310286 -0.034937497 -0.034723844 -0.12300639 0.008730562 -0.041212305 0.10528345 0.018661676 -0.17836708 0.054858264 0.008216959 0.16192928 -0.14410986 0.049459476 -0.039148092 0.060006745 0.034027528 0.027791426 -0.094614565 -0.0043515973 -0.1775028 -0.036094002 -0.04219594 -0.086353384 -0.116629235 -0.053931892 0.06461412 -0.04501451 0.025128124 -0.029892094 0.00946503 0.2615532 0.011692837 0.08895568 -0.21008193 0.009481218 -0.10635597 -0.005089564 0.060676742 0.023259092 -0.050420493 -0.031191844 0.06820841 0.14723027 0.07644142 0.008809581 -0.06341896 -0.036276985 0.0032272872 0.06813783 0.042699244 -0.027915921 0.013050354 0.040470466 0.07069408 0.112768665 0.12271851 -0.01979513 0.022404747 0.07790225 -0.012823368 0.023520475 0.07274901 0.088098064 0.1835627 0.058696374 0.027332418 -0.086547375 -0.08962828
ない 0.18692717 -0.07461883 -0.013420882 -0.04354363 -0.121791646 0.025348436 -0.057595003 0.11496518 0.014105496 -0.1634333 0.064609475 0.00670244 0.1500764 -0.1416719 0.04736267 -0.054270867 0.066970915 0.031169398 0.045603063 -0.07613637 -0.0070188683 -0.15444842 -0.054679416 -0.043505967 -0.07039743 -0.10379307 -0.0508366 0.073500805 -0.045083802 0.0422631 -0.027022058 0.011575812 0.23913436 -0.0039728526 0.08089157 -0.19835068 -0.0008041998 -0.11165842 -0.0033353008 0.06686786 0.032819793 -0.052519478 -0.049356036 0.068445906 0.13494936 0.06041829 0.00892377 -0.07345046 -0.038101975 -0.021748016 0.08084317 0.01793803 -0.043539286 0.01687574 0.04555704 0.05576587 0.10271141 0.13983127 -0.007377108 0.0154104205 0.08912959 0.010766702 0.0029451754 0.06785972 0.083031505 0.18469408 0.057554927 0.011362613 -0.076173104 -0.08929262
詐欺 0.19395843 -0.10516511 -0.022398876 -0.054159258 -0.11988533 0.018825976 -0.049531303 0.13179706 0.012128662 -0.18825792 0.061923712 -0.0074968254 0.19150522 -0.17551304 0.04609119 -0.057635896 0.06984632 0.03299209 0.05221427 -0.100827485 0.0023837117 -0.20239817 -0.06381239 -0.060676564 -0.08576683 -0.13808103 -0.04104257 0.09130078 -0.06845785 0.04677965 -0.048467435 0.009422532 0.28745002 0.018598601 0.1134145 -0.24224001 0.0135605475 -0.11109027 -0.02610364 0.07264098 0.014979564 -0.06175671 -0.03778024 0.095804885 0.14808226 0.08976375 0.03051765 -0.07610717 -0.052555606 -0.0014185222 0.087123446 0.035456546 -0.023616321 0.017219 0.050952137 0.056699317 0.121661365 0.15222746 -0.028217869 0.021624066 0.09893798 -0.010927609 0.005350254 0.09237687 0.101191066 0.20905146 0.07487938 0.026585866 -0.09916435 -0.07575482
起こし 0.14637205 -0.07952535 -0.018327482 -0.038074754 -0.09616334 0.021126207 -0.02692563 0.09660348 0.023082808 -0.16160855 0.05619247 -0.00096664927 0.13028054 -0.12642127 0.024566395 -0.04627293 0.06674812 0.04425815 0.025405452 -0.08996766 -0.004262931 -0.13489957 -0.05642372 -0.0252392 -0.07628785 -0.092509426 -0.040082186 0.062289026 -0.047812767 0.033718217 -0.042669863 0.012727131 0.22176014 0.010549264 0.08740935 -0.18650483 0.01789227 -0.099080876 -0.016423253 0.06042098 0.026148107 -0.061078332 -0.03521019 0.056193203 0.11784887 0.07497592 0.005216773 -0.059763025 -0.021364726 -0.013301643 0.04808251 0.025271859 -0.033053502 0.023155188 0.054670293 0.053819608 0.09523349 0.12045266 -0.02882171 0.021806035 0.06415814 0.01325555 0.0020989426 0.053138938 0.07052011 0.1599398 0.047904942 0.011469552 -0.07730178 -0.07148378
とても 0.1596634 -0.09448722 -0.032100726 -0.029696317 -0.1061729 0.020024577 -0.04544974 0.09808545 0.014912713 -0.16892427 0.062540226 0.0035484165 0.13790599 -0.14139502 0.047991864 -0.050090108 0.060792338 0.030936217 0.050964713 -0.08668257 0.013791164 -0.17195015 -0.03416488 -0.058691364 -0.07043415 -0.10493812 -0.03714328 0.06980492 -0.04545321 0.037175447 -0.0434781 0.0017151461 0.25231755 -0.0036532504 0.07218885 -0.1962008 0.00043435826 -0.11120516 -0.0009828416 0.050384264 0.019297857 -0.05925048 -0.04318791 0.06997766 0.123452336 0.06502613 0.005647774 -0.061543696 -0.022682358 -0.014424031 0.07279778 0.02042036 -0.020213418 0.031363398 0.04531989 0.04582601 0.1039958 0.13691509 -0.02506133 0.030333532 0.08848206 0.006116468 0.005392674 0.07787081 0.071940936 0.1638759 0.0741861 0.008363187 -0.08569909 -0.07699597
でも 0.14562374 -0.08215233 -0.015658574 -0.04357667 -0.10868821 0.024487616 -0.046210635 0.08310082 0.008732695 -0.15572953 0.061104152 0.004663769 0.14962897 -0.14479594 0.037112303 -0.031086342 0.06496494 0.02876153 0.03623027 -0.07911863 -0.011803534 -0.15787284 -0.041909724 -0.042592313 -0.062696 -0.09876101 -0.028842488 0.0745228 -0.041112788 0.012392523 -0.029853942 0.012245572 0.22611187 0.005102712 0.068734735 -0.17175485 0.0030093952 -0.089383304 -0.023206547 0.054342873 0.033892617 -0.05188482 -0.02463206 0.06913575 0.13351367 0.0809447 0.015050553 -0.071480155 -0.04367997 0.0068229097 0.058814254 0.032014046 -0.031038325 0.030150432 0.054078285 0.053317938 0.103321575 0.12753414 -0.015407645 0.032859836 0.068819664 -0.004805281 0.018694747 0.058360312 0.06435479 0.1721823 0.045797117 0.015564769 -0.08118363 -0.058823165
でしょ 0.17701939 -0.09474159 -0.017225577 -0.03768837 -0.117084205 0.012625075 -0.046275858 0.09318855 0.008115638 -0.17080083 0.06072022 0.01792994 0.14329271 -0.13216989 0.032113463 -0.042777672 0.056302473 0.03601335 0.041832387 -0.0726972 0.009253313 -0.14986764 -0.03844725 -0.052875288 -0.08230121 -0.111349866 -0.030059002 0.08653873 -0.061731882 0.029854868 -0.026777748 0.017545076 0.23468587 -0.0039611775 0.09647428 -0.20461012 -0.0006049107 -0.105379604 -0.023841988 0.046835672 0.0066666105 -0.051094536 -0.040901247 0.07055522 0.13550206 0.076192304 0.019968025 -0.07435347 -0.017538741 -0.006928236 0.07313093 0.0438294 -0.044528577 0.006346726 0.058670327 0.058085162 0.10028508 0.13147001 -0.026303293 0.015612872 0.06023968 0.009595301 0.007970314 0.0557266 0.06299703 0.17468147 0.05727984 0.011614598 -0.08302568 -0.072963916
何かしら 0.17007573 -0.093748726 -0.021870364 -0.03685821 -0.115321085 0.022408571 -0.037700046 0.09055073 -5.6502533e-05 -0.1643087 0.042562187 0.0048350957 0.14061269 -0.13459243 0.028435746 -0.053265225 0.06861599 0.03410532 0.05074658 -0.07352047 -0.00027054307 -0.15876125 -0.04202224 -0.04468266 -0.09276465 -0.10925205 -0.03777149 0.090167254 -0.06288485 0.014492628 -0.028353691 0.029977443 0.23616089 0.005410941 0.07903289 -0.19526578 0.021678299 -0.10181795 -0.007417024 0.06454762 0.028237427 -0.066345826 -0.031383652 0.075574115 0.13113965 0.08171603 0.015014246 -0.06212735 -0.035796836 -0.008363597 0.06722718 0.020413624 -0.04669241 0.025867006 0.036186513 0.061407834 0.11478932 0.120087475 -0.025699269 0.017673803 0.06361083 -0.0008532995 0.02654594 0.06159309 0.070638396 0.18883522 0.07833002 0.036420677 -0.09883842 -0.06913535
侮辱 0.17298897 -0.08294528 -0.018518258 -0.046973895 -0.103494935 0.005986897 -0.04200638 0.11634214 0.018093666 -0.17191042 0.053000547 0.010547785 0.15173712 -0.16105537 0.03995957 -0.059931315 0.07145793 0.03939438 0.052392673 -0.10027969 -0.00318762 -0.17674357 -0.058871508 -0.047934406 -0.08230794 -0.12080024 -0.04601775 0.09531304 -0.062171914 0.0254283 -0.028187547 0.01866288 0.25666466 0.020265343 0.10227921 -0.20755355 0.013137497 -0.10936537 -0.0048295404 0.064050265 0.014693791 -0.067653775 -0.040580522 0.06942409 0.1448385 0.06482354 0.016195867 -0.07520967 -0.030710202 -0.0038111224 0.059682608 0.03914924 -0.025461754 0.02547877 0.059373356 0.061218943 0.123041295 0.1496294 -0.022546358 0.025407542 0.08244446 -0.013087588 0.020901652 0.06519915 0.07358233 0.17978476 0.079399906 0.025275953 -0.088771835 -0.0821438
だから 0.15763588 -0.08373767 -0.031306416 -0.041896682 -0.100035906 0.022352148 -0.039864123 0.10598616 0.009952129 -0.16264844 0.038872335 0.01264796 0.15029578 -0.14157589 0.038623992 -0.027215416 0.05406994 0.028295295 0.023346942 -0.07461853 -0.005301765 -0.14664803 -0.030978868 -0.053411905 -0.09071784 -0.09682328 -0.049824793 0.058381457 -0.06602655 0.0266577 -0.034642216 0.015778918 0.22264327 0.0182049 0.09222831 -0.19663104 0.019641316 -0.10653201 -0.016492577 0.053818073 0.019246925 -0.05630787 -0.03424443 0.073220104 0.109537095 0.06095537 0.0061117276 -0.0646146 -0.032522246 -0.017848225 0.072343804 0.030464157 -0.024739971 0.025076227 0.03584802 0.063277595 0.08930765 0.11496976 -0.028549941 0.02487231 0.059396327 0.011934364 0.019373465 0.05367722 0.078547895 0.17005342 0.04900396 0.026693719 -0.08800212 -0.05479151
捕まり 0.15579972 -0.07659204 -0.03623324 -0.034954492 -0.09335745 0.014933489 -0.026858235 0.08595291 -0.0036118757 -0.15961672 0.043685168 0.0058892854 0.1308125 -0.12726033 0.042364508 -0.03833532 0.06837544 0.03636506 0.023486102 -0.07746927 -0.011713919 -0.14827557 -0.04583333 -0.028438147 -0.073551804 -0.08060708 -0.038957737 0.059255898 -0.043594416 0.028110972 -0.03114095 0.01042544 0.20100035 0.011986503 0.06320028 -0.18582132 -0.005395403 -0.07402728 -0.007763095 0.05637151 0.03165018 -0.05833904 -0.026161358 0.070804216 0.12278232 0.057562478 0.02864169 -0.07366941 -0.018494438 0.003472352 0.057831436 0.03523691 -0.01737059 0.018014485 0.04961307 0.052555885 0.09104762 0.12125826 -0.011097428 0.01794441 0.0663233 -0.0014140719 0.017467214 0.05145245 0.058541413 0.14755099 0.061081417 0.009829004 -0.060647383 -0.067397274
そして 0.16813985 -0.07893126 -0.013789863 -0.044816267 -0.105145924 0.01922089 -0.04647529 0.10613269 0.000103264014 -0.15377116 0.04846023 0.0016983262 0.14488344 -0.13731167 0.02559874 -0.053781252 0.06702677 0.041851647 0.027349766 -0.067512125 0.006290782 -0.15944134 -0.0461874 -0.0334567 -0.0886986 -0.096185766 -0.029756429 0.082891576 -0.047652204 0.032665607 -0.038576897 0.0064965407 0.23920663 -0.005266669 0.076977305 -0.19369787 0.016658738 -0.10210264 -0.00957978 0.053208403 0.014057948 -0.06402333 -0.047895554 0.07621629 0.110818915 0.07720875 0.0121486075 -0.08280935 -0.037683316 0.004131732 0.059890907 0.038616456 -0.04295087 0.0060770605 0.036655154 0.053795435 0.08995279 0.107739516 -0.03167033 0.02322863 0.08071764 -0.014034657 0.0027392786 0.06676829 0.07399561 0.14977987 0.07162497 0.008283825 -0.071334265 -0.054151215
無罪 0.13921675 -0.058173377 -0.00753381 -0.024702469 -0.09278517 0.021620959 -0.046584077 0.07061129 0.015469053 -0.14005764 0.03318692 -0.001869064 0.11975764 -0.10061867 0.02873663 -0.025814112 0.049225762 0.033764403 0.018926607 -0.06780987 -0.011613291 -0.12280031 -0.02918488 -0.026806869 -0.07063201 -0.07805199 -0.02024451 0.051619098 -0.049389396 0.020752544 -0.034308627 0.025051832 0.19618905 0.017388783 0.078358494 -0.166356 0.0059386054 -0.088305704 -0.018348692 0.028688403 0.02125413 -0.041993152 -0.03826866 0.06926729 0.10303551 0.057302225 0.008352074 -0.062584005 -0.02901106 0.0047232984 0.056242514 0.016910935 -0.017711574 0.016934618 0.03126049 0.053713858 0.076398045 0.10927472 -0.021332646 0.00851266 0.051069986 -0.006782077 0.0076404256 0.05157823 0.06373486 0.14035738 0.04608252 0.021624526 -0.066826046 -0.055855613
楽しく 0.17547046 -0.094845384 -0.034611784 -0.0457341 -0.111075394 0.019279616 -0.060412087 0.1145909 0.007496493 -0.1793267 0.04857807 -0.0012223226 0.1478808 -0.16133647 0.035731483 -0.056028713 0.06391758 0.025028767 0.05379243 -0.08990201 -0.011813699 -0.15697633 -0.061362617 -0.04835427 -0.08160384 -0.119607784 -0.054516416 0.06933968 -0.04671397 0.04205594 -0.031380963 0.019299889 0.2558122 0.00015974249 0.10195502 -0.19563305 0.013478575 -0.09185804 -0.027535982 0.056453936 0.035744365 -0.057167858 -0.04707228 0.07472745 0.1315571 0.07061719 0.014232296 -0.06713821 -0.034926698 -0.0026118006 0.06629463 0.045204166 -0.04192598 0.0054473323 0.039764013 0.047810066 0.104220316 0.13253315 -0.017745823 0.02898592 0.08445677 -0.0026333954 0.016558604 0.07202153 0.08808242 0.19092731 0.062831715 0.024276234 -0.09535961 -0.084080026
僕 0.15135333 -0.08288566 -0.03318925 -0.04193705 -0.09754153 0.020493455 -0.05564144 0.09753937 0.017698739 -0.15304519 0.045779597 0.017352233 0.15512465 -0.13310632 0.032774385 -0.053553157 0.056168202 0.032716315 0.043334544 -0.07887452 -0.01071107 -0.14219758 -0.054876547 -0.029255748 -0.070302896 -0.10949152 -0.03486941 0.08319388 -0.06259368 0.01672387 -0.020905102 0.016854111 0.24036424 -0.010722303 0.07760422 -0.17680632 0.0046072467 -0.09596276 -0.024284812 0.040002022 0.011520607 -0.036693834 -0.036207672 0.058970626 0.13412414 0.06280849 0.014079545 -0.071098745 -0.026603278 -0.015346395 0.064099155 0.025350923 -0.017209798 0.027513774 0.042710878 0.042701043 0.10647887 0.12140818 -0.02630232 0.015565282 0.064918384 0.0014387649 0.00020265186 0.058536805 0.08240197 0.15603423 0.07079049 0.021244293 -0.08523093 -0.076271795
うきうき 0.15886307 -0.07655994 -0.034642965 -0.04420191 -0.10878853 0.0259134 -0.045126446 0.10021204 0.007886946 -0.16794421 0.047881395 0.0043324567 0.14466296 -0.144924 0.023118557 -0.04925173 0.068375655 0.02664482 0.03798842 -0.073456764 0.0055857007 -0.14438438 -0.048893176 -0.038379446 -0.08473323 -0.10775669 -0.024396786 0.064082526 -0.06466805 0.031841516 -0.020225612 0.014112819 0.22688127 0.00024542693 0.0733412 -0.19715616 -0.0038349666 -0.10481884 -0.02202887 0.06186875 0.034379248 -0.05241916 -0.032626245 0.082000874 0.123641014 0.060088176 0.01941939 -0.06602877 -0.036661923 -0.014820399 0.077915564 0.041172832 -0.042269655 0.00864015 0.04382831 0.054611553 0.08847812 0.13245535 -0.027615512 0.030387444 0.081269555 0.0013338544 0.018150482 0.060715847 0.05613944 0.16191582 0.057369817 0.005581786 -0.06772792 -0.07927918
待っ 0.1680007 -0.089064 -0.038498785 -0.048228677 -0.092380136 0.009220141 -0.034397215 0.092428416 0.023125824 -0.14831363 0.06502033 0.0169707 0.1290215 -0.14604189 0.024983644 -0.04132792 0.07156018 0.03741195 0.032528732 -0.07166911 -0.0053106495 -0.15871836 -0.03735859 -0.05516966 -0.0767275 -0.10522451 -0.027116222 0.0664031 -0.048668653 0.016596908 -0.017957248 0.0066502932 0.229789 0.009658527 0.091798365 -0.19433486 0.00062638894 -0.10289396 -0.005227013 0.04374972 0.0281775 -0.05080092 -0.022376217 0.062009156 0.12325062 0.0674727 0.0040130904 -0.056957975 -0.03473201 0.0015940153 0.0649426 0.0374245 -0.026316348 0.030558733 0.029770508 0.06470151 0.11320519 0.12095566 -0.013061045 0.029495465 0.075015716 -0.0050574876 0.01650846 0.06599917 0.075869344 0.17388725 0.047170907 0.019983219 -0.09056614 -0.07263517
暇 0.13349715 -0.07118423 -0.02640992 -0.033466507 -0.081658065 0.0035959275 -0.037404887 0.083212465 0.003536104 -0.15483291 0.035483267 0.015940165 0.117146485 -0.11336107 0.023404572 -0.037824523 0.061367262 0.017414534 0.025010712 -0.08369409 -0.0134765245 -0.1432642 -0.04395769 -0.036834534 -0.07146262 -0.10170627 -0.04060027 0.06260298 -0.058137257 0.0148901725 -0.033832576 0.0013155125 0.19358607 -0.007908211 0.077918515 -0.18073635 0.00067494955 -0.07597495 -0.0015500311 0.03465735 0.027605405 -0.056658186 -0.031659536 0.074417956 0.10696875 0.07449189 0.0142672025 -0.057399318 -0.0174063 -0.019803442 0.04967369 0.01633372 -0.028628096 0.0072017508 0.038214847 0.035225276 0.09269702 0.10934782 -0.0074819247 0.009308351 0.058103245 0.00762697 0.02317917 0.056763597 0.06463113 0.13684408 0.055344794 0.006819539 -0.08191084 -0.06077854
こと 0.15882744 -0.07341636 -0.03849874 -0.03188188 -0.09748208 0.00902483 -0.041151647 0.101533525 -0.0001594573 -0.15542835 0.056237787 0.007888992 0.14262213 -0.118647724 0.040794596 -0.03444883 0.07492976 0.020928781 0.045927092 -0.07283293 -0.009176042 -0.15212415 -0.034936562 -0.033709798 -0.09030376 -0.095912986 -0.039319 0.07177374 -0.04125258 0.015537161 -0.01779841 0.0010372052 0.2291684 0.018248696 0.07399753 -0.19741704 0.015742175 -0.10573535 -0.02561687 0.048025787 0.009688393 -0.03739733 -0.022024153 0.0723787 0.13314968 0.080541804 0.02413705 -0.0647402 -0.02351617 0.0016991915 0.07105087 0.038424842 -0.03905951 0.02917708 0.051236287 0.065299205 0.08715477 0.11359829 -0.019375805 0.03025166 0.056242414 -0.00043344896 0.020602925 0.077744186 0.065259255 0.16188386 0.066968076 0.016985338 -0.073638774 -0.08191519
星 0.14763713 -0.06993466 -0.016117975 -0.046895474 -0.0988604 0.020190336 -0.036212713 0.07844663 0.01823769 -0.13951005 0.035338625 0.017890522 0.11665258 -0.12564917 0.04162848 -0.03492451 0.050339364 0.031641327 0.027626159 -0.08151769 -0.01060254 -0.12817658 -0.05243683 -0.03243225 -0.07841047 -0.0848913 -0.039904434 0.05677135 -0.03896429 0.01100729 -0.026877752 0.011213919 0.19487384 -0.0072333333 0.08238672 -0.17686348 0.013190237 -0.09850797 -0.009565847 0.042104382 0.010185958 -0.050494995 -0.04221027 0.06158095 0.10816395 0.058524247 0.0069530364 -0.07711333 -0.019746188 -0.008436363 0.06801685 0.032131325 -0.013899656 0.010346754 0.023667092 0.049278364 0.07937761 0.11818189 -0.005055196 0.022424547 0.073966995 0.011476229 0.017791782 0.06562703 0.078583285 0.1486332 0.042591494 0.0072366702 -0.07385054 -0.063003935
さ 0.16442175 -0.09143376 -0.026477473 -0.020511098 -0.097176865 0.0030666976 -0.037252877 0.0805202 0.0011354138 -0.15863173 0.04844637 0.0157221 0.13773715 -0.11275022 0.04134916 -0.031150147 0.051683057 0.041113913 0.019734705 -0.08084698 0.010581812 -0.12758398 -0.048562054 -0.052385256 -0.06152151 -0.10076983 -0.042379737 0.0774236 -0.04198683 0.029661596 -0.030952783 0.027322516 0.2223819 0.014523749 0.08834905 -0.1848943 0.008543462 -0.091843374 -0.0035463765 0.06116759 0.025845772 -0.042394556 -0.021350872 0.07684145 0.11566787 0.05192841 0.012864772 -0.053603325 -0.037301976 -0.0060228338 0.069221094 0.017983936 -0.015467617 0.018836297 0.040717393 0.061634257 0.098282896 0.11411656 -0.032105666 0.03680066 0.05061884 0.01181435 0.018946923 0.060790844 0.055089705 0.16557547 0.052937634 0.026418323 -0.077568255 -0.07225195
おい 0.17527872 -0.10069881 -0.037138145 -0.05315936 -0.1017561 0.017965345 -0.046920106 0.11158502 0.0072397552 -0.1823044 0.060753863 -0.0023799958 0.15209328 -0.12897635 0.033414133 -0.033961333 0.07576023 0.030417409 0.030532561 -0.07384716 0.00159816 -0.1617977 -0.04608151 -0.052687597 -0.07735983 -0.11131769 -0.036389507 0.072590865 -0.058109026 0.034541074 -0.045589928 0.013035 0.23042524 0.006871715 0.090203956 -0.19919008 0.009057237 -0.10248055 -0.010055962 0.052913394 0.029893668 -0.058935586 -0.043807287 0.07049935 0.119162194 0.0622631 0.022072857 -0.07010917 -0.042803764 -0.023094006 0.062027067 0.038337015 -0.045596786 0.02826278 0.055244092 0.065601684 0.098491594 0.1356452 -0.02925006 0.038324542 0.068255916 -0.0025473163 0.019899596 0.069033794 0.08361921 0.1684411 0.070905365 0.007899462 -0.07509211 -0.077771656
か 0.12927467 -0.0692568 -0.02297959 -0.030563766 -0.088795684 0.001068675 -0.047163844 0.07072763 -0.0050216867 -0.14124912 0.057263773 0.0031715552 0.10841576 -0.12036453 0.032211147 -0.03745092 0.051765036 0.021991491 0.038122617 -0.078963734 -0.011653008 -0.11539425 -0.04850474 -0.034440417 -0.065129 -0.069111 -0.02939722 0.0642045 -0.040806644 0.024933225 -0.024908906 0.009541128 0.19585592 0.012198028 0.081722006 -0.15913229 0.00365639 -0.07152821 -0.023666147 0.040762 0.006389913 -0.036100056 -0.041722883 0.06621537 0.117193066 0.054298107 0.00079970225 -0.07319707 -0.022311868 -0.014666433 0.06534414 0.023593608 -0.013562955 0.0152124325 0.025282415 0.03713164 0.087980084 0.09524505 -0.006683541 0.015187806 0.05139167 0.0005340281 0.0027229995 0.044593975 0.05232183 0.13442247 0.049201008 0.021955125 -0.055433664 -0.052017882
こんな 0.17452458 -0.08408925 -0.034318045 -0.023189183 -0.1053724 0.023931054 -0.04623017 0.10612687 0.017551493 -0.17444228 0.048195507 0.006308617 0.14808756 -0.14972478 0.039143447 -0.036413204 0.06603278 0.02858651 0.02607356 -0.07049197 -0.013121991 -0.16358812 -0.039440375 -0.05688966 -0.0839733 -0.10678564 -0.0434708 0.0652121 -0.048566435 0.027960215 -0.027861873 0.014256888 0.24237369 -0.008614166 0.09057927 -0.19987756 0.01091354 -0.10747046 -0.017740352 0.04142697 0.015287621 -0.038181596 -0.03031033 0.07579479 0.11732673 0.07799888 0.0046341904 -0.075637534 -0.041473694 -0.016504867 0.07029479 0.026221061 -0.027204426 0.02450363 0.0338573 0.051181026 0.100894995 0.10978795 -0.033714864 0.0256046 0.078705356 -0.0006773234 0.0053971177 0.072207406 0.0749091 0.15226501 0.07034445 0.03169308 -0.09071676 -0.073152654
ホ 0.17879479 -0.08744691 -0.026486367 -0.04381669 -0.096473664 0.028484741 -0.04271849 0.09221415 0.006531072 -0.1720416 0.040762335 0.016740827 0.14541617 -0.1377767 0.041745007 -0.054685716 0.07648849 0.021566812 0.029161097 -0.074463174 -0.007217916 -0.15902084 -0.05488347 -0.052627113 -0.08087267 -0.11027905 -0.029147645 0.0894937 -0.054928 0.027905295 -0.042900875 0.027800996 0.22536105 0.013739618 0.09585647 -0.18664363 0.005633356 -0.091137566 -0.0028575317 0.048288245 0.020862078 -0.041898258 -0.027669325 0.07514963 0.1305661 0.06195712 0.0042572143 -0.07997094 -0.039716784 -0.007435466 0.063692056 0.029109098 -0.019800961 0.033647273 0.052021746 0.05740871 0.102245696 0.1312596 -0.022063669 0.01143147 0.084828295 -0.013984019 0.019026326 0.062026847 0.06495927 0.16804655 0.049203165 0.032777365 -0.0901733 -0.08653966
スマ 0.17301944 -0.073532484 -0.0175507 -0.03323901 -0.10781327 0.010317571 -0.042089727 0.109288715 0.00026208785 -0.1645981 0.055802107 0.016235344 0.13329776 -0.14031701 0.026953453 -0.038625546 0.073161475 0.03959647 0.022816893 -0.0691935 -0.0053147674 -0.15416472 -0.057487674 -0.05487135 -0.061731443 -0.09691552 -0.053991836 0.07833548 -0.06257409 0.01338758 -0.02870746 0.018795392 0.22817281 0.018290943 0.09017754 -0.19626836 0.010904282 -0.09306769 -0.009378714 0.06331528 0.009139964 -0.05368368 -0.03380616 0.08222806 0.122671366 0.08062786 0.010390464 -0.08444603 -0.040954802 -0.013747454 0.080863856 0.020775033 -0.03597101 0.030958563 0.028196925 0.055419914 0.111678205 0.11303704 -0.018124035 0.020658197 0.08058237 -0.007822705 0.0035842962 0.080410436 0.064619415 0.17555702 0.046039153 0.03052554 -0.08387621 -0.08361296
よう 0.13240874 -0.072598934 -0.02195939 -0.031664077 -0.09336949 0.008131656 -0.039432064 0.09015992 0.016243627 -0.1325179 0.0357528 0.012629852 0.104058556 -0.106817715 0.03103388 -0.036869176 0.04651184 0.01581303 0.017550655 -0.05542803 0.0048709395 -0.12297376 -0.022162942 -0.048855074 -0.06263274 -0.08528401 -0.043886013 0.045892976 -0.0330852 0.01680034 -0.037408568 0.02505124 0.17617296 -0.0008728581 0.06935063 -0.16020514 -0.0049995873 -0.084338665 -0.02421104 0.042598967 0.0097338045 -0.042787366 -0.023525117 0.056896605 0.11473779 0.06666598 0.012762063 -0.05969988 -0.025190242 0.003042545 0.067421556 0.02215696 -0.026467517 0.010091568 0.033802032 0.035038814 0.08172882 0.08733802 -0.014721674 0.021599578 0.06248264 -0.0043611615 0.019559246 0.043309662 0.073711894 0.13519719 0.05177306 0.022592017 -0.063671514 -0.05400525
き 0.13447168 -0.080481835 -0.024389716 -0.032729134 -0.09485341 0.018300178 -0.027263325 0.07317355 0.017928766 -0.13127892 0.041992474 0.013570347 0.102965474 -0.11651932 0.035782125 -0.04199437 0.06455561 0.03400105 0.017652977 -0.052718375 0.008721683 -0.13069013 -0.047788445 -0.0481347 -0.056251496 -0.07205931 -0.0354464 0.06012697 -0.05507659 0.014268393 -0.020463597 4.2480788e-05 0.16868824 0.00512816 0.053314906 -0.16214879 0.012267654 -0.065247625 -0.021624373 0.051349312 0.02952666 -0.03448451 -0.032878485 0.07249937 0.08944182 0.04955593 0.016586654 -0.069368154 -0.04027784 -0.0027310047 0.06583744 0.017387105 -0.029751508 0.019909764 0.034149345 0.029453432 0.09207687 0.09358113 -0.00908444 0.023104167 0.06946729 0.010262229 0.020652102 0.041263565 0.059408728 0.13007596 0.04775114 0.02939473 -0.055213258 -0.06970841
愚か 0.15869105 -0.07296375 -0.022165941 -0.02530511 -0.097744614 0.014248875 -0.036943354 0.0961331 0.013921682 -0.14419506 0.033556093 0.00072346 0.13961557 -0.13177957 0.041421846 -0.0371498 0.054345798 0.042245496 0.045485977 -0.05783394 0.0134914275 -0.14814468 -0.030486012 -0.053447593 -0.08018822 -0.099833414 -0.034117132 0.074398175 -0.056768253 0.019803766 -0.033978544 0.007799973 0.19860072 0.010553637 0.077420145 -0.17165151 0.00096412736 -0.0877457 -0.016255338 0.048291773 0.032945327 -0.033698622 -0.04184467 0.054637607 0.097222105 0.05172343 0.020856474 -0.0724114 -0.027079536 0.0027751792 0.06387482 0.026850255 -0.014059568 0.02497116 0.03377705 0.036853224 0.08924954 0.11784107 -0.0038234356 0.015622605 0.077769674 0.0018305072 0.018555459 0.050505336 0.06918425 0.14503065 0.037360705 0.024253925 -0.08013837 -0.07340816
スマホ 0.18054979 -0.07568334 -0.030301766 -0.028715646 -0.103025824 0.024915013 -0.056151092 0.111589104 -0.0016387904 -0.17942367 0.06306324 -0.00542607 0.16197689 -0.14850014 0.03440738 -0.055414695 0.06022974 0.030486558 0.051251683 -0.07840063 -0.015033854 -0.17079903 -0.042582545 -0.060096506 -0.07276253 -0.10149917 -0.05736917 0.090836614 -0.045057315 0.026996205 -0.033288486 0.009140916 0.2522709 0.016453505 0.09314538 -0.21735083 0.015347398 -0.10793117 -0.017436603 0.06305338 0.024612578 -0.04897871 -0.04658561 0.086186945 0.12856218 0.074617445 0.027937679 -0.06983609 -0.022725856 -0.014454323 0.07684513 0.042320948 -0.037209038 0.028108478 0.029357122 0.07014272 0.11568923 0.14129108 -0.012913762 0.032087933 0.07143856 -0.008855283 0.011403896 0.072286315 0.07399375 0.16378486 0.05431118 0.033587135 -0.07082824 -0.067477494
面白い 0.1279214 -0.06593977 -0.033269808 -0.01874093 -0.08187993 0.024324514 -0.042784005 0.074062526 0.011357956 -0.12519792 0.033809923 -0.0048107724 0.11924852 -0.11978421 0.03441796 -0.024277832 0.046326295 0.01821861 0.016774748 -0.06746987 0.009259396 -0.12247659 -0.04829568 -0.023784729 -0.07495017 -0.07155023 -0.024612252 0.060340393 -0.055548117 0.030360999 -0.038081165 0.0047115306 0.1975221 -0.008950227 0.055932567 -0.160134 0.010520381 -0.075819686 -0.018248567 0.034970317 0.028419029 -0.026822027 -0.013965913 0.060160495 0.10637655 0.056952547 0.016707264 -0.052136246 -0.02352011 -0.0075642806 0.050367504 0.014710524 -0.013283204 0.0068348884 0.037422255 0.04201416 0.078435704 0.091427214 -0.010809532 0.012029128 0.046302296 -0.0039025762 0.016364077 0.06268787 0.055556525 0.14287543 0.036550723 0.00899296 -0.07377307 -0.06742122
しかし 0.1511659 -0.083924286 -0.034273554 -0.045800757 -0.0733086 0.010234875 -0.0357994 0.07463422 0.0049984646 -0.1368534 0.040461797 -0.005312584 0.113804795 -0.11072049 0.01271204 -0.033945773 0.052476715 0.040578164 0.030668234 -0.059590872 -0.009315382 -0.1403669 -0.03085669 -0.036740243 -0.074381396 -0.088974826 -0.02228573 0.048624128 -0.051729202 0.024919592 -0.029474763 0.02720785 0.19169769 -0.007129703 0.05859539 -0.17727493 -0.0045151133 -0.09037326 -0.01982808 0.040097795 0.017362665 -0.0509728 -0.026963541 0.067531794 0.11952372 0.052293457 0.02247735 -0.051953677 -0.033622127 -0.019316157 0.05170995 0.015074212 -0.017161064 0.028799688 0.047299754 0.032569576 0.09513285 0.1118033 -0.006124717 0.009119087 0.061008178 -0.011508086 -0.0027124563 0.06022294 0.07529827 0.15007125 0.040308625 0.020215632 -0.071221955 -0.04718501
にとって 0.15380126 -0.06842491 -0.034986947 -0.046944924 -0.101109095 0.017247329 -0.056195334 0.09679563 0.007956362 -0.1719302 0.061736908 0.010266649 0.15609978 -0.12384928 0.02190727 -0.033648808 0.0735093 0.040492836 0.04347635 -0.08746462 0.004611562 -0.1502173 -0.044820957 -0.054969937 -0.074410565 -0.09450333 -0.054657143 0.08663025 -0.049914345 0.02763275 -0.039411504 0.016171519 0.23767044 0.011987287 0.07306396 -0.18027018 0.0053943107 -0.109533794 -0.00020161795 0.059262764 0.025223644 -0.03938379 -0.046516914 0.064922795 0.12193636 0.06382682 0.015180885 -0.07238036 -0.043444827 -0.00578362 0.07118055 0.02805423 -0.02306608 0.021705072 0.048846025 0.05004265 0.11592068 0.12328481 -0.01362437 0.018955458 0.08186355 0.0029805922 0.013730436 0.07940598 0.06063578 0.17982283 0.059414867 0.01655984 -0.084826745 -0.085040845
ん 0.16202886 -0.07922866 -0.016439047 -0.0237793 -0.11570903 0.030061953 -0.05624777 0.101702906 0.02147022 -0.16569124 0.04044155 -0.0071294243 0.1453435 -0.13612214 0.017624598 -0.036860555 0.06821776 0.039339125 0.043279056 -0.0762849 -0.01396351 -0.1432183 -0.039204184 -0.054825656 -0.081858866 -0.100323625 -0.041122712 0.072184145 -0.06221385 0.02656906 -0.027710663 0.01421334 0.23030832 0.007025969 0.07582113 -0.20333204 0.020845145 -0.10961236 -0.017276363 0.048972562 0.00982353 -0.048924986 -0.023363627 0.071380526 0.13762759 0.07065061 0.009190301 -0.074840724 -0.03275593 0.00065311335 0.07742271 0.038433097 -0.03889222 0.008288077 0.05044895 0.05637802 0.111258574 0.12282377 -0.00712794 0.0115506295 0.08550192 -0.01247979 0.009609357 0.07529628 0.058315523 0.17110413 0.049615163 0.010056962 -0.07541238 -0.06913031
な 0.14865828 -0.06514837 -0.03362873 -0.03307393 -0.08195601 0.018487174 -0.050039638 0.094228484 0.0015936113 -0.14831963 0.05265044 0.016769977 0.14383909 -0.13128498 0.042768523 -0.045501884 0.07090638 0.018962074 0.022744287 -0.07670552 -0.0118864095 -0.14551656 -0.042918555 -0.04104083 -0.086654276 -0.10228908 -0.048795845 0.06744478 -0.04213751 0.024390776 -0.01749541 0.008962077 0.22226858 0.01238832 0.08781141 -0.17582457 0.005149156 -0.086720034 -0.027387355 0.05923059 0.015720459 -0.036968283 -0.029543322 0.072195776 0.11410417 0.049599726 0.01832212 -0.06344332 -0.04384675 -0.01381175 0.05837316 0.020364977 -0.022570115 0.01933612 0.04410713 0.039216194 0.08679285 0.12051372 -0.0067732693 0.030804612 0.07251711 -0.0116099855 0.023196487 0.05148997 0.05552452 0.16438273 0.051304616 0.0051223766 -0.07615721 -0.057698756
もの 0.17163937 -0.082229845 -0.026536139 -0.03285938 -0.107927896 0.00564604 -0.0517899 0.114977226 0.013288106 -0.18028489 0.06556514 0.017474312 0.16334757 -0.14279395 0.020046595 -0.04799363 0.07661697 0.025907375 0.052375946 -0.09921736 -0.012160405 -0.16796489 -0.038919654 -0.057838593 -0.07051541 -0.12419084 -0.037612546 0.0826582 -0.056568157 0.041750398 -0.027157603 0.017654855 0.24921224 0.013525131 0.091815904 -0.18862014 0.0060057477 -0.11532006 -0.020832278 0.05138213 0.01139424 -0.056861926 -0.024780678 0.070813105 0.13976943 0.08006787 0.017890487 -0.07461787 -0.026199732 -0.01774557 0.07682664 0.04524858 -0.037253536 0.0076785726 0.029676076 0.044256214 0.11589887 0.13796574 -0.010384468 0.023989197 0.076197036 0.00391373 0.00066834834 0.05596636 0.08320446 0.16312808 0.058686104 0.015362046 -0.07530505 -0.080202885
者 0.18805414 -0.087575965 -0.033498194 -0.0425516 -0.10668119 0.00900182 -0.03385205 0.115666166 0.0163575 -0.18034555 0.046193246 0.007864618 0.14827248 -0.14871557 0.0466279 -0.0322039 0.0638563 0.038520206 0.0432967 -0.08199913 0.010459543 -0.16143215 -0.055836868 -0.047130704 -0.09401289 -0.091515586 -0.054453213 0.07574557 -0.06086929 0.032305792 -0.026908057 0.004552554 0.23327728 0.0062559536 0.09284736 -0.19206929 0.005884459 -0.10325679 -0.026274024 0.059848394 0.00819518 -0.04933737 -0.040974785 0.06581472 0.14036876 0.07133108 0.003407581 -0.090100676 -0.03313923 -0.019691503 0.074810766 0.03763819 -0.025949545 0.012556031 0.056581672 0.04422942 0.11916728 0.12850699 -0.023374366 0.03166588 0.07071017 -0.006897189 0.0091118105 0.059877925 0.07347764 0.16456759 0.06973046 0.008231591 -0.08975104 -0.08765109
面白く 0.12210402 -0.069287255 -0.032859858 -0.037706777 -0.080475725 0.012531884 -0.031068778 0.09172221 -0.00567232 -0.123621926 0.03152973 0.014821147 0.12869373 -0.09786545 0.014685641 -0.028137518 0.041935507 0.02514182 0.022670627 -0.078251354 0.006739453 -0.117940314 -0.042782795 -0.048360307 -0.059404932 -0.08854556 -0.046677545 0.053514287 -0.046845265 0.034594916 -0.036730904 0.02308472 0.1955267 -0.0040329285 0.06542183 -0.16012178 0.010284701 -0.08032743 -0.015306645 0.027567696 0.025797345 -0.055826385 -0.041148636 0.062019978 0.10662927 0.056807622 0.015358475 -0.05633354 -0.02407451 0.0032677762 0.050031655 0.013602964 -0.03629974 0.026322404 0.03653148 0.03504863 0.09366386 0.11340419 -0.0032499733 0.010186783 0.05124384 -0.003239828 0.0007813292 0.061886404 0.0680631 0.12625882 0.058991596 0.005375526 -0.055470876 -0.06566168
準備 0.15629284 -0.082652934 -0.019112052 -0.022801466 -0.09799866 0.00820884 -0.05259234 0.09562929 0.01499504 -0.14085886 0.043308713 -0.008668381 0.14264022 -0.13149907 0.036849502 -0.025832385 0.05637319 0.03355065 0.028166583 -0.0858842 -0.010392611 -0.141669 -0.052710127 -0.041971296 -0.07580002 -0.08415657 -0.034752496 0.07791316 -0.044638604 0.020077921 -0.03790535 0.028049888 0.22355847 -0.008529989 0.08342145 -0.16586266 0.019968024 -0.10126972 -0.014818599 0.049279276 0.023009894 -0.050539117 -0.038400076 0.07773653 0.1259487 0.0644926 0.008369964 -0.07313919 -0.037283607 -0.0012730946 0.062456246 0.025006454 -0.041988663 0.0161573 0.04995062 0.058640745 0.101469435 0.110784374 -0.0059264256 0.02302027 0.067238726 0.009250672 0.0008783328 0.07109911 0.08029323 0.15793994 0.06090521 0.025121057 -0.076561585 -0.07752121
楽しみ 0.15801322 -0.07732223 -0.034247216 -0.03086284 -0.089413255 0.0050198785 -0.036524244 0.104080044 -0.003845901 -0.14772117 0.036802087 -0.0058911894 0.14543621 -0.13695632 0.029651891 -0.04894797 0.05009122 0.021105796 0.034408458 -0.07385096 -0.012648141 -0.15490207 -0.046796694 -0.043110706 -0.08140796 -0.10120158 -0.03276945 0.07425945 -0.04127601 0.032118756 -0.03284572 0.018498782 0.22922374 0.007456405 0.080111444 -0.17774037 -0.006351611 -0.08365836 -0.005606586 0.047415283 0.031544615 -0.056587894 -0.02771634 0.057228792 0.10478381 0.06783478 0.023286555 -0.05916841 -0.04299359 -0.0011381491 0.065907255 0.034827307 -0.029340612 0.025687486 0.051072784 0.038621116 0.082819864 0.12590402 -0.0199791 0.009431906 0.060307506 0.0008719633 0.023169557 0.059816584 0.06567166 0.14378889 0.0455692 0.021829566 -0.07545867 -0.0776967
犯罪 0.17016691 -0.09841835 -0.029217869 -0.029592128 -0.10434278 0.028107047 -0.03463705 0.0986731 0.016988223 -0.15675478 0.06554879 0.019159341 0.15339236 -0.12972893 0.044311747 -0.043266773 0.05908448 0.046206523 0.037870813 -0.0899108 -0.0026269143 -0.1633813 -0.031952105 -0.03961204 -0.07357347 -0.093596645 -0.029513055 0.06921957 -0.06453664 0.022071674 -0.039198227 0.0024730205 0.23362048 -0.006100772 0.09825092 -0.19950461 -0.0015496447 -0.11142557 -0.019668786 0.038045786 0.01990962 -0.045120377 -0.03923486 0.08570624 0.12435074 0.060515616 0.012570021 -0.07861329 -0.04288584 -0.021251999 0.062456414 0.029555744 -0.023325566 0.008674371 0.036482386 0.05796309 0.10295258 0.13124663 -0.02333279 0.031386707 0.083153665 -0.012032968 0.017437484 0.07651072 0.0714118 0.17729765 0.053687196 0.015224025 -0.093203366 -0.059360523
ある 0.109901376 -0.06814255 -0.019400166 -0.034453385 -0.06330016 0.0024921405 -0.04425274 0.08622584 -0.0045260508 -0.10706233 0.032869216 0.013111962 0.10742449 -0.10720131 0.01265239 -0.04048864 0.05872376 0.034240708 0.027098076 -0.051172197 0.005194165 -0.10831223 -0.030716943 -0.047788132 -0.04591544 -0.08868951 -0.035433136 0.056750607 -0.032719985 0.0067556445 -0.022680072 0.02122815 0.15824544 0.016739693 0.054077774 -0.12926736 -0.0034819643 -0.06328183 0.0024083639 0.023685891 0.015529305 -0.049854793 -0.014725375 0.06934954 0.08494274 0.0531775 0.009856004 -0.0657662 -0.023574868 -0.020573422 0.054155346 0.011476268 -0.0142771015 0.02406235 0.026409151 0.03463457 0.06469743 0.09892437 -0.00988782 0.03068073 0.057893213 -0.0048071723 0.015079425 0.062046874 0.06844067 0.13445617 0.032885347 0.0044593476 -0.048230685 -0.06449696
数 0.14602926 -0.06124165 -0.025776044 -0.021678315 -0.10039116 0.02403052 -0.029052634 0.08845757 -0.0028988249 -0.12541787 0.056510333 0.0026301357 0.12925653 -0.106751956 0.02438545 -0.02742939 0.050812643 0.027179962 0.029766938 -0.0756129 -0.0013341198 -0.14098564 -0.033242792 -0.024702873 -0.060403854 -0.08048393 -0.04028672 0.06955271 -0.055358365 0.016613796 -0.01413925 0.02344505 0.18941073 -0.004514734 0.08022333 -0.16006996 0.015465527 -0.09298518 -0.01317332 0.04220674 0.01702404 -0.041302357 -0.038977608 0.06936563 0.10319767 0.07159537 0.013194832 -0.048809603 -0.028746158 0.0005111373 0.046968233 0.013694224 -0.026071593 0.011840655 0.049558442 0.05277714 0.08127163 0.116787136 -0.01676114 0.0067994855 0.06878526 -0.0029960752 -0.0024086358 0.069396205 0.07353476 0.154199 0.052589606 0.02855232 -0.060757264 -0.07063707
まで 0.15641397 -0.0791122 -0.03569174 -0.020649284 -0.097353436 0.026802158 -0.048860453 0.09813183 -0.00013372515 -0.13553981 0.059060257 0.01062168 0.122003354 -0.12579826 0.0134115815 -0.029968819 0.06753222 0.023187816 0.040330082 -0.060812023 -0.012585862 -0.13015313 -0.048669484 -0.043787073 -0.06834722 -0.09997764 -0.04016321 0.05290471 -0.05800272 0.013173857 -0.01483876 0.02566113 0.20008841 0.00031268733 0.079960786 -0.16545603 -0.006679687 -0.0939159 -0.0108416425 0.05533419 0.022214882 -0.031578887 -0.020800484 0.06400822 0.12243843 0.07337833 0.025799153 -0.049572177 -0.040800154 -0.002307493 0.046635997 0.016756723 -0.037316576 0.0207591 0.03637862 0.037155244 0.09813536 0.11864895 -0.010386007 0.032395326 0.05616431 -0.0104332315 0.016681416 0.05317301 0.05222026 0.14905868 0.047936544 0.010214541 -0.06559385 -0.051275242
たり 0.14183757 -0.06682515 -0.008616379 -0.02388357 -0.073270515 0.013226264 -0.031695493 0.08658237 -0.007095849 -0.12218835 0.045492806 0.014646118 0.11367258 -0.11198853 0.017678138 -0.036645297 0.04925618 0.018599967 0.029875236 -0.05269403 0.006501231 -0.13287795 -0.047380652 -0.040719 -0.057351 -0.093837224 -0.024700908 0.064016655 -0.04769175 0.034875847 -0.014711298 0.013166912 0.19028978 -0.009049683 0.0536497 -0.15800554 0.019097488 -0.073039256 -0.0021491137 0.030843556 0.022278776 -0.040512715 -0.028253116 0.054708038 0.108035676 0.042421483 0.022268824 -0.050751533 -0.030721836 -0.01380544 0.043974135 0.014239169 -0.03144413 0.0200941 0.02642782 0.04148127 0.07063548 0.09389717 -0.016206728 0.008423446 0.061367642 0.014020602 0.016429575 0.056643516 0.050701562 0.13120465 0.050490394 0.019072056 -0.049956776 -0.060085155
八 0.13030763 -0.054064933 -0.013895218 -0.016332904 -0.08168634 0.0065370062 -0.021438204 0.08311727 0.01204533 -0.124009736 0.048620213 0.007697966 0.10449619 -0.08624499 0.029217979 -0.024663752 0.04804628 0.012186412 0.022260789 -0.055327542 -0.008197238 -0.09994684 -0.022179343 -0.044606496 -0.06523569 -0.084644206 -0.029433666 0.050219163 -0.04256617 0.016066419 -0.01820042 0.025890866 0.16067396 -0.008660772 0.06522915 -0.14865157 0.015375159 -0.06651723 -0.022063438 0.02580864 0.0015596928 -0.035041198 -0.02054935 0.058039106 0.09143399 0.052339297 0.016782323 -0.054615308 -0.034804575 -0.0063518924 0.05387766 0.018480193 -0.024918102 0.008818253 0.04051092 0.03458545 0.08968061 0.083707064 -0.028861351 0.008773432 0.044967994 0.00047317726 0.016878698 0.05013764 0.06604152 0.12163054 0.052070953 0.015107526 -0.06167996 -0.042146716
梶原 0.12544936 -0.049029358 -0.03145038 -0.0386655 -0.07731059 0.009563302 -0.035650346 0.07124524 -0.00032156036 -0.1315952 0.050472073 -0.00039773626 0.103303 -0.101262316 0.021849895 -0.043198712 0.04533562 0.022238823 0.039671157 -0.07141739 -0.0076431367 -0.115274824 -0.029697921 -0.041366205 -0.06512331 -0.08619477 -0.022741761 0.041656215 -0.044478446 0.020806642 -0.023585074 -0.0026945586 0.18163103 0.0004963313 0.06039359 -0.15420443 -0.0068442444 -0.06625847 -0.004256912 0.04111471 0.023723196 -0.048015032 -0.027435688 0.05000278 0.09028575 0.057584547 0.016098112 -0.06394314 -0.019705363 0.00264003 0.04117023 0.027130915 -0.029098062 0.026204938 0.037161823 0.04195222 0.07495943 0.07819216 -0.0007474178 0.015191683 0.06278796 0.0047643925 -0.0025951734 0.04831911 0.0572863 0.1178106 0.057835992 0.0077058836 -0.068011686 -0.047978885
騙し 0.16247104 -0.09480869 -0.02379107 -0.028628066 -0.11296439 0.011226425 -0.05445507 0.09985445 0.0037710639 -0.152527 0.0544497 0.009111235 0.14148694 -0.12575103 0.032596495 -0.052473355 0.05575494 0.03335779 0.047730047 -0.07715874 -0.009271429 -0.16362987 -0.06006066 -0.039261874 -0.09285741 -0.09898907 -0.03874487 0.07496786 -0.06816705 0.035506826 -0.032967456 0.0012117126 0.22225864 0.017696688 0.08586256 -0.20505713 0.006769002 -0.09067182 -0.027070185 0.04140512 0.018162845 -0.06605827 -0.032896444 0.07667378 0.1385314 0.07154771 0.01896397 -0.065716594 -0.03892965 0.00328419 0.068122156 0.030527 -0.04453453 0.020639155 0.053292245 0.056967404 0.09287239 0.12062691 -0.029838555 0.032702062 0.062281232 0.0073522837 0.00461358 0.057479337 0.06139354 0.17184974 0.046901617 0.012456382 -0.09078436 -0.07882431
「 0.10835432 -0.056053758 -0.008506897 -0.02727304 -0.07887412 0.014169028 -0.021361405 0.05989168 -0.00033726927 -0.1046374 0.045425925 -0.007390607 0.11119014 -0.10756469 0.012010435 -0.03543132 0.047198024 0.023479773 0.030261295 -0.046368875 0.006118514 -0.109997585 -0.04070967 -0.041447345 -0.055134792 -0.05566313 -0.03845156 0.05540618 -0.030698765 0.011965428 -0.032869752 0.0021343748 0.15157917 -0.007089945 0.06587839 -0.14344335 0.00073381665 -0.060861353 -0.00904497 0.024105836 0.0072283163 -0.030668015 -0.020265562 0.04757619 0.085167885 0.051714648 0.014061005 -0.053502474 -0.014578281 -0.016977869 0.055429805 0.0067078774 -0.024057606 0.022726376 0.024741452 0.046634644 0.07908604 0.075218245 -0.01394904 0.010225542 0.037243295 -0.0017023953 0.01731716 0.058691006 0.04238398 0.11004631 0.032939326 0.01490225 -0.051196728 -0.063118644
」 0.12820631 -0.07599003 -0.01899702 -0.021252898 -0.08559445 0.013253709 -0.035239737 0.06183339 0.0040371455 -0.11581617 0.02720818 -0.004803073 0.10806113 -0.09009974 0.025836673 -0.016772225 0.038192846 0.038238067 0.02061475 -0.07036445 -0.011941862 -0.11279377 -0.037807472 -0.021762937 -0.05986156 -0.07253785 -0.021673612 0.042905174 -0.04439735 0.013386385 -0.038191114 0.016499743 0.17683917 -0.0006361522 0.058774423 -0.15495294 0.0009147966 -0.071327165 0.0012208766 0.04813405 0.009643873 -0.034137674 -0.030313347 0.048104584 0.089084186 0.044173446 0.01833159 -0.065309234 -0.035024803 -0.012881358 0.060934126 0.025456803 -0.015675575 0.026919542 0.023852872 0.033925176 0.08929615 0.099913135 -0.00783885 0.031177789 0.066085905 -0.0041628126 0.009906119 0.05828457 0.06703555 0.13821898 0.033670034 0.007952037 -0.052637342 -0.051833518
来 0.12025424 -0.049670987 -0.009710139 -0.037052594 -0.07928399 -0.00022263474 -0.021055752 0.075597 0.0036867051 -0.11552216 0.04951389 0.015716726 0.11350123 -0.09353178 0.026046207 -0.017427316 0.04997991 0.024642587 0.012339363 -0.056210615 -0.013369251 -0.10205918 -0.041086122 -0.033331513 -0.055349674 -0.07673797 -0.042678535 0.05986112 -0.048689585 0.0067064557 -0.01897678 0.0104076965 0.17763898 -0.0066185216 0.06082518 -0.13992356 0.013441959 -0.08434096 -0.0020310187 0.023782961 0.0029210802 -0.036705017 -0.029302714 0.047438193 0.08399044 0.056479998 -0.00035485954 -0.05052569 -0.01722479 -0.005827313 0.047407184 0.032896813 -0.0363111 0.0004327122 0.03765517 0.05110076 0.06394845 0.07787215 -0.015575624 0.0049064853 0.054036524 0.012776985 -0.00034243442 0.038528204 0.064145096 0.11861002 0.038769096 0.011434458 -0.0704287 -0.05811165
どう 0.04900609 -0.027019845 -0.007433852 -0.0009461826 -0.024414549 0.0034598305 -0.028555237 0.03649184 -0.0059357206 -0.040730424 0.023372604 0.0009066293 0.057930823 -0.049822938 0.0053082663 -0.0138351945 0.033677023 0.019570135 0.013760248 -0.021665823 -0.004435495 -0.037946314 -0.025447892 -0.01946562 -0.033771913 -0.020223873 -0.018210957 0.021313744 -0.008214595 -0.0048531992 -0.015859224 0.009237824 0.06790172 0.013983591 0.028999558 -0.07101775 0.009365687 -0.021377219 -0.003135932 0.026088929 -0.003586268 -0.022036357 0.0027284399 0.032353178 0.04380567 0.017648913 0.01159834 -0.020548875 0.0011484857 -0.0030853034 0.034512144 0.0019107921 -0.020922177 0.004540574 0.018261503 0.015086801 0.043256737 0.028580116 -0.019911585 0.01907057 0.033460718 -0.0061771483 -0.00242016 0.017531008 0.024084825 0.06801134 0.021557493 0.0037153738 -0.03097469 -0.027037993
問答 0.10300696 -0.04877686 -0.03069037 -0.03002597 -0.08315658 0.024062293 -0.022577334 0.068329416 0.012793628 -0.11722089 0.050620038 -0.001356646 0.10785291 -0.10060694 0.03703058 -0.0143619785 0.055479284 0.023202693 0.023211041 -0.06992374 0.012069026 -0.118608825 -0.041403316 -0.02228127 -0.058236767 -0.060388073 -0.039976023 0.065510646 -0.03381313 0.0061944993 -0.01744684 0.0042464244 0.17085369 0.012623149 0.04516123 -0.1249699 0.01285284 -0.058869597 -0.020499816 0.027006274 0.0012533885 -0.028754136 -0.029714685 0.058854282 0.09467859 0.06063697 0.015726136 -0.05174484 -0.020278258 -0.00063157734 0.03428614 0.012985611 -0.02331084 0.01996851 0.030205674 0.023913715 0.07188266 0.096911415 -0.005014345 0.02162885 0.042703666 -0.0053806175 0.005306143 0.038237724 0.03775997 0.114628546 0.044937115 0.021101492 -0.05115193 -0.038638264
によって 0.091816045 -0.038756453 -0.019738583 -0.021461586 -0.069696136 0.004487593 -0.029016221 0.049687028 0.018843027 -0.09304339 0.028876096 0.0063325195 0.1000335 -0.091650486 0.024849791 -0.024615148 0.044901937 0.0178127 0.008351286 -0.041598167 -0.0022227946 -0.105394326 -0.02702842 -0.03586535 -0.037580624 -0.0727202 -0.02654933 0.044415202 -0.03912248 0.011507295 -0.010128971 0.012867957 0.12804078 0.0025840825 0.03649246 -0.12224083 0.011445292 -0.054420304 -0.016833024 0.033150863 0.021314377 -0.04286534 -0.02573368 0.041876376 0.06454605 0.045953203 0.019932944 -0.04081479 -0.01632416 -0.006264716 0.04035973 0.010217469 -0.019200256 0.019914657 0.029453613 0.03374 0.0752121 0.0802007 -0.022428755 0.025401143 0.057426147 -0.013440759 0.018237261 0.030092897 0.044435166 0.108553395 0.02914866 0.0011827215 -0.05945974 -0.05832067
無用 0.11993563 -0.051327985 -0.016360128 -0.040549736 -0.068780586 0.023328243 -0.022947421 0.0904806 -0.0049611772 -0.13029036 0.04430913 0.008142079 0.11952955 -0.11650708 0.033016726 -0.016584227 0.039157886 0.037244506 0.03292559 -0.06968962 -0.0040163603 -0.13079979 -0.046393238 -0.026261691 -0.064980276 -0.06523058 -0.043915167 0.0476865 -0.032312535 0.03192195 -0.020288039 0.022847442 0.18922432 -0.0041530663 0.07644233 -0.15874618 0.0017004802 -0.08495429 -0.0021868257 0.03379783 0.019919377 -0.042761315 -0.028401231 0.049471542 0.089588106 0.049034994 0.0147384815 -0.053980675 -0.030153966 -0.0030404818 0.044527814 0.03796654 -0.02557976 0.0046117413 0.030722652 0.053250816 0.07967219 0.089321814 -0.027011342 0.0106031485 0.050023954 0.011221147 -0.001002602 0.05416974 0.055620193 0.13434753 0.03572404 0.027569102 -0.06639876 -0.048568454
破壊 0.0952794 -0.047539692 -0.028671099 -0.027738735 -0.0695545 0.0061418475 -0.029722119 0.06373452 0.012829815 -0.109897286 0.029323492 -0.0041927663 0.106490605 -0.08100956 0.03401083 -0.018535621 0.036225695 0.033293795 0.013549847 -0.048561804 -0.0060762446 -0.09977325 -0.024135401 -0.033137962 -0.057272945 -0.06929044 -0.026253367 0.05844801 -0.044360016 0.024444105 -0.026305871 -0.0012363396 0.14243908 0.0056941984 0.066470735 -0.11382587 0.018379306 -0.05414385 -0.012761568 0.029241353 0.02549662 -0.024307562 -0.0136593 0.05754952 0.0838586 0.04883945 1.9476127e-05 -0.036647517 -0.0083355745 -0.015125013 0.045388546 0.03253708 -0.014656171 0.023493052 0.03892783 0.031988766 0.08083442 0.08946098 -0.015713338 0.015568264 0.060411077 0.008058904 -0.0021408773 0.0388176 0.042134453 0.11190748 0.039998386 0.0012096004 -0.048541352 -0.032538913
天文学 0.10974783 -0.049076293 -0.013751001 -0.011807557 -0.05380397 0.0150767295 -0.0312827 0.067785785 -0.004598703 -0.09406069 0.0278073 0.017092476 0.07942709 -0.091138944 0.033545364 -0.032305695 0.039644472 0.028983774 0.037373375 -0.0529621 -0.009900595 -0.084090285 -0.042499106 -0.02613897 -0.043350615 -0.07884819 -0.033402313 0.034111574 -0.034954466 0.024277143 -0.033058826 0.0059169643 0.16085799 -0.0026320212 0.057525817 -0.118359804 -0.00017742594 -0.06980395 0.0024824229 0.029317448 0.026035724 -0.037285086 -0.016825708 0.055566482 0.082155585 0.051275764 0.0024573777 -0.033630237 -0.023496872 -0.01112746 0.050713617 0.034359872 -0.0274358 0.01264083 0.033599924 0.030598152 0.06826046 0.09230284 -0.0020533486 0.0061122878 0.04082432 0.012047449 0.0082974015 0.02905958 0.045690704 0.09712977 0.040094174 0.01421024 -0.058032967 -0.051674962
それ 0.100235395 -0.03781677 -0.009882689 -0.017047767 -0.043057963 0.0021331864 -0.014267075 0.050743323 -0.0052803075 -0.09968062 0.025159733 0.014171466 0.080505274 -0.08469015 0.018042305 -0.026621439 0.028565172 0.029633071 0.027893405 -0.04297626 0.0034888086 -0.07982531 -0.038683858 -0.01852106 -0.03168942 -0.048534352 -0.017833676 0.033776402 -0.025621252 0.00289687 -0.011977069 0.011711515 0.12251403 0.0010409091 0.047627594 -0.09863535 0.0061955936 -0.038511485 -0.0022611148 0.028480222 0.006493912 -0.036304012 -0.03144763 0.033846527 0.07264236 0.047679707 0.009623841 -0.044900507 -0.011799225 -0.009930079 0.034450457 0.029037166 -0.004532998 0.009468898 0.014050167 0.03376822 0.069480605 0.07790436 -0.013390403 0.023058383 0.05130252 -0.014416235 0.018570842 0.035936426 0.031041754 0.09281902 0.044932745 -0.00010537784 -0.03251136 -0.047040466
言っ 0.03518415 -0.015611327 -0.0139636295 -0.0034356867 -0.018796165 0.018518543 -0.003876811 0.014580753 0.006794942 -0.058440566 0.014566632 0.015910186 0.03318399 -0.03237149 0.00095475797 -0.023123896 0.03003664 0.0139030805 0.020411164 -0.018540524 0.00092496024 -0.037294835 -0.025466237 -0.0034041735 -0.02841711 -0.02084672 -0.019483736 0.022036627 -0.009358412 0.004171123 -0.021003596 -0.0043850793 0.050269626 0.015440494 0.016616292 -0.055301536 -0.011349674 -0.03382865 -0.010425248 0.018682254 0.013962638 -0.009508527 0.0039218436 0.023158887 0.049736336 0.029936746 0.008246116 -0.017833471 -0.020247668 -0.006146776 0.027313307 -0.0032099974 -0.0054809838 -0.005740285 0.02556295 0.015020308 0.03053608 0.027866537 0.0033498362 -0.0030382148 0.010095465 0.00944558 -0.0013939247 0.017664688 0.027802045 0.053531818 0.025169026 0.01574898 -0.014016278 -0.03324259
もらい 0.12538311 -0.0467451 -0.024330176 -0.024221594 -0.079479344 0.0073874327 -0.018096877 0.06994365 0.011625596 -0.12398384 0.04672451 -0.00013811809 0.09572222 -0.09274901 0.037572276 -0.036807425 0.053006876 0.022078488 0.014871831 -0.0647927 -0.01345598 -0.10064002 -0.036108404 -0.038370457 -0.054241497 -0.06567912 -0.015267964 0.039034985 -0.03859884 0.017234769 -0.027238406 0.01069789 0.17644705 0.0014319542 0.07195731 -0.13617517 0.00389994 -0.05982059 0.00039695675 0.037738215 0.0132951895 -0.028272342 -0.029891236 0.058942225 0.09004595 0.041345816 0.021862943 -0.057487503 -0.020094417 -0.015384268 0.05127957 0.030129844 -0.014932872 0.0018877194 0.022776077 0.048786603 0.078206696 0.08990995 -0.023412194 0.015344613 0.037160907 0.0019619965 0.0017723428 0.0487222 0.0571001 0.12173678 0.032782137 0.015848026 -0.066953786 -0.056766756
いる 0.08991583 -0.03264795 -0.022676758 -0.016179133 -0.04248681 0.023013853 -0.0139459595 0.040234767 0.0106976135 -0.0721852 0.033399913 0.0068841306 0.073333725 -0.06528585 0.022411449 -0.008754402 0.028745178 0.0048013167 0.028100101 -0.051316276 -0.0014705443 -0.07760948 -0.025779342 -0.029379487 -0.039710425 -0.0673827 -0.01948411 0.03228201 -0.03631802 0.019352641 -0.015642136 0.013260585 0.12117727 -0.011798463 0.05790301 -0.10528178 0.0007994005 -0.040814765 -0.007110469 0.03035888 0.013335082 -0.023780745 -0.008668979 0.05207369 0.06471978 0.031340703 0.015527164 -0.050327796 -0.0049801907 -0.0010305382 0.043917835 0.019832695 -0.01780367 0.0109383 0.014771177 0.040934 0.061289687 0.06977734 -0.017131647 0.0005228404 0.048851572 0.0036401476 0.0006022904 0.022621447 0.0324034 0.088280976 0.0180699 0.010589158 -0.03715053 -0.051692545
データ 0.13252456 -0.076230004 -0.026988143 -0.030862823 -0.096903004 0.008222527 -0.045170687 0.06693656 0.010550622 -0.12705374 0.055835363 0.017958047 0.10614139 -0.12047313 0.03800534 -0.023983672 0.06270597 0.022257961 0.02154678 -0.07096941 -0.013714903 -0.11360741 -0.04106335 -0.022941014 -0.07098697 -0.06786979 -0.038914822 0.07196424 -0.050486032 0.010379873 -0.014980971 -0.002118143 0.1714297 0.011326252 0.051697504 -0.14503007 0.011108743 -0.087909274 -0.006467831 0.042186897 0.028241038 -0.03677714 -0.033791736 0.05523312 0.10965274 0.045767568 0.027559914 -0.062057413 -0.032925114 -0.011772436 0.05793322 0.010794313 -0.019693678 0.009265457 0.0488766 0.035974123 0.07177063 0.103249855 -0.004084344 0.023790186 0.05313708 0.0054545375 -0.0034344622 0.047480527 0.050854456 0.1340102 0.038303606 0.005470174 -0.07294307 -0.04919762
いい 0.09824909 -0.035478722 -0.011004453 -0.013039906 -0.05318353 0.015799291 -0.031402137 0.05832986 0.005693001 -0.08488052 0.020925067 0.002147085 0.08709757 -0.08395209 0.0071481597 -0.014557806 0.036435075 0.0192544 0.01115336 -0.03443435 0.0003305229 -0.08473875 -0.02590916 -0.023796363 -0.036101483 -0.07082542 -0.019281292 0.034691095 -0.017192757 0.021621319 -0.02691501 0.006652374 0.123641245 0.014691215 0.060006708 -0.10567077 0.017726574 -0.062244188 -0.003922642 0.021964647 -0.0015163863 -0.035304014 -0.021874577 0.033619046 0.06478098 0.040118005 0.009293738 -0.05342991 -0.008424031 -0.0023465606 0.0242826 0.015549466 -0.02822952 0.021680627 0.023024986 0.041618593 0.06580332 0.06459889 -0.024394114 0.005413966 0.052684113 -0.0022609842 0.006229056 0.037976045 0.028703889 0.10015356 0.02279705 0.025781194 -0.05739901 -0.029552158
雑談 0.069453076 -0.039378513 -0.014317073 -0.014590391 -0.041671578 0.00953102 -0.019368934 0.053547688 -0.0052621546 -0.08212189 0.012965209 0.011791142 0.06042083 -0.065914966 0.020844491 -0.02893341 0.032499135 0.028458877 0.025288671 -0.039697032 0.0029447975 -0.05964527 -0.006425086 -0.023583898 -0.0321823 -0.04997201 -0.02276188 0.03350681 -0.020639902 0.0039974907 -0.008761479 -0.0003651908 0.09267639 -0.010648507 0.0466257 -0.07747832 1.9492032e-05 -0.029980132 -0.0030393444 0.008155867 -0.0027257986 -0.028659815 -0.025713999 0.042720772 0.06118881 0.03312979 0.00671456 -0.042604014 -0.0060735606 -0.010982546 0.025365626 0.005180789 -0.01668242 -0.0043363245 0.023027958 0.0128578525 0.055171926 0.043071166 -0.016874053 0.010877144 0.020056115 0.0067662913 -0.00054112286 0.029483885 0.042530525 0.07630001 0.025295831 0.019507725 -0.033921536 -0.023896134
みんな 0.120908335 -0.06846395 -0.014788748 -0.0382295 -0.07286126 0.023947228 -0.032583 0.059532613 0.010251305 -0.10012207 0.045454703 -0.0053020148 0.10811341 -0.08097141 0.014214974 -0.02891339 0.04384555 0.008943931 0.020922095 -0.041418288 -0.004282747 -0.11503999 -0.036317244 -0.04313652 -0.05067381 -0.060783334 -0.026186133 0.04574293 -0.024275592 0.0046023056 -0.029072328 -0.0036943064 0.17073235 0.0007408724 0.047762934 -0.14180325 0.016513262 -0.07039808 -0.017968832 0.039974596 0.0027740567 -0.021848567 -0.014479046 0.04370633 0.080798246 0.049284484 -0.0020520815 -0.043369174 -0.015902536 0.0034895814 0.032635298 0.020982286 -0.029579313 0.02180384 0.043889124 0.0349773 0.05899088 0.090730056 -0.014514477 0.02036613 0.03985873 -0.0015577307 0.003954821 0.055851188 0.03739496 0.106526576 0.038822226 0.00952699 -0.045495078 -0.048588216
ください 0.11151182 -0.070559956 -0.03148819 -0.02250898 -0.072975546 -0.002073131 -0.02010433 0.07836676 0.015538658 -0.1172827 0.036925115 0.014998444 0.09019286 -0.1037478 0.01160103 -0.021844264 0.03251014 0.025376335 0.03630528 -0.055235952 -0.0150056435 -0.09460924 -0.02349733 -0.041718252 -0.0459006 -0.058193948 -0.019385282 0.04589127 -0.028528066 0.011522136 -0.03412452 0.015991949 0.15211679 0.00029464276 0.049695812 -0.14371562 0.0026887632 -0.065619096 -0.007370223 0.04650946 0.018942231 -0.05025301 -0.037207622 0.048437078 0.08367591 0.039289597 0.024789508 -0.0445541 -0.0330369 0.0029242362 0.043785557 0.010700118 -0.021471951 0.023580782 0.022840567 0.03222002 0.06881377 0.09347456 -0.0066210623 0.006569198 0.036866106 -0.00062867353 0.0123437075 0.050872307 0.054084092 0.11418395 0.040081345 0.020195888 -0.055709135 -0.042126425
セーブ 0.13075002 -0.052668948 -0.026222503 -0.023575138 -0.076293714 0.0039981967 -0.020567222 0.08300414 0.014904542 -0.12896408 0.05475033 0.010842575 0.11087233 -0.09840814 0.033631977 -0.020121383 0.05322351 0.028219728 0.02334355 -0.070322804 -0.013805322 -0.12175815 -0.038923044 -0.031176068 -0.06092592 -0.07742377 -0.024563124 0.04936211 -0.03216495 0.030041222 -0.01622759 0.01417196 0.17856188 0.0066196136 0.053267904 -0.15745275 0.009120602 -0.07638266 -0.005056389 0.032445382 0.022183321 -0.044707198 -0.01698332 0.0520957 0.09178903 0.056960635 0.012329365 -0.05994808 -0.03038101 0.0061366563 0.039146975 0.031170476 -0.027821157 0.02926041 0.039622094 0.044558853 0.07657363 0.09429463 -0.02389745 0.015858244 0.064453885 -0.01338564 0.013425115 0.05742085 0.065874115 0.12248378 0.053610615 0.00197217 -0.061198954 -0.043485567
～ 0.07360295 -0.041915588 -0.014336013 -0.026618546 -0.042004656 0.013518427 -0.028004317 0.048638623 -0.002618659 -0.05824375 0.030010862 0.005751046 0.057552934 -0.069096416 0.0048855646 -0.015687026 0.012045033 0.027257252 0.019064931 -0.034395687 0.012083022 -0.06845463 -0.01775276 -0.01684984 -0.021984283 -0.03686565 -0.021128157 0.02469808 -0.033943255 0.01907938 -0.006781472 0.016065303 0.10321865 -0.01217805 0.047449764 -0.090213776 0.004006986 -0.04015531 0.0049388306 0.00780878 0.012294611 -0.029799622 -0.014666036 0.040366042 0.037509613 0.042243827 -0.0063838405 -0.020261016 -0.025358878 -0.01365489 0.015901377 0.020830583 -0.016627192 0.010621514 0.0045358106 0.036133364 0.047071934 0.04411823 -0.012500026 0.021593675 0.034135576 -0.01432175 0.009078895 0.019626912 0.033148445 0.07942634 0.022660254 0.008198962 -0.023020037 -0.03852895
技 0.14227988 -0.06409161 -0.036166135 -0.034656275 -0.07476516 0.0170606 -0.022915665 0.077638224 0.02118118 -0.14655897 0.05071975 -0.007269189 0.12332434 -0.099456385 0.024190404 -0.022205302 0.040284358 0.026083924 0.03586222 -0.07440712 0.009301882 -0.1365995 -0.038289756 -0.02325258 -0.053685557 -0.083634295 -0.019710366 0.04785737 -0.048585884 0.025037475 -0.029821858 0.019380389 0.20150748 -0.0020485846 0.06515473 -0.14531474 -0.0029306044 -0.093350075 -0.012643157 0.030505637 0.017147426 -0.039383512 -0.038697187 0.06007812 0.096506424 0.05349911 0.018425204 -0.054260917 -0.030003762 0.0064265197 0.05620785 0.03569043 -0.020596555 0.02287747 0.049998596 0.038442634 0.08624298 0.09636888 -0.011368489 0.01096736 0.05498236 0.011125538 0.0052987086 0.060374398 0.059417088 0.13787785 0.04872753 0.00463255 -0.05361381 -0.048796378
裏 0.12705182 -0.08155962 -0.020139819 -0.030076966 -0.09232121 0.027475202 -0.049938474 0.07833669 0.019258508 -0.13933954 0.036917564 0.01817667 0.13182217 -0.11954115 0.018067796 -0.035130665 0.0671496 0.023820156 0.037354667 -0.07145951 0.004358077 -0.13068981 -0.028815277 -0.023495946 -0.07885495 -0.0780169 -0.045455735 0.049579196 -0.03735848 0.025232034 -0.019496841 -0.00097149634 0.2072254 -0.007516032 0.060918897 -0.15943997 0.0004246727 -0.07910747 -0.019230673 0.033388324 0.025550075 -0.045852527 -0.018865444 0.05861175 0.105418466 0.06441847 0.024795279 -0.063775994 -0.041440643 -0.009519943 0.06726788 0.035557963 -0.034439668 0.020972751 0.050253183 0.03496136 0.08796343 0.10596045 -0.026573475 0.012781746 0.067536704 -0.006255514 0.003347129 0.060338896 0.074107416 0.14979425 0.041998327 0.013215665 -0.055158537 -0.06031844
せ 0.077597626 -0.054424137 -0.021000735 -0.010709021 -0.049720258 -0.00052403595 -0.013225161 0.046556655 0.004176736 -0.08966948 0.03173619 0.003118957 0.076889895 -0.074451424 0.01221153 -0.022248039 0.027871009 0.014802884 0.030088332 -0.03832981 0.007913186 -0.07246275 -0.020403953 -0.021343201 -0.027150799 -0.04445649 -0.032053575 0.04908085 -0.035468765 0.012691087 -0.030803254 -0.0052882247 0.11155263 0.009760519 0.04378567 -0.09944415 -0.0050193113 -0.04091625 0.004588155 0.036220636 0.008956637 -0.03829206 -0.0064122146 0.034789126 0.067689076 0.04241195 0.023148244 -0.0385438 -0.023408039 -0.0054779253 0.038659032 0.015066876 -0.01806728 0.023703473 0.025076224 0.019850833 0.066244274 0.053489096 -0.013689341 0.019949593 0.027959753 0.008904386 -0.00273686 0.021113636 0.023277175 0.08728109 0.038849637 0.021037225 -0.035510566 -0.030788945
よかっ 0.06959429 -0.04556078 0.00371493 -0.024481326 -0.033384155 0.0054479865 -0.020497832 0.03833093 0.015341815 -0.077922314 0.025346443 0.003753806 0.06368736 -0.066799186 0.0018387006 -0.028883265 0.021845365 0.014399589 0.0056536123 -0.022174312 0.0032375078 -0.07472265 -0.027584031 -0.027881073 -0.045644276 -0.0413949 -0.019491222 0.044210035 -0.016469855 0.009559386 -0.0010144436 -0.001497377 0.08500569 0.0037485538 0.027472494 -0.08621557 0.00609922 -0.05261301 -0.008675724 0.024692208 0.0099125635 -0.023784842 -0.015817547 0.044746518 0.057262238 0.025512168 -0.00051878893 -0.04114933 -0.016170375 -0.009263582 0.014658641 0.011953768 -0.019735072 0.0021977415 0.015289225 0.020805577 0.055011734 0.05805822 0.0037940175 0.01828213 0.036389634 0.0025725786 0.01086963 0.028444525 0.043775007 0.059495475 0.028232478 0.013023587 -0.02020873 -0.039140195
なく 0.13607718 -0.056312602 -0.026989797 -0.014408218 -0.0839381 0.023000875 -0.045058515 0.06735428 0.0149609 -0.1213979 0.028177107 0.0023614836 0.09593895 -0.09400667 0.03573613 -0.03309407 0.057225764 0.02098134 0.0330868 -0.057838272 -0.012687058 -0.11183692 -0.041908875 -0.023044668 -0.06704656 -0.06524521 -0.028816847 0.065519035 -0.032535728 0.03539958 -0.024773318 0.013536348 0.17417257 0.0013494499 0.057225794 -0.13800032 0.018319737 -0.062212355 -0.0066323415 0.044458367 0.013256334 -0.036811545 -0.03207634 0.044716556 0.08323158 0.058414776 0.0039577405 -0.041621815 -0.03269735 -0.0074432883 0.040162016 0.03277534 -0.014494786 0.016207445 0.029407296 0.033892397 0.06782228 0.10697963 -0.027490932 0.024954377 0.05883099 0.0143326195 0.013261089 0.052571245 0.061151464 0.13099165 0.03169769 0.0083727995 -0.05903484 -0.052227393
作文 0.1109924 -0.055953596 -0.018807797 -0.017237436 -0.05945562 0.023459986 -0.015028592 0.06262301 0.007925365 -0.11608676 0.03979265 -0.001420468 0.09564303 -0.083291054 0.032541648 -0.017804788 0.055269346 0.023335412 0.015355491 -0.059140436 -0.011802903 -0.09258205 -0.017389411 -0.017411757 -0.051985875 -0.063460305 -0.03551899 0.055948596 -0.025565632 0.018065436 -0.0073711774 -0.0023222412 0.13091658 0.016145041 0.05915353 -0.13375272 0.015437557 -0.06705401 -0.0069398168 0.03573191 -0.00014068448 -0.023715612 -0.029691814 0.038272835 0.088739954 0.054613974 0.023041572 -0.039709475 -0.018110903 -0.01733101 0.040597938 0.017245082 -0.015149212 0.022450563 0.03693134 0.031765416 0.057520587 0.08801143 0.0019769145 0.0067376145 0.049980916 0.009924517 0.007729534 0.047842305 0.03633081 0.09058146 0.028863845 0.0015002023 -0.061614234 -0.038454402
