2219 70
の 0.36047974 -0.07119962 0.0011345202 -0.01927203 -0.407452 -0.18007967 -0.21023203 0.41932496 -0.07358867 -0.4147464 0.18595913 0.019783827 0.2759935 -0.09794668 0.0008688878 0.21227 -0.044838037 0.05308496 -0.27713135 -0.16949315 0.09970526 0.041764062 0.01999095 -0.18143387 -0.23727424 -0.43667108 0.11109208 0.21052526 -0.1379574 0.074042484 0.17447732 0.1089021 0.56110746 0.026298825 0.14178844 -0.19865538 0.44308367 -0.33198625 -0.1629344 0.09798002 -0.06955654 0.14166534 -0.1282298 -0.09553788 0.039430253 0.20465475 0.1746446 0.02423225 -0.07678637 0.38654754 -0.11870721 0.26276502 -0.22505802 0.17126909 0.14464173 0.3995299 0.44957644 0.10881712 -0.2978946 0.048606817 0.1367752 -0.07351988 0.025383573 -0.07598204 0.00560842 0.38943127 -0.08163391 -0.22735016 -0.044053037 -0.22697254
、 0.3077613 -0.10090745 0.0012594732 -0.029163586 -0.4008224 -0.14999302 -0.22659986 0.39567173 -0.03524704 -0.44244677 0.20900513 0.08066743 0.2383416 -0.09308537 -0.023371246 0.21008019 0.037451673 -0.028905123 -0.27145022 -0.18949398 0.06355682 0.0892454 0.06035185 -0.17289598 -0.24509831 -0.44846147 0.06803728 0.18490718 -0.21316946 0.07376668 0.16917361 0.12719318 0.48044565 0.033136904 0.22469084 -0.2554176 0.44806227 -0.30269784 -0.1482533 0.13642688 -0.10498305 0.06305405 -0.09410406 -0.03705737 0.10501343 0.2801167 0.14049095 0.043460455 -0.09866346 0.3590188 -0.11312662 0.28995004 -0.18461524 0.14356902 0.16173533 0.4252603 0.36898428 0.20819598 -0.26930904 0.0994263 0.15490802 0.050653964 -0.040048547 -0.08598145 -0.0034487054 0.43732497 -0.088080645 -0.2352273 -0.0874976 -0.18992674
- 0.16740052 0.07967425 0.06682752 -0.0052629756 0.29639322 0.2380221 -0.06327421 0.11918167 0.13137956 -0.14823419 0.07345042 -0.22324038 0.17704055 -0.29218552 -0.07770515 0.01798869 0.20686114 0.25425124 0.03869337 -0.11447675 0.11074381 -0.40985072 -0.3069657 -0.060549736 -0.44584557 -0.19491763 0.045264777 0.13930687 0.37914363 0.45796615 -0.08230806 -0.08125358 0.26927683 0.32042375 0.52932256 -0.15358202 0.064857356 -0.15176065 0.13694474 0.21991406 0.0071424497 -0.16114387 0.18900594 -0.09217226 -0.1713496 0.16398907 -0.061549366 -0.28650337 0.040021874 -0.14637247 -0.15235734 0.12935467 -0.12907481 0.30957702 0.47283056 0.011892399 0.03866719 0.74404776 -0.3098265 -0.39912882 -0.020478353 -0.033409737 0.012554132 0.29283625 -0.06552687 0.3440491 0.014308257 -0.26306584 -0.5205021 -0.3227646
。 0.3579451 -0.07208155 -0.03450799 0.0184874 -0.37095594 -0.29184014 -0.2394968 0.48174515 -0.10608631 -0.39922434 0.1021985 0.0064782673 0.29101124 -0.058658082 0.019794917 0.2751758 -0.11386667 0.039380506 -0.20846054 -0.08777345 0.20110041 0.11904204 0.06942578 -0.26010752 -0.30844232 -0.48165208 0.107145436 0.13688909 -0.07465807 0.093939796 0.19808464 0.1626921 0.56906223 0.06377511 0.04131007 -0.12540269 0.44634983 -0.32511264 -0.17269342 0.17121623 -0.052760813 0.14958072 -0.15198751 -0.1008212 -0.06572879 0.16912763 0.21468183 -0.03542759 -0.1233058 0.33283067 -0.12638238 0.35163823 -0.16357648 0.18385857 0.12368013 0.50631267 0.51692325 0.12396212 -0.37641764 0.0685703 0.26401892 -0.105816044 0.035511807 -0.04680556 0.079635434 0.36533087 -0.09166906 -0.34369817 -0.04925565 -0.14294462
は 0.36442325 -0.18385105 0.007885186 -0.101598695 -0.42952785 -0.15816194 -0.18187256 0.41133362 0.008799117 -0.4564316 0.13788827 0.058183704 0.2919938 -0.08353788 0.01771598 0.19938774 0.079911195 -0.02043711 -0.35841385 -0.19745596 0.027643781 0.14248964 0.07867567 -0.16352977 -0.26374948 -0.5076434 0.19105074 0.29137415 -0.24518554 0.035603255 0.20474246 0.17392823 0.5240849 -0.07111249 0.19577509 -0.23988792 0.53318346 -0.31503212 -0.23508993 0.14227496 -0.12031733 0.11582883 -0.10981469 -0.049068842 0.014396146 0.25821757 0.09447481 0.041850984 -0.07895852 0.36214057 -0.09393633 0.3214739 -0.23839289 0.2165112 0.12898833 0.45828456 0.3855464 0.08367318 -0.27438983 0.12506884 0.15263776 0.09370363 -0.020742632 -0.107368775 0.039623816 0.48887852 -0.09205216 -0.17422754 -0.08312973 -0.16752186
に 0.37657556 -0.20829865 -0.11040999 -0.22205618 -0.6880965 -0.05613569 -0.19911177 0.49311435 0.00024137256 -0.51367694 0.3056538 0.056014188 0.35353822 -0.25355464 0.124872304 0.08431996 0.12187267 0.22659098 -0.5636887 -0.033591032 0.04634168 -0.045572273 -0.1521038 -0.05513314 -0.33858374 -0.4480645 0.11336116 0.30132583 -0.37516087 -0.01596112 0.25711316 0.12669621 0.54407316 -0.19961001 0.10698458 -0.33525804 0.5555115 -0.26525474 -0.34304807 0.110691495 0.07364028 0.17020741 -0.14587377 0.004481123 -0.013937588 0.22870317 0.39023998 -0.035579987 -0.2253129 0.4260467 0.05681464 0.25486058 -0.24657686 0.24716178 0.17080729 0.42766464 0.5261174 0.08609339 -0.32598647 0.20226395 0.10777454 0.1789969 0.0419812 -0.025443025 -0.18236756 0.3907508 -0.08117955 -0.08891591 -0.08588521 -0.383142
（ 0.19909437 0.010315464 0.053817872 -0.07824471 -0.23394747 0.1664688 -0.12216177 0.2549794 -0.008122251 -0.30628306 0.23189005 -0.07438593 0.31842616 -0.32083234 0.038758956 -0.028481113 0.16911131 0.19132158 -0.34498495 0.040678527 -0.015830198 -0.27344126 -0.37868205 0.016602254 -0.30905953 -0.17900124 0.091659665 0.22367193 0.020249015 0.14241451 0.09900979 -0.06283321 0.3919393 -0.0019977144 0.28657195 -0.20091957 0.18967625 -0.26637867 -0.17078777 0.06271195 0.14021428 -0.032231804 0.055518433 -0.09571599 -0.06826341 0.08399836 0.31804544 -0.12323251 -0.123615585 0.16293114 0.030278452 0.14617248 -0.17788632 0.27314225 0.33531743 0.114515446 0.1902892 0.39215666 -0.2591957 -0.18914467 -0.0797607 0.044396393 0.0210797 -0.054654904 -0.20245494 0.15176071 0.05899915 -0.092639945 -0.24392311 -0.43061838
） 0.2588285 0.0100908205 -0.039122682 -0.07249624 -0.3554869 0.11834 -0.17212339 0.2724113 -0.01505041 -0.30787876 0.2591867 -0.07030281 0.3133896 -0.36744034 0.024648426 0.05500445 0.10829001 0.2428549 -0.36860594 0.059695996 -0.03505582 -0.2746478 -0.43530566 -0.04882987 -0.32167688 -0.18106817 -0.0024279677 0.16836554 -0.018356297 0.104263306 0.14317274 -0.09030199 0.41216728 0.020604458 0.205496 -0.18762887 0.23686047 -0.29041407 -0.22217697 0.07467686 0.23320833 0.014941309 0.013775145 -0.10006202 -0.08209248 0.06638834 0.45986617 -0.17121182 -0.19027054 0.21014482 0.08294836 0.07017492 -0.18896383 0.20043896 0.3172805 0.07901943 0.2973594 0.33380458 -0.30628052 -0.12632489 -0.03832249 -0.023849187 0.077191085 -0.051027976 -0.24823962 0.121718325 0.04945766 -0.14450128 -0.24316938 -0.48632511
年 0.31720924 0.10288776 -0.09196694 0.2671427 0.005177846 -0.049392402 -0.27892554 0.37312812 -0.043586697 -0.17783234 0.01742494 -0.17390941 0.3456725 -0.13317727 -0.04912801 0.31863037 -0.37193805 0.16155574 0.0630952 -0.015377453 0.3263332 -0.23353903 -0.26908663 -0.26605907 -0.37320167 -0.2397644 -0.18617554 -0.08998163 0.4373766 0.36226362 0.16463321 -0.04963512 0.44613132 0.37674505 0.26918706 0.10246524 0.06958618 -0.35167897 0.061702266 0.13551372 0.29971716 0.061916336 0.055987597 -0.28716484 -0.1768785 -0.090772696 0.36490002 -0.37054485 -0.1517086 0.124269806 -0.25211567 0.2028099 -0.11775439 0.25496855 0.41936955 0.08832228 0.4155124 0.52103263 -0.42836785 -0.47241646 0.15772861 -0.48610574 0.09899072 0.030158168 -0.0038966888 0.08529269 -0.030213784 -0.59889275 -0.38120988 -0.37685624
を 0.38713518 -0.13098745 -0.0085178 -0.11369272 -0.5092591 -0.13974139 -0.22483602 0.4323242 -0.07249705 -0.4960639 0.20999365 0.035770617 0.31228477 -0.11090113 0.026131473 0.21283498 0.03705852 0.02123372 -0.41131493 -0.15601653 0.05178617 0.07978549 0.0023074849 -0.14154619 -0.30923802 -0.5112064 0.14839047 0.25247335 -0.29022828 0.003200451 0.20541576 0.16817063 0.5845928 -0.09396987 0.124693796 -0.25248018 0.48270497 -0.31695485 -0.24200626 0.111515544 -0.089371935 0.15469535 -0.13504003 -0.037906785 0.041815884 0.22828628 0.19557369 0.06826593 -0.10904786 0.39399806 -0.06332184 0.3084351 -0.22165547 0.20847003 0.12513997 0.4429547 0.44915465 0.092299305 -0.31585437 0.12474082 0.12049388 0.07309115 -0.028768413 -0.08689061 -0.024011614 0.4648362 -0.07879141 -0.20343514 -0.07156786 -0.21801475
で 0.37439305 -0.16427693 0.058666296 -0.10915269 -0.4160963 -0.17389768 -0.1890298 0.42855492 -0.039006475 -0.484073 0.13609865 0.06128955 0.2840837 -0.052213132 -0.00015118721 0.19570695 0.08558992 -0.034536928 -0.37456688 -0.20014545 0.06255787 0.15865675 0.1304052 -0.21319543 -0.30309847 -0.5278945 0.20205921 0.29768467 -0.2584022 0.08344479 0.1740443 0.21905139 0.5258809 -0.063390106 0.1784942 -0.25440952 0.53530633 -0.30020863 -0.22774348 0.15449157 -0.1757312 0.10114414 -0.14122741 -0.0446304 0.060973935 0.28695834 0.02491689 0.055709124 -0.040096056 0.3655052 -0.111221455 0.3632729 -0.19637938 0.19958957 0.10466281 0.52282196 0.38451067 0.109317675 -0.2646479 0.15427355 0.20359923 0.0859629 -0.058370747 -0.039266516 0.05415477 0.53645504 -0.12261499 -0.15193859 -0.05465681 -0.14215714
1 0.21576473 0.19209357 0.101702824 -0.012622378 0.39620122 0.09206994 -0.017882777 0.09758942 0.106121 -0.2536503 -0.06529503 -0.17041914 0.2041113 -0.1934253 -0.08071061 -0.033118036 0.16627501 0.20343177 0.2603596 -0.13105582 0.21950059 -0.44489512 -0.22459194 -0.18155745 -0.44280186 -0.30067566 0.20503938 0.07781069 0.43757448 0.5071161 -0.06672111 0.090468414 0.3055971 0.42540246 0.52542806 -0.09485234 0.27389267 -0.16710453 0.10206126 0.31668255 -0.079166435 -0.17860378 0.12784427 -0.09413927 -0.04799633 0.24494502 -0.25958195 -0.2963032 0.08800845 -0.06787987 -0.15471669 0.25717506 -0.21334085 0.2702191 0.34899586 0.16831753 0.12007986 0.6202593 -0.27870405 -0.3736477 0.18312523 -0.13960034 0.07845345 0.24075864 0.0834507 0.32806036 -0.0067817187 -0.18892051 -0.20882203 -0.10227003
「 0.29549703 -0.11957441 -0.052495413 -0.02963498 -0.3630988 -0.08613886 -0.19973962 0.3851086 -0.0038208717 -0.3976164 0.13678814 -0.038163815 0.19749765 -0.14995833 0.029446715 0.19453672 -0.050726164 0.06056756 -0.27068678 -0.17569125 0.029467037 0.0027769739 -0.044198968 -0.14004721 -0.2912808 -0.37663653 0.037814673 0.1973244 -0.20303422 0.09226699 0.06796485 0.029694958 0.493381 0.0282382 0.18039219 -0.23061669 0.28520638 -0.32932323 -0.18347286 0.073603496 0.027482985 0.07364168 -0.029123794 -0.063284025 -0.0053650406 0.09961601 0.18641368 -0.08824185 -0.11182622 0.27206802 -0.1513937 0.25531945 -0.1811613 0.18108055 0.21693255 0.31119555 0.31495795 0.23165247 -0.24334699 -0.0859346 0.05772076 -0.023229692 -0.03653492 -0.05267197 -0.07589296 0.3339079 -0.09090982 -0.23667511 -0.19702776 -0.29439038
」 0.33279723 -0.14885713 -0.029958505 -0.08158744 -0.4268341 -0.02698033 -0.18766595 0.3662631 0.027124412 -0.444811 0.17816317 -0.022603227 0.22212869 -0.16838582 0.04839305 0.16554001 -0.0034438847 0.122453675 -0.36386797 -0.15998317 0.04274983 -0.010078515 -0.073987715 -0.09379647 -0.31540847 -0.3782997 0.08394529 0.2609855 -0.22381814 0.091075346 0.12470783 0.061665144 0.49601 -0.04482463 0.21378449 -0.2439823 0.32394502 -0.29874688 -0.18128832 0.0948557 0.031233191 0.12115619 -0.050784085 -0.049359776 -0.023264213 0.105641365 0.17951755 -0.05826347 -0.099864945 0.27530158 -0.111375585 0.2809738 -0.18824859 0.21232253 0.19544594 0.30101347 0.30372015 0.18506676 -0.26213884 -0.037879743 0.0475353 0.056934357 -0.022500372 -0.0988034 -0.08381554 0.36676535 -0.0733251 -0.21803913 -0.15513267 -0.3214407
日 0.26550725 0.13382228 -0.0954519 0.3897328 0.1940686 -0.118979685 -0.32853177 0.4379179 0.08659735 -0.08334794 -0.09492991 -0.19197723 0.33833256 -0.15095568 -0.07254795 0.30379817 -0.41694337 0.1824984 0.16488223 -0.03195246 0.3853715 -0.24277475 -0.1866879 -0.32415268 -0.48185503 -0.29058042 -0.21443783 -0.11616791 0.6138572 0.51276195 0.11339907 -0.16469869 0.4593737 0.49564335 0.35924634 0.11366018 0.07454365 -0.3548283 0.17374645 0.22921629 0.26788747 0.007792484 0.104065396 -0.32343084 -0.268899 -0.040778212 0.27389547 -0.42515537 -0.07634988 -0.01759893 -0.3916078 0.2982326 -0.10230824 0.38772458 0.56808275 0.1399033 0.34746996 0.69904584 -0.5331944 -0.5825078 0.22046937 -0.48767442 0.048659645 0.16704535 0.041818917 0.07222354 -0.05175468 -0.758388 -0.574201 -0.35841727
月 0.27868327 0.16228984 -0.12039906 0.40438852 0.2405048 -0.08672159 -0.34565574 0.43531892 0.080900274 -0.09482865 -0.12551579 -0.24524844 0.35837242 -0.14462246 -0.13514283 0.3551814 -0.46103096 0.114102125 0.21771193 -0.08231884 0.41405255 -0.22236243 -0.24560055 -0.3081422 -0.48119593 -0.24721658 -0.15593202 -0.18159035 0.67173964 0.5880944 0.124806195 -0.10422964 0.49051294 0.59971476 0.3374069 0.14634764 0.071677886 -0.36084837 0.17589357 0.29094276 0.29413775 0.020427145 0.073222145 -0.33568406 -0.28482208 -0.056026507 0.2873534 -0.48076588 -0.07944275 -0.04022505 -0.38466254 0.34118143 -0.12990174 0.397265 0.57681173 0.11242811 0.35417008 0.78979564 -0.56354976 -0.63624126 0.2616205 -0.5337939 0.06181474 0.11208781 0.09493401 0.07404151 -0.048018638 -0.8100354 -0.5700131 -0.36942738
が 0.38409474 -0.21707687 -0.00038578853 -0.12216779 -0.57241136 -0.245731 -0.26497477 0.53124243 -0.046523284 -0.50608385 0.18501809 0.076262206 0.28722563 -0.03643807 0.013872232 0.23997934 0.04345493 -0.0038665873 -0.39357945 -0.20953007 0.089656785 0.17861809 0.16837813 -0.1543274 -0.29555285 -0.5897824 0.20589358 0.26866367 -0.33343086 0.03492475 0.2567219 0.23905559 0.6196176 -0.09466043 0.08884884 -0.28509712 0.5910894 -0.30426764 -0.22608097 0.15499207 -0.15769193 0.1633432 -0.16992393 -0.039098904 0.041094802 0.35392424 0.13019378 0.13965748 -0.11610142 0.44551995 -0.10653612 0.39897707 -0.20955703 0.21299733 0.08011942 0.5796461 0.50093055 0.06643982 -0.31141475 0.20227538 0.19225733 0.13407248 -0.04394002 -0.05626749 0.04732033 0.5735902 -0.13945253 -0.21831995 -0.023257405 -0.15133867
. 0.35538447 0.41177994 0.0029651101 0.034199364 0.40063837 -0.053475607 -0.24514344 0.16472296 -0.02560981 -0.33093712 -0.11530355 -0.2636583 0.37395123 -0.26391795 -0.042298466 -0.03588844 -0.028424634 0.32322946 0.43202287 -0.135141 0.15987419 -0.60641664 -0.31677717 -0.24212174 -0.43464762 -0.33325115 0.18915628 0.032179575 0.61844695 0.6041548 -0.037471227 0.09007549 0.3732628 0.65620774 0.5655834 0.07294136 0.31200367 -0.19190651 0.111563616 0.37712213 -0.14470214 -0.057353653 -0.0020748496 -0.16471978 -0.07738799 0.1794793 -0.15233888 -0.382417 0.14140907 0.05232667 -0.1413631 0.31006944 -0.43182248 0.22445168 0.2629819 0.1577231 0.3762298 0.675681 -0.42099985 -0.48593274 0.25338125 -0.3314648 0.2066586 0.12841864 0.15027031 0.12538998 -0.048043698 -0.27497193 0.023682572 -0.046966676
( 0.04349411 0.0014047021 0.2055561 -0.12079908 0.38303748 0.35107017 0.030065926 0.038040362 0.19085173 -0.2424697 0.05376473 -0.082089126 0.19139858 -0.25602704 -0.1718737 -0.1095357 0.40504214 0.059277605 -0.15047777 -0.12905897 0.05776859 -0.35293108 -0.19961937 -0.0048297932 -0.441239 -0.32630518 0.2756507 0.28763223 0.26213765 0.45152813 -0.0612328 0.068079226 0.16771771 0.12740006 0.6076893 -0.27043295 0.27572387 -0.064146504 0.118463516 0.3026633 -0.22131798 -0.21866432 0.11945851 -0.10478521 -0.18669003 0.34187132 -0.40518063 -0.22483142 0.13424043 -0.11112276 -0.1941651 0.27331805 -0.25831956 0.39393988 0.46489912 0.16569532 -0.065746985 0.6816943 -0.15997499 -0.25245136 0.035839036 0.20417918 -0.017491575 0.27670264 -0.07430015 0.48021868 -0.030299142 -0.107623525 -0.4272903 -0.20637798
2 0.29422107 0.23676352 0.12146977 -0.06001989 0.33060429 -0.0013005008 -0.112069115 0.19215807 0.060243014 -0.280136 -0.0768751 -0.16762635 0.26913452 -0.17507 -0.019331858 -0.07592864 0.12543146 0.24517949 0.27529246 -0.19571693 0.12771839 -0.4591053 -0.16813493 -0.13184333 -0.38834476 -0.24040076 0.242246 0.12443125 0.35623035 0.52211535 -0.005982127 0.13036846 0.32297423 0.44585234 0.55475235 -0.0539308 0.36180294 -0.13955905 0.10794863 0.30249918 -0.12273334 -0.11579313 -0.012954507 -0.08441824 0.023010876 0.30562547 -0.23246771 -0.19468081 0.14042485 0.0043624747 -0.068062164 0.19925618 -0.26795518 0.29005495 0.24940781 0.14513463 0.23346686 0.5850977 -0.30490842 -0.35267112 0.18283302 -0.10972307 0.101002514 0.18832923 0.11749923 0.2717579 0.028900728 -0.15806788 -0.08993464 -0.029793855
・ 0.21763225 -0.017214749 0.015600176 0.0052290233 -0.19829193 0.015582284 -0.21625975 0.30642107 0.027732851 -0.34946552 0.24882305 -0.006268714 0.16140507 -0.19200824 -0.07534675 0.1535602 0.04845188 0.03409628 -0.19028015 -0.103714675 0.10302923 -0.109204836 -0.109622926 -0.106169865 -0.28017548 -0.3021179 0.041209523 0.15326823 -0.008611371 0.10020763 0.115713015 -0.024432877 0.34931996 0.08562886 0.26033938 -0.24808572 0.27599093 -0.23940451 -0.047811855 0.14886546 0.047175243 -0.015757583 0.027136328 -0.08007812 0.074559785 0.23729232 0.1288898 -0.08370946 -0.084061556 0.25374243 -0.1057998 0.20359057 -0.20421764 0.12575224 0.21764712 0.22538638 0.25982454 0.33832192 -0.24055578 -0.033541974 0.018169437 -0.0016864031 0.0024020318 0.0069531165 -0.09514339 0.32854757 -0.045715854 -0.27862012 -0.18898697 -0.30705142
; 0.09065274 -0.14402607 0.35361773 -0.1807229 0.5108193 0.0931524 0.1094112 0.3011095 0.3487091 -0.19329561 -0.029160624 -0.14933595 0.13732734 -0.2844598 -0.05987102 0.012518351 0.47182563 0.33142993 -0.11262002 -0.5156541 0.10034733 -0.47638756 0.19122143 0.09986177 -0.4743277 -0.32747743 0.14716347 0.5396988 0.22858296 0.62884337 -0.24209698 -0.06542699 0.2471272 0.27373308 0.86147815 -0.3073199 0.22758 -0.078954965 0.2678712 0.41711077 -0.18145567 -0.3864682 0.08883416 0.07733741 -0.2995129 0.500314 -0.4358431 0.04722014 0.2783044 -0.26144964 -0.18867172 0.23456736 -0.16322826 0.5738446 0.5080082 -0.013437322 -0.18811886 0.9952163 -0.26734507 -0.49024233 -0.1153478 0.2165255 0.021931102 0.7270034 0.011694957 0.7589169 0.14776443 -0.24539948 -0.7947265 -0.19349103
) 0.07788316 0.042360496 0.15097664 -0.10591571 0.37352613 0.37405568 -0.029759888 0.018187746 0.19176826 -0.279165 0.047419153 -0.117020994 0.21511222 -0.26641336 -0.18846788 -0.09607962 0.42653403 0.10094892 -0.11462314 -0.06854059 0.076384336 -0.40465695 -0.2712406 -0.057782866 -0.41985273 -0.32146606 0.23946619 0.31124434 0.28439182 0.4636551 -0.080137156 0.025634196 0.18153621 0.15597536 0.5975492 -0.25831392 0.21985972 -0.10815947 0.076624535 0.25898296 -0.17620076 -0.26480243 0.14174777 -0.07517848 -0.18495537 0.33061546 -0.31088933 -0.2537955 0.14435373 -0.10347802 -0.16710597 0.25353026 -0.26789945 0.3528687 0.43971357 0.15225919 -0.07103824 0.7061055 -0.15519471 -0.21968326 0.018314186 0.16943559 0.0019560657 0.26410332 -0.11025787 0.43230683 -0.0033757482 -0.08238802 -0.44085118 -0.25299606
： 0.10054882 -0.062049266 -0.020859657 0.11588734 -0.29975793 0.08687008 -0.3536731 0.26465306 0.024191897 -0.3481471 0.3682623 0.07757849 0.07409889 -0.20410106 -0.11128993 0.13484427 0.09825723 -0.10104296 -0.2116805 -0.14854638 -0.006632177 -0.10345893 -0.11401111 -0.08811426 -0.23345467 -0.3060348 -0.060085814 0.14555502 -0.17784534 0.04485701 0.13461193 -0.10907775 0.21584117 0.15006429 0.44710648 -0.32932636 0.24265721 -0.2660072 0.02855916 0.16012552 -0.014341228 -0.12772754 0.10173184 -0.059808686 0.18777926 0.29687625 0.11889608 -0.07959477 -0.10019073 0.23075888 -0.124982566 0.22011106 -0.24755302 0.12699404 0.24055015 0.25437832 0.098890096 0.5005352 -0.20522392 0.02690467 -0.0033590614 0.18532738 -0.08368085 -0.08048202 -0.19107299 0.3496113 -0.08474859 -0.35149315 -0.2618436 -0.36213794
と 0.35182136 -0.20374985 -0.0057147234 -0.11434848 -0.43189034 -0.17548396 -0.21246643 0.45205367 -0.032377213 -0.45545876 0.15127154 0.07184372 0.26770377 -0.035387002 -0.013412839 0.23079218 0.026495378 -0.0139915 -0.3509165 -0.17551057 0.104200214 0.13027474 0.13736217 -0.18260455 -0.27157646 -0.53468835 0.19706747 0.26756138 -0.24666576 0.040075995 0.18473195 0.19658631 0.5578867 -0.062965035 0.16508833 -0.26701462 0.5164465 -0.29354745 -0.16397007 0.13837558 -0.115263656 0.10132797 -0.15146242 -0.06266661 0.02977111 0.2955816 0.04448399 0.052406892 -0.07174463 0.36409238 -0.12497103 0.3476548 -0.22561845 0.19985487 0.11939939 0.49694422 0.39845216 0.10271454 -0.24910961 0.12729248 0.18726265 0.055501185 -0.010408503 -0.008241891 0.0336891 0.5245914 -0.10679656 -0.20275298 -0.083466135 -0.15508358
3 0.37154648 0.3243009 0.02744361 0.02772558 0.22394666 -0.12720132 -0.16925643 0.2364453 -0.02168758 -0.29170203 -0.08623576 -0.18164381 0.3045636 -0.14980307 0.018826984 0.035463247 -0.051794443 0.27780548 0.3589215 -0.1982564 0.19194514 -0.4763504 -0.15791574 -0.17261508 -0.35063785 -0.26824328 0.14112568 0.03946527 0.43292567 0.5029007 0.022182854 0.11775399 0.41635686 0.5405019 0.47375712 0.04195829 0.3754319 -0.208841 0.11165267 0.2861076 -0.056729425 0.021538803 -0.0074943122 -0.15127276 0.025215236 0.22322528 -0.07609977 -0.2322299 0.0764906 0.09979094 -0.09127579 0.19313616 -0.32944703 0.21381555 0.22468065 0.18903555 0.4042458 0.52907574 -0.3835365 -0.38897535 0.21557525 -0.31870085 0.17344551 0.12379812 0.19712809 0.1983019 -0.025675476 -0.22058602 0.05039969 -0.031066854
&# 0.115473926 -0.12695469 0.35216075 -0.18842168 0.6059659 0.14381474 0.06814065 0.32565114 0.39762068 -0.19776368 -0.014285604 -0.15936385 0.15365703 -0.26866016 -0.09436548 -0.025378695 0.4721262 0.310839 -0.070207745 -0.5193916 0.09075973 -0.5263052 0.16611056 0.09928861 -0.52683586 -0.30098093 0.1540483 0.5034527 0.3365823 0.6616296 -0.24756406 -0.09904417 0.22544111 0.29243383 0.92691237 -0.2627473 0.2546467 -0.088381216 0.31910014 0.41836634 -0.1379673 -0.36517563 0.13705386 0.054925688 -0.29388642 0.5575295 -0.44946316 0.015022923 0.29671645 -0.3026998 -0.19043845 0.21447231 -0.15367624 0.6304593 0.5817315 -0.036901668 -0.21932809 1.0635905 -0.29587102 -0.5403078 -0.10976 0.2226021 -0.0027350404 0.73152554 0.044999987 0.7333351 0.13343294 -0.24565868 -0.79711926 -0.25389245
た 0.3964026 -0.15895317 -0.049084757 -0.0006805433 -0.50904095 -0.24465092 -0.29831582 0.53737164 -0.0720227 -0.4342817 0.18761268 0.08542139 0.30516186 -0.022760663 -0.0074546067 0.27806276 -0.052025586 0.036772583 -0.2792592 -0.14619713 0.20871653 0.11936861 0.12607451 -0.19591823 -0.2904716 -0.54313475 0.13696617 0.14461003 -0.2093457 0.02470136 0.2919128 0.2122445 0.6272047 -0.04963968 0.031318814 -0.20805761 0.5076024 -0.3503584 -0.1395654 0.20298557 -0.019510027 0.16938871 -0.16593799 -0.06298789 -0.0011651337 0.31688377 0.20598286 0.056345508 -0.14448868 0.40929943 -0.13262677 0.38495767 -0.19416445 0.21820608 0.092296615 0.5125011 0.58990455 0.039461996 -0.35321978 0.13647997 0.1847996 -0.028296603 0.0121252015 -0.03749182 0.024801988 0.50439095 -0.08572772 -0.3090491 -0.0578282 -0.23627341
+ 0.08998636 -0.07005389 0.2934519 -0.22491315 0.42388874 0.3876055 0.044262942 0.094752416 0.28049985 -0.2839356 -0.026206974 -0.07918181 0.20317347 -0.27311468 -0.1708154 -0.15609008 0.54315937 0.072761595 -0.23217255 -0.16279556 0.029479068 -0.39083773 -0.107379876 -0.049292665 -0.4922967 -0.3570916 0.31910357 0.35225552 0.2515639 0.4655694 -0.07912241 0.10996764 0.12676886 0.12604421 0.6613309 -0.3298496 0.3083985 -0.05406885 0.0927893 0.33342853 -0.19275448 -0.29259634 0.14987536 -0.054897517 -0.1266612 0.47278923 -0.49559927 -0.2123506 0.2000369 -0.20146945 -0.18324454 0.27332768 -0.23003417 0.5656501 0.5106014 0.13020469 -0.19845325 0.7214865 -0.22764497 -0.1769872 0.02854861 0.30886602 -0.11131806 0.36590734 -0.026975397 0.578982 0.015016301 -0.03471816 -0.5795469 -0.21151529
て 0.41140166 -0.2604826 -0.006357674 -0.12241145 -0.6245967 -0.22340837 -0.2683899 0.6122032 -0.044919938 -0.5334799 0.23566997 0.111606434 0.2840076 -0.022408469 0.0036922556 0.21928269 0.04555357 0.008804522 -0.4391649 -0.16837333 0.16742744 0.13259506 0.15766482 -0.17433496 -0.34340918 -0.60698336 0.20615824 0.24244426 -0.36343178 -0.009108532 0.29850098 0.32318252 0.7033923 -0.18313776 0.04808309 -0.30330977 0.62263364 -0.33329752 -0.18594915 0.18017817 -0.11039006 0.18119735 -0.21712163 -0.038149998 0.067806624 0.4381927 0.14174041 0.15476502 -0.14380084 0.47468185 -0.13678157 0.42910302 -0.24168073 0.23219001 0.058231052 0.6329612 0.59098667 0.038902238 -0.3581695 0.26745823 0.17798108 0.13364391 -0.021853507 0.012962696 0.02977271 0.6224081 -0.11219486 -0.22563957 -0.09609313 -0.24307121
『 0.3152663 0.08066622 -0.045724474 -0.16234227 -0.6258298 0.1469349 -0.32992962 0.36253157 -0.10048229 -0.31866404 0.35137117 -0.10997554 0.538883 -0.48712224 0.122718304 -0.09331497 0.22787395 0.39369783 -0.48208335 0.20753208 -0.14891921 -0.32547718 -0.5432571 0.08925621 -0.40608102 -0.12860727 0.030413425 0.26447266 -0.11526501 0.09814144 0.17334756 -0.1563451 0.5566786 -0.17868078 0.19451171 -0.28642115 0.30396813 -0.37911254 -0.3650524 0.019019743 0.26337457 0.09951841 0.032363184 -0.0017186251 -0.18637124 -6.308715e-05 0.76310396 -0.14667171 -0.24721229 0.20877935 0.2809137 0.078087136 -0.20549321 0.3307333 0.385891 0.0755531 0.4298954 0.2567671 -0.47365755 -0.18943693 -0.14146557 0.16944322 0.039795138 -0.0029157982 -0.25806865 0.03231332 0.105447106 -0.058391143 -0.22274105 -0.6486015
a 0.10804181 -0.124997735 0.33695042 -0.32507312 0.31291455 0.45325783 0.098260656 0.21315841 0.3617825 -0.2744099 -0.12039206 -0.06421312 0.30911365 -0.13750896 -0.17923495 -0.27896085 0.6605715 -0.18969187 -0.64169747 0.021133902 -0.002572734 -0.35256806 -0.14768584 0.05724216 -0.5094973 -0.2586736 0.3884183 0.5004556 0.10792146 0.36290342 -0.009383206 0.11365855 0.07020615 -0.039498456 0.7301261 -0.3171194 0.44432303 -0.0808159 -0.11189145 0.23222208 -0.19252707 -0.26238543 0.13255845 -0.28592747 -0.072684884 0.4390587 -0.5247266 -0.2147581 0.16549657 -0.17397466 -0.10475847 0.37810463 -0.33062625 0.72377 0.43310592 0.14759341 -0.3424769 0.5169892 -0.14814728 -0.11193261 -0.05320798 0.42997402 -0.19963577 0.062714964 -0.13247502 0.5815176 0.04402364 0.12700742 -0.5378601 -0.19051157
! 0.32728407 0.11282238 -0.13957675 -0.06951349 -0.29827586 0.088230744 -0.2650081 0.33151868 -0.074298956 -0.3129544 0.3095667 -0.16413909 0.34757626 -0.3534943 0.09781362 0.032416422 0.06094757 0.28723222 -0.26224354 0.0728463 -0.038094155 -0.33909652 -0.5107146 -0.039070144 -0.31758815 -0.12304949 -0.05338381 0.11681434 0.06057978 0.16782628 0.10036445 -0.116324365 0.4396348 0.07325695 0.25791276 -0.090311095 0.14282194 -0.2947576 -0.13089071 0.10696824 0.21284665 0.088559 0.078375034 -0.13103062 -0.16527966 -0.02131459 0.5753039 -0.24897772 -0.14115798 0.1448685 0.091693535 0.08858541 -0.17436619 0.25304168 0.350798 -0.01910101 0.32975566 0.4459748 -0.4290234 -0.2213617 -0.063149236 -0.13208294 0.10493828 -0.05697692 -0.21168311 0.08851175 -0.0048311017 -0.24668953 -0.28851962 -0.60686356
U 0.035860732 0.01676534 0.2610721 -0.13031419 0.4733499 0.3536467 0.083954595 0.05829815 0.29930753 -0.25276852 0.048809297 -0.10863183 0.17861615 -0.3277917 -0.20292443 -0.101837315 0.45674756 0.115212925 -0.11811607 -0.1583406 0.08827477 -0.4091862 -0.1822652 -0.09233261 -0.5038999 -0.37202016 0.3187855 0.34461483 0.26724064 0.5559033 -0.044734914 0.103050575 0.19186634 0.12658869 0.65334827 -0.3342603 0.255604 -0.06636329 0.11330145 0.31875202 -0.18738367 -0.31360167 0.17804593 -0.023783851 -0.18110958 0.45540935 -0.41054952 -0.18338537 0.19112462 -0.20530003 -0.22669698 0.26658195 -0.22897477 0.51295674 0.49903744 0.17304324 -0.14487267 0.7274447 -0.17263201 -0.17486177 0.023609413 0.2755868 -0.07982555 0.32914943 0.00979898 0.5478782 0.030797979 -0.072348446 -0.53473777 -0.19742437
ある 0.39986053 -0.19607542 0.015411509 -0.11411988 -0.5144537 -0.24589032 -0.22872093 0.5007793 -0.077944286 -0.48561513 0.19778258 0.064852156 0.28129733 -0.076674834 0.00603473 0.24517356 0.07782496 -0.005314007 -0.37404618 -0.17144169 0.06747807 0.18579872 0.16637638 -0.23989101 -0.31544322 -0.6169319 0.2353206 0.3099561 -0.31513682 0.019526416 0.23111624 0.23586783 0.5923675 -0.07880912 0.13515119 -0.267058 0.6021778 -0.30196384 -0.2647819 0.16075476 -0.21419284 0.13218577 -0.19280986 -0.008381722 0.03587175 0.32414255 0.12197259 0.0870758 -0.086288944 0.40971777 -0.05947493 0.38716528 -0.23196612 0.20649473 0.0966656 0.5407971 0.50333995 0.0399611 -0.28084937 0.20432936 0.20533068 0.10040726 0.0033567874 -0.0570753 0.06708741 0.5514143 -0.09802887 -0.20234908 -0.010742834 -0.1443787
x 0.08173091 -0.1201699 0.40918714 -0.25915742 0.5830091 0.3668691 0.153035 0.2810694 0.45527995 -0.21686114 -0.07680174 -0.115406185 0.24297124 -0.22755715 -0.15322587 -0.17389439 0.6130628 0.034663107 -0.39017755 -0.23706365 0.054900866 -0.4979565 0.031346958 0.08114449 -0.5546287 -0.2804352 0.33325052 0.55232567 0.26975024 0.6070374 -0.12757409 0.00015910949 0.11540944 0.13711344 0.93666023 -0.3207029 0.35541952 -0.06501458 0.14551812 0.37653938 -0.16076618 -0.39697728 0.15050793 -0.14369805 -0.22224472 0.5069661 -0.5422905 -0.14675115 0.27773854 -0.34712553 -0.16322564 0.33896238 -0.24189748 0.7622023 0.5569869 0.025578145 -0.3625323 0.88535994 -0.2312987 -0.36078185 -0.097869664 0.3741199 -0.10515497 0.457794 -0.06888341 0.70652914 0.1263727 -0.051599845 -0.7783099 -0.25327614
, 0.0667291 0.05461057 0.16068074 -0.10054581 0.39162382 0.32940748 -0.02927578 0.06679103 0.20126526 -0.20547113 0.028769948 -0.1212397 0.18041646 -0.29769415 -0.1625246 -0.077297114 0.38919035 0.09919266 -0.042531773 -0.123973265 0.10228574 -0.45319897 -0.25117752 -0.06276013 -0.4707928 -0.2949281 0.21248557 0.22292247 0.35554898 0.44327402 -0.060813878 -0.014729767 0.15195672 0.22729784 0.60487145 -0.24111637 0.2066316 -0.11974207 0.07745816 0.2734962 -0.0629829 -0.28057817 0.1995688 -0.10236332 -0.085959196 0.3504544 -0.2716937 -0.2819016 0.079584934 -0.14999655 -0.20984547 0.18617208 -0.24791755 0.40862128 0.47885096 0.08329162 -0.10056402 0.7033203 -0.24077728 -0.27723205 0.02682395 0.13598609 -0.014099312 0.28133082 -0.06413238 0.413403 0.028417163 -0.09600876 -0.48738858 -0.23731488
さ 0.3975308 -0.24749479 -0.026025556 -0.12766892 -0.6028732 -0.30726096 -0.3177183 0.6296668 -0.047619626 -0.47911778 0.1737513 0.103111655 0.2671771 -0.027515251 0.06748552 0.23582128 0.04177561 0.06092855 -0.43310153 -0.1177296 0.17502683 0.15683258 0.17676012 -0.18549223 -0.3425749 -0.63488173 0.21445607 0.21153046 -0.32366765 -0.026090825 0.33696356 0.26500773 0.7133535 -0.16161925 0.03811842 -0.32863232 0.6064134 -0.3089005 -0.19839327 0.25084096 -0.039406717 0.20037964 -0.20519462 -0.019682242 0.002590223 0.4093433 0.14426795 0.090671495 -0.16554518 0.46215227 -0.08271205 0.39429364 -0.24486765 0.2534088 0.06877748 0.5696779 0.64800763 -0.008018205 -0.3164258 0.22261064 0.2463513 0.11209584 0.01679431 0.008720365 -0.024104998 0.60931283 -0.12226862 -0.22794329 -0.105764516 -0.27871856
』 0.3127649 -0.06264351 -0.07323214 -0.23998281 -0.66937995 0.14687698 -0.21164678 0.37828612 -0.062291984 -0.41570222 0.35241112 -0.08601012 0.4196322 -0.46553323 0.11972681 -0.07637285 0.21935634 0.41990858 -0.5482635 0.16516551 -0.08989861 -0.2711469 -0.44421637 0.08033603 -0.39120492 -0.22929406 0.08278263 0.3250792 -0.24474491 0.091784514 0.21963143 -0.10482449 0.51791084 -0.23310329 0.15794992 -0.3654502 0.38099095 -0.30551744 -0.35423702 0.0810382 0.26285133 0.09779474 -0.051017035 0.0345125 -0.11393568 0.11365425 0.6390291 -0.13332736 -0.22982083 0.31111214 0.22811495 0.07674308 -0.23990259 0.30601647 0.30461788 0.17500982 0.43629935 0.18598844 -0.38618284 -0.035760634 -0.08165142 0.2130142 0.106082834 0.0066457167 -0.28006294 0.12924336 0.01486527 -0.05508512 -0.16245508 -0.6050908
〜 0.3939708 -0.18778715 -0.045027915 -0.037699074 -0.4517103 0.0043903366 -0.26229098 0.4467517 0.10341712 -0.43193534 0.105924964 -0.10833144 0.10443714 -0.26681066 -0.037228823 0.22899234 -0.11042861 0.13476694 -0.34569305 -0.18469054 -0.05521256 -0.09868606 -0.06280896 -0.05578664 -0.24643266 -0.32487184 0.00012472953 0.25699905 -0.21679702 0.20253664 -0.014505529 -0.1468839 0.46472755 -0.031177172 0.26623958 -0.27172595 0.19255702 -0.32137182 -0.17655388 0.04381984 0.13924795 0.06842422 -0.018051157 -0.1445408 -0.084050074 0.01323755 0.16506259 -0.119545154 -0.12858091 0.20328465 -0.20244426 0.16476808 -0.23242427 0.24535717 0.3021112 0.16654584 0.16025582 0.2109576 -0.17839058 -0.16549866 -0.01949027 -0.0029425928 -0.008576587 -0.085543565 -0.09887756 0.38463032 -0.1021739 -0.20666367 -0.26487985 -0.44152275
し 0.39076477 -0.18285558 -0.057623364 -0.053582996 -0.51686925 -0.20043539 -0.24642599 0.4928567 -0.06400261 -0.46111915 0.17505996 0.08757969 0.30700037 -0.024771357 -0.020249907 0.27886912 0.004232418 0.024844777 -0.33026063 -0.17034642 0.17656724 0.12081352 0.14581944 -0.15721175 -0.26879907 -0.5726848 0.14017205 0.21620296 -0.23903862 0.039366014 0.28820685 0.25001466 0.65997374 -0.10311872 0.060974747 -0.26073447 0.5366529 -0.29898512 -0.17125717 0.156207 -0.10683968 0.1865381 -0.16082583 -0.059542067 0.04450713 0.31068677 0.136843 0.10568883 -0.10124824 0.44350445 -0.1517994 0.34945187 -0.2148293 0.1949174 0.1035853 0.52177 0.514881 0.07705017 -0.34993622 0.1871273 0.19817936 0.0195302 -0.004133462 -0.0361113 -0.020833846 0.5098883 -0.13912481 -0.2565484 -0.029399108 -0.17144948
10 0.21786152 0.13670348 -0.018400507 0.32517648 0.31237912 -0.040488634 -0.24012673 0.3800723 0.10129586 -0.07546705 -0.15270145 -0.2513569 0.31477353 -0.13156937 -0.14723179 0.20844635 -0.25311896 0.08612938 0.083408095 -0.00015838663 0.3517418 -0.26039824 -0.22535126 -0.2868076 -0.4948497 -0.2664459 -0.14656617 -0.096518025 0.675832 0.5656525 0.04184267 -0.15450127 0.3332356 0.45688206 0.42344674 0.099060714 0.08426959 -0.29943115 0.12523757 0.29560995 0.21276155 -0.052320052 0.11338938 -0.3340038 -0.28342745 -0.029535111 0.15360051 -0.4834313 -0.057846356 -0.13287131 -0.38420573 0.33446252 -0.14050312 0.45757705 0.60036963 0.124078915 0.20304921 0.7385913 -0.50649035 -0.5728059 0.20910597 -0.3857165 0.014120727 0.1467584 0.070275575 0.08043954 -0.027816175 -0.6924788 -0.5746682 -0.27310184
れ 0.37498108 -0.26737854 -0.02846335 -0.066401124 -0.6293898 -0.258597 -0.3551718 0.6626997 -0.06697418 -0.5407076 0.2209287 0.12609154 0.2903684 -0.017619824 0.022373244 0.24559891 0.011006177 0.078079335 -0.36459893 -0.15456797 0.20348349 0.09757278 0.18535379 -0.141217 -0.31383148 -0.65522236 0.1700467 0.2271028 -0.35582006 0.013918098 0.36878544 0.31948382 0.68929726 -0.14563458 0.02878144 -0.3493961 0.6386553 -0.31400427 -0.19638045 0.2144225 -0.085655026 0.21105884 -0.23372595 -0.030470356 0.00019596491 0.41530976 0.1780557 0.16085638 -0.14973871 0.49733725 -0.122834034 0.4357637 -0.2082031 0.2686666 0.07134132 0.6079193 0.6434736 -0.017029239 -0.3871496 0.23497087 0.24133426 0.09470381 0.005549441 0.024296278 -0.019799806 0.6094314 -0.1014218 -0.26688352 -0.060334537 -0.22506055
語 0.21300787 0.22096846 0.028743159 -0.110743605 0.14330105 0.000117071264 -0.09019421 0.07194239 0.09311238 -0.53508395 0.18610795 -0.10828712 0.25832072 -0.33824104 -0.0987541 -0.06437867 0.13209629 0.16319773 -0.07279664 -0.013260901 0.061419614 -0.4109928 -0.18535325 -0.30534425 -0.33507192 -0.45141965 0.30974036 0.22245692 0.20257448 0.5327664 -0.01411186 -0.0409292 0.37353405 0.25500503 0.36715075 -0.30841455 0.20328721 -0.23871839 -0.03955877 0.33698973 -0.116793744 -0.1582495 0.024411501 0.08033355 -0.08856891 0.15479738 -0.008554366 -0.3244609 0.06332787 0.023543818 0.041611593 0.33684745 -0.35961998 0.16585289 0.3078481 0.330535 0.06137821 0.6669586 -0.27133265 -0.25421846 0.16588272 -0.01196683 0.14263141 -0.05377377 0.022887105 0.21264662 -0.052267395 -0.20382418 0.077060714 -0.20607983
4 0.24312606 0.2146459 -0.00813988 0.13801251 0.08735796 -0.08548017 -0.2048934 0.2680116 0.010790468 -0.24293803 0.0020514168 -0.12028707 0.3135732 -0.20024928 -0.017264294 0.113670126 -0.15017326 0.1609193 0.13772637 -0.07854986 0.21970211 -0.35569444 -0.17022768 -0.21452431 -0.32992902 -0.28025123 0.008434855 -0.002840237 0.41832867 0.4016404 0.10673595 -0.029560734 0.41565734 0.43057412 0.3528255 0.00062415586 0.23985942 -0.2653464 0.08553951 0.24100494 0.08563831 0.0063350606 0.01601808 -0.21966964 -0.047907267 0.111654416 0.108093604 -0.24490915 -0.030317506 0.11746837 -0.17114732 0.2305919 -0.2356103 0.21153632 0.30170706 0.21139851 0.33371267 0.47256765 -0.38009518 -0.3521591 0.19807212 -0.32032374 0.15173702 0.03933006 0.081835024 0.15542021 -0.03206209 -0.36542708 -0.13765624 -0.24874918
も 0.38249633 -0.17676477 0.03615379 -0.14601798 -0.5000584 -0.19903137 -0.23282018 0.503506 -0.039191976 -0.48047543 0.19434755 0.08107093 0.27258036 -0.04975578 0.03766756 0.19965094 0.079656884 0.0006735318 -0.3957858 -0.1488242 0.082299724 0.15973698 0.12561393 -0.17952621 -0.2700791 -0.5642558 0.20284535 0.2789689 -0.2864846 0.04927291 0.23690112 0.23279947 0.57052046 -0.12483285 0.11879365 -0.2831922 0.55308264 -0.3011317 -0.19479561 0.19770636 -0.15159175 0.12672538 -0.18133678 -0.04467285 0.027283642 0.32238388 0.07386963 0.109094344 -0.10085391 0.37268892 -0.064662404 0.35595408 -0.22333214 0.21170959 0.09309629 0.5344146 0.44752023 0.082106516 -0.2572755 0.18379179 0.21234618 0.14392108 -0.036873672 -0.0323303 0.028710516 0.57036686 -0.118294984 -0.18418983 -0.047071736 -0.18543012
れる 0.36476755 -0.20378584 0.052509867 -0.15412714 -0.48278278 -0.21549188 -0.22098933 0.5120633 -0.044516683 -0.46484676 0.1749826 0.047030713 0.30588153 -0.06364811 0.039171934 0.18061806 0.06765022 -0.025080653 -0.3906678 -0.14074534 0.08300514 0.12798 0.11527297 -0.20564245 -0.26623917 -0.59469706 0.23322795 0.29714152 -0.3036337 0.047912177 0.21945037 0.21387942 0.5511579 -0.07945616 0.15764868 -0.27509683 0.60013527 -0.2915316 -0.25795048 0.19916311 -0.18921274 0.13100064 -0.17377397 -0.03766758 0.017009517 0.3415687 0.112128034 0.11432124 -0.12825987 0.4160639 -0.04975045 0.36718062 -0.1973846 0.21682788 0.09094747 0.51037127 0.44571033 0.050313618 -0.28165615 0.17275785 0.22371286 0.10745065 -0.027647836 -0.01453283 0.0451209 0.5475158 -0.102870576 -0.17519207 -0.04890037 -0.1499637
b 0.080254376 -0.19104955 0.3858384 -0.35805285 0.3011459 0.51319575 0.13406333 0.23509794 0.3995614 -0.36531818 -0.08707097 -0.030658428 0.28467837 -0.1335168 -0.1904926 -0.31593892 0.73505795 -0.2116898 -0.73809916 -0.017633418 -0.044123534 -0.2900652 -0.13837433 0.09321867 -0.52550614 -0.28790286 0.44414702 0.50858116 0.088038534 0.3721219 -0.010929384 0.123587854 0.07679441 -0.12269524 0.792116 -0.3721839 0.5133919 -0.10570308 -0.13430344 0.27854577 -0.19153723 -0.27240705 0.10810921 -0.31967753 -0.104641885 0.49309862 -0.5797734 -0.19453795 0.16924869 -0.20134275 -0.14026923 0.38916892 -0.3065361 0.77389014 0.45997012 0.16443269 -0.37236726 0.5101456 -0.18819562 -0.0767495 -0.0364261 0.5188599 -0.23946849 0.057831623 -0.14775053 0.63760746 0.002225213 0.15244567 -0.5523405 -0.24343511
A 0.064248085 0.02985466 0.19868489 0.02722813 0.5195264 0.16219741 0.008619854 0.22275174 0.30653274 -0.121723264 -0.04489022 -0.15730886 0.18178366 -0.28988636 -0.07149686 -0.025044603 0.18846546 0.23332067 0.09229852 -0.25230643 0.17161383 -0.46818024 -0.045196816 -0.10580664 -0.43278304 -0.2300128 0.13649398 0.19148983 0.45515555 0.63985056 -0.117553525 -0.08170743 0.25883847 0.34275496 0.6562437 -0.14110136 0.17979182 -0.14013873 0.26715684 0.30853096 -0.0062767398 -0.28825226 0.1219131 -0.08620219 -0.20130326 0.2996601 -0.3112902 -0.15845561 0.19907756 -0.23405395 -0.22667755 0.2141415 -0.17203124 0.540383 0.51934886 0.0030043067 -0.06977655 0.88591325 -0.30276886 -0.46895915 0.041871823 0.029228974 0.0062948656 0.45152822 0.04088734 0.3973271 0.08075948 -0.32520798 -0.620783 -0.23878416
[ 0.21035714 0.0061796797 0.06827577 -0.0009656327 -0.15740176 -0.06557781 -0.19038747 0.32905495 -0.046541728 -0.23385134 0.14116852 -0.028047644 0.34587368 -0.16002288 -0.030391326 0.18345417 0.020773912 0.034418948 -0.094902344 0.0034491052 0.21377714 -0.19565074 -0.063191794 -0.17243977 -0.2423509 -0.33702642 0.13662781 0.13931857 0.16791871 0.13835211 0.2063021 0.035735354 0.4525951 0.123584285 0.15636349 -0.03592775 0.34399033 -0.24244717 -0.06920361 0.19532163 0.09422388 0.047559693 -0.004340524 -0.20332116 0.008271566 0.24109295 0.14937495 -0.12487871 -0.115506455 0.19695902 -0.13312288 0.25083402 -0.19424798 0.29883435 0.25432602 0.29384187 0.3632787 0.24134637 -0.32934982 -0.056304812 0.15583567 -0.14742078 0.09702604 -0.022459378 -0.03180546 0.31869936 -0.0762731 -0.29310986 -0.15732813 -0.22802278
/ 0.15456045 0.10444874 0.08309449 0.007125899 0.14102817 0.11411175 -0.12014337 0.13911432 0.059085682 -0.23456468 0.088536136 -0.07355129 0.1974182 -0.21930163 -0.10402952 0.03956567 0.08668247 0.1698454 -0.055429514 -0.05723628 0.096870966 -0.29186702 -0.18661982 -0.09048266 -0.31898946 -0.27615455 0.10037103 0.20316778 0.2513534 0.3478223 0.0040221848 -0.013709261 0.24462704 0.2145314 0.43775943 -0.144178 0.1355667 -0.19247353 0.061004695 0.20881854 -0.1112345 -0.11798433 0.03566333 -0.09942333 -0.13653272 0.17184187 -0.009459601 -0.15044919 0.08701899 -0.012644564 -0.13982905 0.24083969 -0.24410655 0.18441767 0.39543632 0.13930817 0.093205914 0.58010715 -0.2420246 -0.3083432 -0.0062604616 0.011263722 0.04243342 0.13778915 -0.08838992 0.27798867 -0.029349932 -0.24616167 -0.29446915 -0.22900976
する 0.35975266 -0.16501853 -0.0026073118 -0.103566095 -0.5176565 -0.18027967 -0.21305746 0.43025273 -0.05637304 -0.45372912 0.1698438 0.04282907 0.26423427 -0.086429685 0.011049471 0.18706273 0.056530334 0.030229168 -0.36456883 -0.13048345 0.05470891 0.124846816 0.07047096 -0.16256732 -0.3048996 -0.5181549 0.1587404 0.29259634 -0.28550002 0.012245831 0.21706109 0.18260129 0.5395962 -0.09286543 0.11642769 -0.25019225 0.5340891 -0.29944956 -0.22811255 0.1603468 -0.10022515 0.11624532 -0.140411 -0.027900537 0.011721803 0.28424144 0.18028879 0.084426925 -0.114328556 0.3833887 -0.07509841 0.3129297 -0.23714459 0.21136191 0.11760481 0.48415387 0.45792252 0.08310382 -0.29749742 0.13499595 0.14063853 0.10727271 0.008755389 -0.0628573 -0.014928082 0.4918989 -0.08080438 -0.18022273 -0.09573535 -0.19314645
5 0.23013596 0.22322485 -0.048857138 0.28616047 0.13982241 -0.12465526 -0.27084726 0.3569669 0.014797411 -0.13792378 -0.020420412 -0.15950507 0.32181078 -0.20741163 -0.06605724 0.22489825 -0.30374786 0.13422419 0.16997068 -0.03894494 0.32564014 -0.28722885 -0.22802044 -0.28108883 -0.3638921 -0.29751894 -0.1339607 -0.056378186 0.52845305 0.44001183 0.12699048 -0.12404383 0.41572 0.5012541 0.31988138 0.08248628 0.1401711 -0.3319825 0.1336191 0.25138104 0.19309728 0.0040530516 0.061242558 -0.31147394 -0.16194344 -0.037793286 0.2620181 -0.35731325 -0.08029316 0.050624654 -0.31938186 0.26686153 -0.15356705 0.28781176 0.47791633 0.17095302 0.36459002 0.61624545 -0.4739746 -0.46322826 0.2197639 -0.4593105 0.11804019 0.044827558 0.046782944 0.08881417 -0.02781935 -0.6062885 -0.35037202 -0.33833775
こと 0.42982513 -0.22157274 0.006521211 -0.1734644 -0.58284104 -0.23674816 -0.21484272 0.5405497 -0.06429623 -0.53926516 0.18169378 0.10393194 0.3310745 -0.04823858 0.037712395 0.2671757 0.072806746 -0.018285565 -0.47633827 -0.18722092 0.064199254 0.21514557 0.20397517 -0.2111446 -0.3164059 -0.6099561 0.2098096 0.2988606 -0.3938375 0.0039374884 0.2365216 0.27161223 0.6155337 -0.120541885 0.12586492 -0.3080304 0.65544134 -0.34933108 -0.27048868 0.179984 -0.21630418 0.16036296 -0.21287324 -0.015709857 0.023797914 0.34162724 0.089419976 0.13596494 -0.1053481 0.4244123 -0.061084244 0.40001503 -0.22517857 0.23702055 0.0654932 0.60852855 0.4843314 0.037939165 -0.30786327 0.24673949 0.19745694 0.16192292 -0.009030781 -0.058660388 0.051811434 0.619637 -0.1428972 -0.15583555 -0.03719194 -0.12849572
引用 0.38733515 -0.08858653 -0.057003096 -0.17081986 -0.50848705 -0.17779924 -0.19006898 0.3769987 -0.1291977 -0.5747313 0.2331404 0.059085187 0.35162687 -0.16397835 0.06590946 0.15497899 0.11438416 0.086617075 -0.3733086 -0.12296619 0.005801872 0.070176385 -0.008934035 -0.18464503 -0.31117973 -0.50517 0.22544546 0.281866 -0.27274868 0.044199225 0.21983413 0.16482514 0.5777373 -0.082993776 0.08876964 -0.3051131 0.5169615 -0.26203504 -0.26384783 0.17032592 -0.10466564 0.11599796 -0.12979871 0.031923 0.0698879 0.23535602 0.22018467 0.055245906 -0.041996244 0.42217854 0.018553242 0.37308985 -0.22500086 0.17775054 0.14505917 0.52910423 0.48657703 0.10053029 -0.3073467 0.15331133 0.1848368 0.10103523 0.017758774 -0.14178269 -0.035476156 0.43479782 -0.063565105 -0.19848014 0.07705401 -0.17216632
“ 0.2475177 0.37912193 -0.0007752398 0.045985997 0.19077529 0.008644449 -0.18713467 0.20851019 -0.0057190936 -0.3166759 0.061313737 -0.19364016 0.37043023 -0.3233157 -0.121574864 -0.054506414 -0.029149374 0.19670333 0.039092455 0.23245488 0.19434531 -0.43817842 -0.32946303 -0.2992256 -0.37984183 -0.31955853 0.13264146 0.12033496 0.48468202 0.4900018 0.029931577 -0.12097366 0.36978966 0.3114667 0.2679234 -0.09581517 0.13794395 -0.3045153 0.0073707 0.33205768 0.010596339 -0.11581082 -0.00089725276 -0.121820696 -0.28920653 0.037698418 0.2040631 -0.43886885 -0.009288596 -0.053774763 -0.09430533 0.38400546 -0.3307851 0.2322801 0.40550447 0.254711 0.14466965 0.60425854 -0.51110464 -0.35913622 0.20187113 -0.23981224 0.11101331 -0.0032916793 -0.024815062 -0.033947837 0.023782935 -0.49380067 -0.08886651 -0.24587354
アルバム 0.36533687 0.084734015 -0.05896466 0.109988265 -0.24260406 -0.09092925 -0.29973367 0.35390836 -0.04331969 -0.3370301 0.09072001 -0.07916236 0.29035604 -0.15439032 0.02276496 0.22590333 -0.20052378 0.17656289 -0.03768545 -0.11393488 0.15164609 -0.1855131 -0.14359048 -0.15673152 -0.3099826 -0.268127 0.010407358 0.019323234 0.11418182 0.23559964 0.1638423 0.03321352 0.53148466 0.27170473 0.23590603 -0.09399853 0.25852478 -0.34123343 -0.06277827 0.09399751 0.1516407 0.095349826 -0.06257341 -0.12943846 -0.04646193 0.05441238 0.26531863 -0.16972843 -0.11235646 0.2842498 -0.10103371 0.16862981 -0.18848737 0.14064442 0.2113651 0.22847714 0.42178324 0.31831068 -0.3600839 -0.2424797 0.1226812 -0.30717155 0.10024738 -0.030972205 0.030472351 0.2379063 -0.024240304 -0.34074062 -0.09904132 -0.30220497
9 0.19463108 0.18930478 -0.006359533 0.271781 0.36015368 -0.010732777 -0.23226319 0.3276696 0.09688346 -0.12917505 -0.12014047 -0.2326225 0.28915533 -0.21536419 -0.12144997 0.19127949 -0.23581107 0.14622407 0.22508824 -0.110941425 0.2958396 -0.3381724 -0.21638733 -0.25868976 -0.42794922 -0.29280528 -0.10136127 -0.06326114 0.6579349 0.60332805 0.03011491 -0.101395376 0.37080452 0.5140561 0.4781995 0.06849656 0.11533216 -0.25163013 0.18644716 0.31591374 0.16911377 -0.09017189 0.06595239 -0.25582537 -0.2539677 0.034327425 0.052329734 -0.3697774 0.013730441 -0.06620392 -0.36221522 0.30117518 -0.19175464 0.3413376 0.5250874 0.07776671 0.20752183 0.7785544 -0.43635792 -0.58248657 0.20302495 -0.3863192 0.09250419 0.21001557 0.08911914 0.17316604 -0.026571782 -0.6046696 -0.52161324 -0.2667666
: 0.23527195 0.21023302 -0.04085068 -0.13940889 -0.30662677 0.0832465 -0.36784056 0.28480417 -0.124750584 -0.2165629 0.27704838 -0.13035886 0.5231296 -0.40158907 0.089030534 -0.14650881 0.27373496 0.32092276 -0.1776304 0.13600525 -0.11786735 -0.28757814 -0.5152327 0.07510136 -0.39389405 -0.15612125 0.08751506 0.19940798 0.059648834 0.1292058 0.13043745 -0.100467995 0.49535975 -0.013843073 0.29393157 -0.13223575 0.27212074 -0.2937284 -0.18726018 0.09928853 0.06663996 0.075803496 0.09976715 -0.074715555 -0.1140663 0.036915988 0.5983102 -0.1356523 -0.06605837 0.04123542 0.19534718 0.1200294 -0.10474374 0.3294801 0.42359313 0.043826636 0.36426395 0.40920424 -0.53149 -0.2719721 -0.12402834 0.15100515 -0.009478647 0.0071714744 -0.11753461 0.04037405 0.08755665 -0.1486637 -0.2764115 -0.57663345
… 0.23006588 0.44184428 0.008604673 -0.14742392 0.25808775 0.16777371 -0.06940591 0.09580235 0.08479558 -0.55903953 0.14193626 -0.1934272 0.3752522 -0.46968052 -0.13862409 -0.23455948 0.19780824 0.16287673 -0.01151144 0.23471649 0.078972325 -0.554939 -0.35725924 -0.31652024 -0.421965 -0.43442908 0.32566622 0.27603543 0.3244269 0.5947725 -0.00739283 -0.071278915 0.33180952 0.2924773 0.38507047 -0.31238917 0.13453846 -0.32818866 -0.08044931 0.4076899 -0.061582167 -0.2166211 0.025901943 0.031355955 -0.22665818 0.0785227 0.021193549 -0.43655157 0.08439596 -0.12645122 0.03973982 0.50493866 -0.43551457 0.2250694 0.40924156 0.3396227 -0.0618324 0.80668193 -0.37904322 -0.29165676 0.19815855 -0.01785943 0.11732911 -0.055609316 -0.12480653 0.12835221 0.006830581 -0.32927012 0.07165252 -0.27218464
曲 0.34481806 -0.035656918 -0.06121796 -0.020906476 -0.26458392 -0.19818772 -0.25073817 0.39534923 -0.027817529 -0.3311417 0.16439436 0.05579842 0.23910603 -0.11609709 -0.025259564 0.19006866 -0.04530627 0.101136476 -0.08390183 -0.12433589 0.1571823 -0.07972425 0.048958987 -0.21369958 -0.27268398 -0.4487449 0.1393712 0.11045343 -0.023365304 0.14374541 0.23576446 0.13614583 0.5388567 0.14989287 0.23158637 -0.1696667 0.42807254 -0.29459214 -0.044884823 0.16240467 -0.03219578 0.10226146 -0.076013364 -0.09572766 0.039869558 0.26230657 0.083978586 0.009720524 -0.0631985 0.3412208 -0.1065345 0.2897911 -0.22354148 0.18626915 0.09445905 0.42180184 0.4996513 0.18536212 -0.29764488 0.013395313 0.22725587 -0.103446715 0.07772749 0.009698838 0.062466647 0.42773026 -0.104581155 -0.2652744 -0.049307358 -0.18918297
& 0.064068414 -0.07860965 0.17976555 -0.10801259 0.30520517 0.064802915 0.018848307 0.22223517 0.200376 -0.23012735 0.042779256 -0.070098795 0.076317914 -0.1707112 -0.0745781 0.030850975 0.29392835 0.19175853 -0.06321985 -0.36096615 0.051356032 -0.3342962 0.030309215 0.017317425 -0.38715523 -0.28247833 0.09002168 0.3375973 0.086262 0.36302844 -0.16264386 -0.06549894 0.21759522 0.17420654 0.640305 -0.27816224 0.20830232 -0.12285693 0.20187047 0.25350928 -0.08120519 -0.2850247 0.093751915 0.04702651 -0.15963073 0.38476065 -0.24272421 -0.017614491 0.17351517 -0.13837314 -0.18536955 0.18953313 -0.16097653 0.3368144 0.37267464 0.05750378 -0.043537922 0.7031698 -0.19091575 -0.34981713 -0.037999533 0.17830954 0.049039613 0.4175786 -0.013529729 0.5291405 0.04085269 -0.25387445 -0.5244417 -0.19449106
シングル 0.27053303 0.053655315 -0.038641304 0.033786103 -0.123019025 -0.084788665 -0.19937302 0.32334036 -0.032975297 -0.306538 0.111231975 -0.05346707 0.251612 -0.13362448 -0.007414014 0.13046049 -0.04231335 0.107980944 -0.036298867 -0.08424775 0.1322915 -0.17082109 -0.08600937 -0.15583311 -0.2990552 -0.31603214 0.0809864 0.12033702 0.10151825 0.20006035 0.13692401 0.01602282 0.4457142 0.20535727 0.21799733 -0.14537351 0.28123784 -0.28611284 -0.0672864 0.15059125 0.010554134 0.0644431 -0.025385514 -0.093257844 -0.0116058765 0.15974225 0.14674114 -0.11901297 -0.03650882 0.21012583 -0.104915485 0.23701249 -0.22329728 0.19286504 0.21953923 0.2707324 0.30508208 0.28563 -0.29574817 -0.14244333 0.09963296 -0.13791506 0.07049144 0.023778893 -0.012845026 0.2578441 -0.019122874 -0.28864145 -0.105053395 -0.24406987
な 0.31999138 -0.06027578 0.04555545 -0.095376916 -0.26000446 -0.12528002 -0.18184908 0.36353332 0.0048310733 -0.35402617 0.053497948 0.02288745 0.24825703 -0.08577285 0.01935109 0.11758397 0.042666927 0.039466295 -0.21060589 -0.14561355 0.10289611 -0.011462018 0.01625451 -0.15584058 -0.2961094 -0.43278745 0.1635056 0.19332738 -0.045042165 0.11761999 0.15654159 0.16385727 0.4322297 0.036048844 0.23192328 -0.17222063 0.47373205 -0.2599852 -0.10999913 0.18321195 -0.12065783 0.0746565 -0.12834048 -0.09686832 0.020396356 0.26890308 0.013662257 -0.033111826 -0.032599267 0.25719628 -0.09568868 0.3127062 -0.20570652 0.22218317 0.11756631 0.38840675 0.34465787 0.1853858 -0.263791 0.041395277 0.19571766 0.038420428 0.023464974 0.023429971 0.062314313 0.40965977 -0.09870644 -0.18768223 -0.07779901 -0.13586433
いる 0.41388333 -0.22073099 -0.052360024 -0.04262772 -0.5304731 -0.25082624 -0.26965788 0.51839495 -0.06410407 -0.493782 0.1903341 0.13510977 0.31339118 -0.008110167 0.02334442 0.2589251 -0.0045188656 0.04546216 -0.39413536 -0.16162746 0.1846079 0.14996697 0.12686017 -0.19708513 -0.26788968 -0.5981199 0.16053115 0.22894642 -0.24866968 0.039051563 0.28982764 0.29017115 0.6800344 -0.09474749 0.09794383 -0.30949596 0.5617088 -0.31624934 -0.13782874 0.20160954 -0.07963372 0.17925273 -0.153768 -0.036153283 0.04063201 0.3279116 0.12810999 0.1510246 -0.1363231 0.41857514 -0.121482894 0.36630198 -0.18955131 0.21053968 0.10604653 0.6002446 0.542788 0.052566335 -0.37386495 0.23534566 0.16926251 0.093765974 -0.0046344423 -0.036431868 -0.025257863 0.5738013 -0.12859352 -0.23019786 -0.04522105 -0.21837519
^ 0.24021117 0.24121125 -0.05116809 0.11532247 0.13355018 -0.048776817 -0.25057623 0.33450863 -0.023389474 -0.20536648 0.03699662 -0.2183462 0.3907233 -0.22623713 -0.071380965 0.11943885 -0.108893886 0.17089218 0.026668245 0.17584117 0.21756871 -0.34561017 -0.30476928 -0.26573166 -0.37701854 -0.26006302 -0.005105851 0.028037434 0.49089116 0.40803134 0.0675732 -0.13231187 0.35269204 0.33850634 0.26700756 0.031815372 0.14252582 -0.29530582 0.023689711 0.24450809 0.18211271 -0.02605731 0.038228713 -0.26222038 -0.29058376 -0.022403948 0.35159835 -0.3571371 -0.074664034 -0.0702533 -0.17442322 0.29212478 -0.22793686 0.3600542 0.4672217 0.19295731 0.26671162 0.5759303 -0.56162584 -0.382689 0.14057374 -0.2931787 0.12640646 0.05225924 0.019021036 -0.006092955 0.00841667 -0.5623635 -0.27391016 -0.35336077
符 0.2785805 -0.09999394 -0.0042575314 -0.14350641 -0.3886196 -0.13799706 -0.20479982 0.32723382 -0.06530766 -0.4488815 0.23366937 0.034593593 0.29248276 -0.18643486 0.01650035 0.12245086 0.15155782 0.0778556 -0.31828222 -0.16947414 -0.020298433 0.058736566 -0.031248784 -0.095134914 -0.2955788 -0.4064189 0.1931094 0.28972232 -0.20571318 0.06661598 0.17805782 0.12539127 0.5185873 -0.055054653 0.20879973 -0.2680977 0.45413882 -0.2284964 -0.22827914 0.13752958 -0.13128468 0.0888289 -0.100636244 0.021926697 0.036379162 0.22982346 0.13919327 0.02690652 -0.032135308 0.28323442 0.008589222 0.28128427 -0.17089702 0.20706247 0.16003357 0.368832 0.38006848 0.15875976 -0.26305717 0.065122195 0.07944989 0.13315575 -0.027011016 -0.061958138 -0.059722926 0.41693684 -0.05507147 -0.13458554 -0.07493755 -0.20323896
\ 0.09863262 -0.08997269 0.3348592 -0.23228699 0.4582685 0.4886507 0.07112899 0.23832029 0.40734002 -0.28562176 -0.1418552 -0.091931745 0.31656787 -0.21342419 -0.17334057 -0.26604828 0.622387 -0.13685231 -0.56362945 0.01804495 0.013889104 -0.46452528 -0.14383118 0.020182213 -0.56729007 -0.2509665 0.3487738 0.4217533 0.31073797 0.5043799 -0.027045093 0.027121231 0.08041266 0.028918382 0.84495866 -0.30124545 0.39467534 -0.116593525 -0.032949474 0.28096652 -0.12852523 -0.28111854 0.17262276 -0.3141012 -0.17624211 0.44645545 -0.5262549 -0.3028877 0.16695504 -0.29694864 -0.15682703 0.36561042 -0.3060019 0.7915087 0.51374143 0.06992335 -0.36751398 0.6635849 -0.27464575 -0.26470143 -0.010684695 0.35184273 -0.17958361 0.18053445 -0.12468446 0.52641404 0.0734014 0.026881618 -0.6548029 -0.25481477
< 0.15882082 -0.14134286 0.25860742 -0.2590956 0.1795181 0.32775342 0.0492705 0.22587003 0.25436223 -0.32294443 -0.08774517 -0.0060901884 0.26639846 -0.09770786 -0.11294905 -0.18971805 0.49799713 -0.16512954 -0.5377003 -0.007982037 -0.0016483946 -0.21188256 -0.08269033 -0.0019479371 -0.41746083 -0.2980844 0.34476185 0.40270272 0.06703782 0.283655 0.009437383 0.13651027 0.13092794 -0.038812168 0.5949649 -0.24972054 0.42955798 -0.10857927 -0.08775395 0.22500949 -0.16289598 -0.1364663 0.062163807 -0.2297482 -0.06867738 0.3533538 -0.41114447 -0.17865874 0.088672474 -0.08318902 -0.122943774 0.3447059 -0.23761728 0.58633643 0.3502406 0.1946513 -0.19279589 0.41636 -0.18747258 -0.08433529 0.034206282 0.3011588 -0.13985792 0.04748731 -0.10269943 0.49820623 -0.02738801 0.076812096 -0.406103 -0.19640608
として 0.32332763 -0.14728579 0.022145227 -0.08330984 -0.40984893 -0.17285322 -0.2125976 0.45717424 -0.03418975 -0.43181255 0.17114034 0.07409916 0.2379879 -0.0865448 -0.0021326917 0.18159612 0.06502591 0.05059587 -0.33251452 -0.15286519 0.084583245 0.067755535 0.06967417 -0.1657548 -0.26498154 -0.4924322 0.14997448 0.24742547 -0.24024253 0.040682413 0.20620617 0.18246515 0.5229277 -0.04595264 0.16772968 -0.26355064 0.48170406 -0.27447978 -0.15085927 0.18451272 -0.11012221 0.08671562 -0.12072294 -0.020320218 0.008160855 0.3074857 0.09327107 0.030722292 -0.09260004 0.31722862 -0.0812687 0.3221501 -0.21464452 0.22925831 0.10653196 0.44494283 0.42025676 0.114302896 -0.27814746 0.10758412 0.16276707 0.08957587 -0.021771185 0.008166302 -0.007036532 0.49493837 -0.10127534 -0.1892113 -0.10914786 -0.21401228
など 0.31629312 -0.12133283 0.016103433 -0.10639483 -0.38354748 -0.12098583 -0.18256949 0.3818272 -0.009614478 -0.4327867 0.16569193 0.04252684 0.24604134 -0.11458335 -2.521911e-05 0.14299256 0.08003642 0.010682001 -0.32623026 -0.12623553 0.050933983 0.047341075 0.054457415 -0.1667445 -0.26143408 -0.4547675 0.16265042 0.25623322 -0.19878016 0.07362077 0.14552368 0.1500279 0.46375352 -0.05119907 0.18146273 -0.25178725 0.43116334 -0.28385508 -0.20097949 0.15189591 -0.12115644 0.07869797 -0.091078736 -0.03607184 0.039807618 0.25540325 0.09876965 0.016931187 -0.06653611 0.31663918 -0.04573563 0.2949343 -0.21285756 0.1850941 0.14085424 0.40277722 0.3364598 0.13318285 -0.2531903 0.09143546 0.13093211 0.088096984 -0.0058453684 -0.05644006 0.007160353 0.43000504 -0.07962271 -0.15657832 -0.06906951 -0.18339883
移動 0.37639785 -0.18786637 -0.17026636 -0.32623735 -0.9001853 0.18673757 -0.18646704 0.48622304 0.05281501 -0.59411216 0.5122749 -0.033828743 0.44929904 -0.62397486 0.2589406 -0.14168838 0.33188102 0.5461533 -0.81233346 0.2607587 -0.07547914 -0.43542892 -0.63469124 0.05272789 -0.4472986 -0.30720845 0.061497107 0.3564159 -0.4273133 0.024600849 0.31755105 -0.09219139 0.5089273 -0.31992483 0.1817927 -0.47771454 0.54972017 -0.25853175 -0.5358297 0.17060852 0.41150445 0.18427737 -0.109021075 0.100884326 -0.1777478 0.16611172 0.8006206 -0.22883134 -0.40432492 0.4404369 0.3381471 0.109391384 -0.33899182 0.38628075 0.33871502 0.22158986 0.60677135 0.21678467 -0.4202966 0.091805056 0.018208254 0.3370742 0.21105695 -0.0052645244 -0.4398366 0.19956186 0.023759559 0.029754864 -0.1995343 -0.7596442
7 0.18880373 0.0810376 0.049386483 0.17169045 0.20671083 0.022807494 -0.14731933 0.30493903 0.11833984 -0.12323572 -0.04350709 -0.14921677 0.25172496 -0.21308006 -0.057116378 0.15313005 -0.10531115 0.16412656 0.06556898 -0.099416435 0.24141361 -0.30181125 -0.11560734 -0.17449532 -0.37710723 -0.23801525 -0.034793265 0.0636417 0.40182 0.43337968 0.024599735 -0.10663132 0.31167644 0.3559769 0.4127001 -0.02787977 0.12270371 -0.22683173 0.13706045 0.23536396 0.1496156 -0.067560725 0.051275816 -0.20210935 -0.18035607 0.09461538 0.056715686 -0.25491032 0.0026774886 -0.025526797 -0.2389026 0.19495884 -0.11426518 0.34996238 0.4284892 0.063309155 0.15603732 0.6315776 -0.3262075 -0.42794356 0.12889935 -0.21877885 0.053931985 0.18092147 0.025596086 0.22070244 -0.012854951 -0.42997235 -0.46731594 -0.30036688
” 0.24833654 0.40825278 0.022402368 -0.0023404232 0.33207476 0.071537174 -0.14506587 0.1616293 0.031582493 -0.41018724 0.040983003 -0.22826767 0.34789607 -0.33671558 -0.119867 -0.109950475 0.04844386 0.17583448 0.12231173 0.10699657 0.09420777 -0.51637286 -0.3169478 -0.30403274 -0.37702867 -0.34737614 0.16708301 0.15990281 0.48099315 0.55799615 -0.020109173 -0.03815673 0.33315402 0.4165823 0.43306112 -0.13836078 0.18501674 -0.27164763 0.019807436 0.3724441 -0.055348113 -0.14777033 0.011798353 -0.07555927 -0.22405604 0.08226044 0.020732984 -0.38701174 0.10593353 -0.09663619 -0.091965795 0.41197684 -0.3676094 0.2720824 0.38282678 0.2574594 0.101601444 0.7508068 -0.38859546 -0.3702556 0.17748988 -0.16871974 0.10989848 0.037411626 -0.014203484 0.09321066 -0.019651342 -0.34933004 -0.06541575 -0.18993455
から 0.28698298 -0.09831296 -0.053435836 -0.051188193 -0.39144626 -0.075778365 -0.22305612 0.40139323 -0.01840736 -0.3659691 0.16446202 -0.00618567 0.2728594 -0.17086923 0.047249697 0.14974397 0.0051309196 0.1342826 -0.29846153 -0.08527173 0.11256297 -0.055040084 -0.07179676 -0.0820401 -0.3228157 -0.3702177 0.0991647 0.18416336 -0.15747611 0.10679078 0.16763955 0.087967284 0.51956564 -0.036012456 0.14125986 -0.24111366 0.39762294 -0.26554462 -0.15731035 0.13266514 0.058328286 0.116148375 -0.07148395 -0.03763894 -0.0213299 0.20945564 0.23499334 -0.011406658 -0.112880416 0.29522958 -0.053901102 0.22642161 -0.18369596 0.19714402 0.17752868 0.33462653 0.41364542 0.15894961 -0.3011944 -0.0027549688 0.09781924 0.020669403 0.050823905 0.034675434 -0.052923407 0.36647606 -0.0689336 -0.21009381 -0.14320333 -0.29121414
や 0.3035918 -0.124700084 0.008681931 -0.10834715 -0.29655635 -0.10799899 -0.16968454 0.3437125 -0.013914181 -0.40359774 0.14754538 0.021191383 0.24214016 -0.104572475 -0.03395801 0.1532723 0.07858879 0.02963189 -0.30622736 -0.12670471 0.060820293 0.030973826 0.04708168 -0.15960412 -0.28280148 -0.46226686 0.18347529 0.23563808 -0.15999188 0.09874879 0.15884003 0.16271977 0.4588585 -0.045077223 0.16921075 -0.2579547 0.41331312 -0.26825583 -0.15836178 0.161812 -0.11193338 0.053544942 -0.08628179 -0.02857654 0.021411438 0.24590604 0.07399965 0.026779221 -0.057199176 0.26172274 -0.09351205 0.29321223 -0.1881957 0.22400941 0.17242923 0.39567855 0.33219308 0.18803954 -0.24397361 0.07549114 0.13401844 0.070177644 -0.031378925 -0.021333091 0.011959853 0.4481726 -0.09656387 -0.17774637 -0.10319084 -0.16325781
!!! 0.1394892 0.080013774 0.007124275 -0.085177466 0.012306569 0.16606426 -0.14644524 0.13722023 0.044515576 -0.25807732 0.17865084 -0.097997144 0.24371059 -0.2376277 -0.059014775 -0.02312285 0.22948541 0.21266 -0.15250936 -0.01181027 0.081313595 -0.29096583 -0.2982118 -0.04123777 -0.33519214 -0.23885314 0.07391659 0.21224047 0.12731183 0.247553 0.007829182 -0.016930703 0.28810778 0.1241176 0.33870107 -0.17935216 0.23510401 -0.1772922 -0.012654364 0.17442685 -0.04189721 -0.03611235 0.043996964 -0.10418352 -0.1503419 0.17229287 0.07370977 -0.15544625 -0.042686973 0.0672625 -0.028933713 0.16289386 -0.19427547 0.24374174 0.33739963 0.16236731 0.20106204 0.44967425 -0.20823579 -0.19109222 0.030279847 0.09192348 0.06061981 0.15172984 -0.18248405 0.26899475 -0.0009813316 -0.15823172 -0.27298066 -0.35576764
場合 0.3466475 -0.15176295 0.010314377 -0.104232766 -0.50471294 -0.1472278 -0.20777762 0.42292967 -0.029594012 -0.47343722 0.17683217 0.04420536 0.27415183 -0.10959177 -0.00024009665 0.17886643 0.08434271 0.03330671 -0.3644372 -0.13400851 0.03014275 0.11675754 0.078747846 -0.17353466 -0.2808702 -0.49399754 0.17086059 0.2729453 -0.2902859 0.028639233 0.20610015 0.18006755 0.5139948 -0.0936115 0.12432039 -0.28310737 0.524726 -0.3011794 -0.24127719 0.13777687 -0.13593246 0.122071415 -0.12844306 -0.020804903 0.050136946 0.2656019 0.12943263 0.05981843 -0.09408567 0.38528055 -0.03979957 0.33151197 -0.22357452 0.17800222 0.1132506 0.471177 0.42907083 0.07299904 -0.2519528 0.14402473 0.17017518 0.09769016 -0.014082419 -0.048534967 -0.02120149 0.46773487 -0.102427095 -0.1709408 -0.037344053 -0.17365144
2008 0.28866318 0.16598266 -0.13599281 0.18425487 -0.05140569 -0.038956814 -0.29472834 0.36280447 -0.034709435 -0.20987938 0.0926341 -0.15354058 0.33963403 -0.21738058 0.020924555 0.21341167 -0.22248262 0.16279866 -0.03492264 -0.023728883 0.17799357 -0.245871 -0.30463848 -0.19923213 -0.3701963 -0.21967065 -0.1497468 -0.0304976 0.33763778 0.30767125 0.14464058 -0.10876333 0.48733532 0.34764218 0.27610052 0.019152457 0.10469992 -0.3218237 -0.008316617 0.16928999 0.22919993 0.08710498 0.05457162 -0.20899446 -0.1702373 -0.07963359 0.39450112 -0.29506722 -0.15021573 0.10192359 -0.16407606 0.16930906 -0.11175539 0.22680816 0.39655063 0.06616312 0.33556235 0.53705895 -0.41101626 -0.36760098 0.121351466 -0.40569168 0.09027752 -0.021358013 -0.040993363 0.13083139 -0.021393199 -0.50155544 -0.34114057 -0.38833565
この 0.33132282 -0.10008133 -0.04058433 -0.02262924 -0.45295364 -0.18248229 -0.2645413 0.48187515 -0.04586294 -0.42381322 0.23218417 0.07267379 0.31358844 -0.12180928 -0.018833306 0.18876365 0.006640301 0.045502808 -0.25931868 -0.12514511 0.11958466 -0.0108804675 0.03518515 -0.18788932 -0.24996606 -0.4977053 0.13173273 0.19125691 -0.16583562 0.09753174 0.26268312 0.14185293 0.56717926 0.005164925 0.15491958 -0.1923081 0.47493395 -0.32790673 -0.16670881 0.1496335 -0.014998206 0.12777258 -0.10610203 -0.071011156 0.034028083 0.27549535 0.22657166 -0.00069532706 -0.117053844 0.35399806 -0.074601226 0.3184452 -0.2319421 0.17781237 0.10671973 0.40999615 0.49923077 0.1355824 -0.32516396 0.09175715 0.1795418 0.0010629402 0.022393044 -0.06255721 -0.010000556 0.41082722 -0.087480664 -0.2591051 -0.05143792 -0.27811047
8 0.19152232 0.10230661 0.06086689 0.10578586 0.28571075 0.025806326 -0.118376635 0.28587472 0.121709876 -0.13372205 -0.023052672 -0.1623622 0.24573222 -0.23302804 -0.066628255 0.10794729 -0.013432688 0.17309202 0.087848626 -0.105726145 0.22808711 -0.34641668 -0.15742342 -0.1513346 -0.4077744 -0.2170644 -0.004333325 0.08491927 0.4270172 0.46188298 0.0042065294 -0.105699055 0.29957202 0.3510562 0.46284655 -0.034195855 0.14383523 -0.20831588 0.13403632 0.26089537 0.07652815 -0.10309965 0.08721886 -0.17540362 -0.16261198 0.14160678 -0.0125917895 -0.26167315 0.03778614 -0.10614155 -0.21260741 0.20864947 -0.13308197 0.35941538 0.45726374 0.054456748 0.13405159 0.6590731 -0.36399287 -0.41298896 0.09460584 -0.18985465 0.045341514 0.22417738 0.022200147 0.24673925 0.018554054 -0.4229595 -0.4707389 -0.29328483
リリース 0.2687591 0.027079057 -0.09726728 0.117879674 -0.17268717 -0.1167419 -0.25910285 0.40190908 -0.058968037 -0.23472063 0.04700584 -0.060617704 0.27445093 -0.09648168 -0.02387812 0.24102272 -0.23028687 0.11997278 -0.052289777 -0.09576176 0.21904677 -0.09585414 -0.10668063 -0.18980221 -0.28865722 -0.29969132 -0.05965047 -0.0040282416 0.1473413 0.23560324 0.14927721 0.024497986 0.47977513 0.20376927 0.15366319 -0.054900102 0.21652374 -0.30013415 -0.01924581 0.12999551 0.16284831 0.069492616 -0.050334 -0.14182192 -0.0927111 0.04728116 0.25716725 -0.1662551 -0.10717725 0.21265435 -0.18001638 0.20942111 -0.15587781 0.21557832 0.25813085 0.19907168 0.4046955 0.33094728 -0.33542278 -0.23524833 0.14038004 -0.26721713 0.04920223 0.017620489 0.0201943 0.20734173 -0.030905241 -0.42458498 -0.19925116 -0.2841359
不等号 0.27593476 -0.09845232 0.070933156 -0.14412406 -0.22026674 -0.07690564 -0.12630498 0.31993783 0.03130423 -0.34502575 0.08796413 -0.024813382 0.24707083 -0.12064023 0.021051047 0.06808469 0.17768702 0.092689775 -0.24688804 -0.1631459 0.023572486 -0.050549585 0.009849706 -0.086599775 -0.29617792 -0.38126224 0.2067366 0.28214654 -0.124950334 0.12593506 0.08754182 0.16737716 0.3841108 -0.022831574 0.2641692 -0.19502212 0.46118554 -0.20592831 -0.14164785 0.19131942 -0.1270197 0.025814429 -0.10243801 0.009321041 -0.008167103 0.2835098 -0.0169604 0.0036926726 -0.020491533 0.20765336 -0.029680468 0.24750313 -0.20987378 0.23752692 0.16057001 0.3283123 0.2837946 0.1982056 -0.21085562 0.031203393 0.10988001 0.14856152 -0.007767591 0.10040995 0.03262745 0.41853845 -0.035371438 -0.07107472 -0.116874665 -0.14405522
' 0.19820623 0.033160664 0.012579822 0.005688998 0.00530505 0.03709447 -0.16325538 0.27414238 0.037701003 -0.25099698 0.035141226 -0.11939269 0.20698436 -0.21196371 -0.06710403 0.05607121 0.012979777 0.0785165 -0.13675576 -0.074843556 0.030374141 -0.22570594 -0.16638753 -0.10040702 -0.30917513 -0.28115505 0.060347002 0.17253126 0.15698591 0.2847945 0.012174057 -0.030060695 0.3339383 0.14780957 0.34587792 -0.14653067 0.15883479 -0.20061941 -0.0005660694 0.1503334 0.02858946 -0.056900784 0.047025654 -0.15238376 -0.11116258 0.13913459 0.0599397 -0.13517304 -0.030985093 0.08769306 -0.14599669 0.20961466 -0.2119665 0.26885286 0.32131845 0.13125278 0.12180132 0.42531195 -0.25230196 -0.23600455 0.02562575 -0.038965806 0.03574144 0.046689883 -0.051440705 0.24567162 -0.070341244 -0.22172982 -0.2754743 -0.30416393
日本 0.25522327 0.0021020886 -0.03154849 0.07052409 -0.104942076 -0.02895718 -0.19020312 0.3203369 0.011676997 -0.25175717 0.13942488 -0.044168472 0.25964138 -0.1539809 -0.014111611 0.13245581 -0.07101531 0.14474785 -0.10195659 -0.102957234 0.13487679 -0.14890248 -0.110903144 -0.14019017 -0.28081596 -0.29566294 0.041487485 0.08483027 0.09008208 0.21046309 0.0980825 -0.021428946 0.40842432 0.16505806 0.27182564 -0.12929307 0.22886398 -0.2839104 -0.03352811 0.12672725 0.033951715 0.063851155 -0.02111647 -0.101153925 -0.09094861 0.10658887 0.1626131 -0.15262856 -0.078693084 0.15283386 -0.14915377 0.2098773 -0.15703188 0.205201 0.26440743 0.22958682 0.30156893 0.35935298 -0.30008936 -0.18421613 0.11885258 -0.15137911 0.054843012 0.06563072 -0.04082841 0.26873338 -0.04506027 -0.33811548 -0.2456189 -0.28083438
THAN 0.08658547 -0.038036596 0.25002044 -0.1057714 0.37427035 0.18835644 -0.002481346 0.18722634 0.18810523 -0.15482761 -0.015268764 -0.14275084 0.110871576 -0.2606053 -0.12607878 -0.06580784 0.34774256 0.21699919 -0.102837704 -0.2053418 0.06127351 -0.36394486 -0.09261948 -0.04903419 -0.4120788 -0.27385706 0.07802305 0.28529933 0.30276147 0.42511213 -0.104087 0.026409885 0.15139553 0.25175354 0.57317835 -0.18257494 0.16232567 -0.060029764 0.18344659 0.2736174 -0.1266066 -0.26010603 0.13159874 0.0026538672 -0.17693429 0.35548002 -0.31148788 -0.15102877 0.1445716 -0.20279215 -0.18420736 0.13137893 -0.1326763 0.45110786 0.46315104 0.048125576 -0.13969299 0.7245761 -0.19974552 -0.26108804 -0.005597208 0.14167143 -0.010596708 0.42149675 0.009679019 0.5367593 -0.02323293 -0.18572694 -0.542364 -0.2546869
か 0.23577175 -0.10017508 0.16409507 -0.13015911 -0.051628124 0.0066464255 -0.0110243205 0.31171077 0.099039026 -0.26048464 0.05734264 -0.059566434 0.17385176 -0.083361715 -0.034839746 0.09041954 0.24248537 0.10254427 -0.25499183 -0.30768812 0.00809972 -0.13753937 0.12761302 0.026581915 -0.28729686 -0.32867506 0.1038957 0.326259 -0.056570943 0.21533424 0.014868591 0.10766778 0.27837998 0.05508112 0.41114986 -0.22034867 0.34609985 -0.15613985 0.015938487 0.2390846 -0.19643185 -0.05631738 -0.07325083 -0.00030466096 -0.090322055 0.38764828 -0.17628266 0.09316037 0.062391672 0.05686702 -0.12820964 0.1982231 -0.14999786 0.33201006 0.2787386 0.23084874 0.045463882 0.43874773 -0.17826341 -0.10826442 0.046623584 0.18104562 -0.024060398 0.2427414 0.055419818 0.56739223 -0.04340474 -0.0778964 -0.29443923 -0.13868484
作曲 0.16819829 -0.03659581 -0.031847876 0.100624055 -0.27540496 0.049699247 -0.33325386 0.2960776 -9.581006e-05 -0.31834584 0.34800518 0.05362401 0.100041665 -0.22159144 -0.11180161 0.118090376 0.09611018 -0.052859485 -0.13914822 -0.122875236 -0.012073967 -0.10469039 -0.113107845 -0.0972489 -0.24973479 -0.3541213 -0.03364045 0.13205507 -0.14942046 0.06979171 0.17314115 -0.03911318 0.276089 0.12645768 0.41180506 -0.29661638 0.26183656 -0.2658216 0.0033233198 0.18741477 -0.006916649 -0.057653807 0.09662807 -0.061804883 0.17167841 0.2998713 0.13703217 -0.049964193 -0.09839494 0.22667235 -0.13271794 0.21914244 -0.26192102 0.119090624 0.22891979 0.23908298 0.17565359 0.4779321 -0.24238692 0.016500117 -0.009556661 0.12340635 -0.051536724 -0.076907754 -0.1697358 0.37093776 -0.096277855 -0.33759242 -0.23303913 -0.31005862
] 0.232216 0.08584575 0.076791994 0.0417064 -0.009269382 -0.020469157 -0.16065978 0.29285234 -0.031768225 -0.20675837 0.12520576 -0.07920915 0.29846781 -0.22328794 -0.0782656 0.10428371 0.029122902 0.09199739 -0.07170028 0.027606662 0.2014992 -0.2956735 -0.18411696 -0.18031394 -0.2838546 -0.32471713 0.09744877 0.1518974 0.22507495 0.27294338 0.13705608 -0.04619605 0.38918656 0.18762681 0.2806773 -0.09867503 0.29906535 -0.2304775 0.007947905 0.18612652 0.075576045 -0.01009996 0.018926866 -0.19461685 -0.0474643 0.15211833 0.16388108 -0.17525493 -0.053588305 0.09071252 -0.13695283 0.1927709 -0.21987706 0.2927064 0.29156068 0.21085271 0.24348882 0.364957 -0.3374352 -0.20593877 0.12546161 -0.098482296 0.113928795 0.036761608 -0.07389082 0.24503808 -0.030290224 -0.31076118 -0.18606494 -0.31533694
文字 0.24925596 -0.005715421 0.09101682 -0.0722707 -0.1274278 -0.041317068 -0.10138859 0.29689577 0.07209338 -0.3380711 0.11264204 -0.003075433 0.2146382 -0.12282818 -0.02834672 0.07958093 0.12738362 0.053740066 -0.22385783 -0.115188815 0.05487241 -0.066197805 0.009793405 -0.14848813 -0.3155056 -0.3885871 0.17448632 0.2120035 -0.02669408 0.18818657 0.09712965 0.1605486 0.34900427 0.036849447 0.2945425 -0.20240815 0.38028964 -0.17572837 -0.10193254 0.16265048 -0.13211045 0.0027914862 -0.014758293 -0.061240114 -0.035226252 0.26952374 0.0026259169 -0.06491963 -0.019902317 0.13200258 -0.093009315 0.2629094 -0.19296186 0.26821563 0.23344754 0.3104924 0.24254754 0.30313888 -0.2627048 -0.015142316 0.1365767 0.08974485 -0.0022121798 0.069827005 0.05196785 0.3924167 -0.02725392 -0.13623776 -0.19316196 -0.1638011
使用 0.31420195 -0.010705321 0.04091279 -0.12405028 -0.15597855 -0.1424305 -0.15229982 0.31623995 -0.028329857 -0.38187674 0.045822527 -0.013014846 0.2430037 -0.05492529 -0.0010549212 0.060941584 0.10718162 0.061821874 -0.0995367 -0.16685203 0.08073677 -0.06312759 0.055315696 -0.1592372 -0.2944321 -0.42672 0.2393164 0.186014 -0.038867373 0.17051384 0.12601511 0.18400104 0.42803958 0.07785283 0.23330447 -0.16792323 0.4488994 -0.19398522 -0.09570519 0.21840176 -0.1643228 0.036412776 -0.11018793 -0.056713928 0.012373163 0.3080714 -0.0681971 -0.035085257 0.016804928 0.22973146 -0.07328806 0.2993908 -0.24363652 0.23518975 0.1162528 0.36618525 0.33374718 0.16316116 -0.23836483 0.020152647 0.20158757 0.043933287 0.009095024 0.048275497 0.08771056 0.39437148 -0.03860991 -0.12093776 -0.023485085 -0.03903444
作詞 0.14913166 -0.018410454 0.0039011762 0.0724594 -0.22111425 0.019595867 -0.29947978 0.27726623 0.012355221 -0.29245406 0.27751374 0.021352444 0.12865411 -0.19714849 -0.07525016 0.08515498 0.04313586 -0.003494639 -0.1341905 -0.1036214 0.029647538 -0.14974602 -0.13041455 -0.08408516 -0.28392825 -0.3123468 -0.005759986 0.14506295 -0.08717422 0.13705887 0.12397743 -0.07373586 0.2726476 0.16366845 0.381959 -0.28611967 0.26966968 -0.23071423 -0.017060488 0.15480092 0.0016822468 -0.08854287 0.06157574 -0.0698648 0.11110774 0.24514194 0.13339408 -0.07588648 -0.069109544 0.2065751 -0.10948162 0.22241545 -0.24870352 0.15260732 0.25669545 0.2406759 0.16290995 0.43469477 -0.2777182 -0.031063432 0.008123011 0.09770011 -0.042691328 -0.048469946 -0.15065697 0.34937567 -0.09473614 -0.32922575 -0.25228527 -0.33007896
脚注 0.25045216 0.17128472 0.035558667 0.0935369 0.013899801 -0.10534093 -0.21366368 0.29939038 -0.05386675 -0.21186243 0.08253535 -0.11325917 0.3640161 -0.23003821 -0.055455633 0.12316818 -0.07176788 0.13849522 0.07992384 0.007050226 0.2520572 -0.31397536 -0.16977645 -0.23980384 -0.30200416 -0.2955488 0.0468794 0.10154322 0.33559334 0.3131789 0.115534365 -0.057325054 0.41769168 0.31566098 0.3007747 -0.029103758 0.2786674 -0.25445256 0.039687183 0.21104546 0.063204154 0.028852137 0.008898597 -0.21498 -0.0654287 0.14602987 0.19724816 -0.22971834 -0.033800125 0.09445679 -0.1373094 0.2126698 -0.23400716 0.27721184 0.2960484 0.2581342 0.36106744 0.38203984 -0.41217464 -0.26653007 0.17462735 -0.24374875 0.1527708 0.04480497 0.015427876 0.18246011 -0.05882877 -0.39749676 -0.13678682 -0.3019986
より 0.26351362 -0.14800595 0.1151699 -0.1148666 -0.13767734 -0.045095857 -0.08193943 0.31588736 0.08820692 -0.307069 0.036110446 -0.047775403 0.16722752 -0.07760129 -0.010069906 0.12359014 0.14298822 0.114451334 -0.25767234 -0.2678351 0.021522144 -0.08341172 0.105652206 -0.021381428 -0.27635238 -0.34706596 0.12753305 0.27979177 -0.099576704 0.19364507 0.0022811883 0.0790233 0.33595878 0.031850427 0.33156067 -0.22887181 0.3392868 -0.18193588 -0.025953297 0.20718218 -0.13000442 -0.012177287 -0.07414773 -0.03448285 -0.080163695 0.28155768 -0.088669844 0.018517133 0.013137422 0.1019747 -0.10569232 0.2356285 -0.16156372 0.3075157 0.21009226 0.23024817 0.14796105 0.3248929 -0.18498045 -0.063115716 0.06808175 0.1214539 -0.0039752326 0.16423215 0.037815526 0.50585073 -0.060223304 -0.123301476 -0.22692463 -0.15310982
英語 0.2718796 0.0061157537 0.027494444 -0.08751498 -0.22337903 -0.058848824 -0.16149525 0.31227887 -0.02564937 -0.3680564 0.18832822 -0.0028681734 0.26098174 -0.15636909 -0.011679072 0.0997876 0.09246997 0.09598102 -0.2308074 -0.06910013 0.049615566 -0.086676106 -0.09640833 -0.13879906 -0.28235006 -0.3726934 0.13662142 0.21023361 -0.05529521 0.13129021 0.124058 0.07906952 0.43826768 0.041596897 0.21940029 -0.20360433 0.3551476 -0.26704264 -0.107099675 0.14724009 -0.08767869 0.03218217 -0.061366666 -0.056510672 -0.030515276 0.21640997 0.0968984 -0.055106625 -0.043482985 0.22057529 -0.046478238 0.26863962 -0.23617595 0.1702189 0.18989073 0.32911164 0.29045147 0.24951883 -0.26649356 -0.03825373 0.104643114 0.05093725 0.012522626 -0.025182428 -0.027163584 0.3265163 -0.047372058 -0.19482915 -0.1017522 -0.2376201
出典 0.26755318 0.17569275 -0.029596431 -0.10537902 -0.27056924 0.03847753 -0.32280356 0.30421367 -0.118169114 -0.23263517 0.25735882 -0.1339357 0.47084093 -0.37842634 0.07141583 -0.07732101 0.2524183 0.32121307 -0.19403759 0.11006992 -0.06495912 -0.27064836 -0.4406903 -0.0015242244 -0.40094778 -0.15566401 0.07019651 0.17293304 0.09147695 0.136125 0.092713244 -0.06353605 0.46430582 0.042106118 0.2740425 -0.15790072 0.29436445 -0.26609117 -0.15918988 0.13698585 0.055003084 0.051492754 0.084960215 -0.04346031 -0.13130099 0.062366895 0.5227008 -0.11323544 -0.06076403 0.078500494 0.16021346 0.13386352 -0.16292933 0.29698715 0.3878144 0.09711884 0.37985763 0.3718496 -0.4941147 -0.21944495 -0.05076147 0.08332605 0.02640013 0.025817337 -0.11400415 0.12430988 0.04877966 -0.17081499 -0.23811291 -0.5203784
2007 0.20774765 0.11495171 -0.059449695 0.16915046 -0.014946774 0.003957 -0.21800704 0.32459912 0.03807015 -0.18292625 0.053557385 -0.15080519 0.2720327 -0.19266841 -0.039694507 0.21869929 -0.17416534 0.1398988 -0.04473562 -0.05539298 0.20772512 -0.22952695 -0.22931655 -0.1597267 -0.35111296 -0.20055817 -0.108996235 0.029951207 0.32849818 0.32205075 0.095577285 -0.107516356 0.40166262 0.31311572 0.26879856 -0.013388616 0.12610999 -0.26978564 0.025353886 0.16006751 0.1706352 0.013987735 0.033367556 -0.19546962 -0.14127886 0.022366945 0.25125462 -0.25606784 -0.09120497 0.072013505 -0.21995178 0.17975129 -0.1346247 0.2619592 0.39628568 0.09595477 0.26656318 0.52546555 -0.35200292 -0.3509895 0.10570421 -0.2825922 0.037988123 0.037852675 -0.040752444 0.13764416 -0.0140795205 -0.44220984 -0.3480202 -0.31793424
閲覧 0.259723 0.25672874 -0.09377483 0.2858435 0.18543647 -0.115297265 -0.2940587 0.37832132 0.034359414 -0.14135222 -0.05443744 -0.22387333 0.38964978 -0.19887689 -0.0937045 0.2304933 -0.29466304 0.14400023 0.099989854 0.08492742 0.33140323 -0.30248517 -0.2486759 -0.3287471 -0.4137232 -0.29561847 -0.119384155 -0.06887573 0.60432607 0.50099343 0.10002291 -0.1342603 0.3976207 0.4654534 0.26476568 0.08210925 0.11250313 -0.31830585 0.08717561 0.30456164 0.21727076 -0.012708582 0.035858948 -0.30317405 -0.33362266 -0.04050192 0.33353347 -0.42845738 -0.07205062 -0.04355072 -0.300667 0.3182438 -0.18448128 0.3764521 0.52388483 0.17971171 0.33469418 0.6685662 -0.6026011 -0.4934574 0.2502586 -0.46115106 0.115360685 0.0746201 0.07127753 0.025687043 -0.036611952 -0.73023146 -0.41405177 -0.34467047
" 0.25019655 -0.030371498 0.024572577 -0.114748396 -0.23013169 5.6399324e-05 -0.16438596 0.34806955 -0.01765509 -0.3564431 0.14299743 -0.0025774182 0.27124944 -0.1824111 -0.0006420172 0.097759165 0.0829398 0.11278754 -0.27407956 -0.098405965 0.028902572 -0.1043841 -0.10481945 -0.07045195 -0.29464898 -0.31515196 0.10716002 0.21046948 -0.06252118 0.16231285 0.12880066 0.09137857 0.42484003 -0.012913082 0.26525334 -0.21942277 0.3540664 -0.240138 -0.0997982 0.13965581 -0.0360574 0.030708244 -0.05244689 -0.07842909 -0.0426732 0.20757483 0.11082859 -0.034917112 -0.052308373 0.2154067 -0.06203372 0.25211358 -0.20753528 0.22614917 0.20711525 0.28610042 0.27285838 0.23087855 -0.28028536 -0.03665332 0.0640447 0.06970534 -0.0140253175 0.0074708886 -0.066436365 0.35792887 -0.060710248 -0.13687913 -0.16259879 -0.24786235
感嘆 0.24951458 -0.08873362 -0.0072045815 -0.12994306 -0.3060082 -0.089646 -0.15253025 0.32738876 -0.0033074939 -0.39415216 0.17023653 0.020866327 0.27780747 -0.14563447 0.044016395 0.13416775 0.107211225 0.10391483 -0.33109477 -0.13036802 0.026846169 -0.010442071 -0.0052037127 -0.10292373 -0.29173744 -0.3943148 0.13826297 0.2643739 -0.16455418 0.096585646 0.1336078 0.06637954 0.41634429 -0.037981536 0.21685043 -0.22561146 0.40012515 -0.1967459 -0.15292597 0.14726992 -0.037153732 0.05920904 -0.046581436 0.005730629 0.00027702725 0.22856778 0.113372885 0.03211228 -0.0146706235 0.23293036 -0.02419759 0.2857078 -0.16713232 0.2367812 0.20816037 0.32569286 0.3299115 0.22072053 -0.2604488 0.033628132 0.11904441 0.1167398 -0.014592998 -0.011501581 -0.059997328 0.40152487 -0.034891926 -0.19068576 -0.12331745 -0.2005784
型 0.16151614 0.0964174 0.025657684 0.16282691 0.19911616 -0.037133824 -0.14094196 0.32703385 0.110143624 -0.1469765 -0.0050093667 -0.08638854 0.21350479 -0.23478971 -0.028148087 0.12173232 -0.112533726 0.20391005 0.0990231 -0.15084077 0.13680975 -0.2079327 -0.106763825 -0.19448705 -0.31383198 -0.27691945 0.020858545 0.01129529 0.32042542 0.46051282 0.004143815 -0.076113656 0.3759464 0.30042234 0.39249918 -0.05680066 0.17892817 -0.2477205 0.15206517 0.20255631 0.099784754 -0.08721387 0.033008136 -0.09606026 -0.09935514 0.13302504 0.013800937 -0.14563999 0.038233906 -0.018871728 -0.20087741 0.2515161 -0.19116762 0.32716346 0.37573102 0.13301057 0.19683626 0.627695 -0.31640476 -0.3927101 0.1214979 -0.12434193 0.057209477 0.15907098 0.048010394 0.1878709 -0.02356503 -0.4225965 -0.38560253 -0.25480336
ない 0.31451407 -0.14070262 0.035470042 -0.10768752 -0.36134052 -0.11608747 -0.16439873 0.3884695 -0.014073317 -0.42134348 0.15391831 0.06300536 0.25281698 -0.09788725 -0.010190384 0.13277398 0.110495426 0.02808674 -0.33786756 -0.14433208 0.06259811 0.057979256 0.05294955 -0.12172419 -0.26347005 -0.4522443 0.16909708 0.24676102 -0.20869455 0.05599802 0.18261775 0.16814345 0.4562352 -0.07209416 0.17686868 -0.24869779 0.4587246 -0.23341355 -0.15945582 0.16766639 -0.117468886 0.06508193 -0.12378498 -0.03712431 0.014376485 0.3074463 0.071502864 0.030984547 -0.06194707 0.2825052 -0.08674446 0.32422936 -0.18635917 0.23538564 0.1364946 0.41877186 0.35063955 0.15718992 -0.2569006 0.12275878 0.14370006 0.11554238 -0.013186999 -0.008969654 -0.01268638 0.47134683 -0.06560906 -0.16704942 -0.104653515 -0.1922226
# 0.17420015 0.14578703 0.027573057 0.017839806 0.05468294 0.09548643 -0.15404032 0.17235397 0.048604555 -0.27958518 0.12685251 -0.06608708 0.23488668 -0.27239487 -0.046040036 0.011227438 0.11864674 0.18333791 0.022821017 -0.09115864 0.10432366 -0.3448062 -0.29116952 -0.084017806 -0.35251376 -0.23540625 0.031972546 0.11399457 0.23634893 0.30466282 0.035658155 -0.051136866 0.299483 0.32500786 0.39120904 -0.12975913 0.20444532 -0.23181012 0.013250593 0.18908225 0.050544444 -0.0723787 0.12901115 -0.12362531 0.008756668 0.19444895 0.08711586 -0.18904032 -0.059485342 0.06237727 -0.111201726 0.14679605 -0.2035883 0.21661651 0.36131158 0.14295489 0.19880138 0.5127271 -0.30069333 -0.2863492 0.024112778 -0.06135281 0.057721004 0.065746345 -0.044678092 0.2508367 0.02079082 -0.19805442 -0.22845134 -0.31179434
BYE 0.3100112 0.14591385 -0.113398045 -0.07026416 -0.25447568 0.004187062 -0.21971557 0.30399388 -0.04860797 -0.34574404 0.25376564 -0.12835065 0.32134002 -0.28781465 0.0904038 0.0028499041 0.067690924 0.24197496 -0.20564339 0.025998598 -0.0023458593 -0.24072467 -0.37284428 -0.11709991 -0.30701438 -0.21836625 0.059868034 0.113762744 0.043840405 0.14566302 0.08465072 -0.045733564 0.45307875 0.07910603 0.25741613 -0.11267558 0.20373979 -0.2606643 -0.12136394 0.12140544 0.0975515 0.1100269 0.004812513 -0.066793025 -0.113105305 -0.006965152 0.4264386 -0.20491666 -0.09734944 0.13486029 0.040956665 0.19956137 -0.17086668 0.17005925 0.25390327 0.15030842 0.34372157 0.38706756 -0.41824004 -0.17611979 -0.01833911 -0.078811996 0.05503421 -0.060015038 -0.11809855 0.12707993 -0.029296525 -0.24744196 -0.18986738 -0.44719827
中 0.31301326 -0.08635933 -0.020032693 -0.071903676 -0.37098342 -0.10446616 -0.1800935 0.3563069 -0.034270737 -0.39922944 0.19003253 0.025447806 0.2684639 -0.13047235 0.018044367 0.17285047 0.032654975 0.052428827 -0.29234645 -0.11222321 0.053130403 0.03135617 -0.018662296 -0.16673632 -0.274191 -0.43734318 0.14527418 0.21820377 -0.18770885 0.0811092 0.1760175 0.119118564 0.49845433 -0.046577774 0.16600521 -0.24143295 0.40721762 -0.26676035 -0.18879686 0.13295318 -0.04725951 0.09362708 -0.08564296 -0.016403746 0.0035045682 0.18975303 0.18399392 -0.020069268 -0.07434876 0.3103408 -0.039754048 0.28048748 -0.20384072 0.17907305 0.14596476 0.4051799 0.38871402 0.1473413 -0.2835518 0.038417365 0.13289924 0.046765164 0.0028850846 -0.06875592 -0.03707598 0.3778101 -0.078524545 -0.19222909 -0.06853 -0.24050204
th 0.27891296 0.038980708 -0.02601414 0.11480342 -0.1500451 -0.01331363 -0.28414446 0.3411978 0.03998703 -0.26971352 0.13320008 -0.08080152 0.22289973 -0.27164432 -0.01692026 0.18895714 -0.101940475 0.12304154 -0.121350296 -0.09710265 0.115378305 -0.2270208 -0.20635125 -0.1294288 -0.33615792 -0.22069481 -0.06783019 0.11136625 0.16592616 0.28430986 0.11938795 -0.12612805 0.38477084 0.2570326 0.3164978 -0.10784217 0.1878767 -0.30966848 0.001460687 0.15685962 0.18847851 -0.0021265731 0.012204079 -0.18433243 -0.09242802 0.052505028 0.26249063 -0.22861536 -0.0997284 0.13258623 -0.15069395 0.15869829 -0.19735461 0.23222618 0.38644066 0.115909606 0.23489815 0.47724226 -0.31612405 -0.28697503 0.077422015 -0.18133476 0.037758693 0.007390118 -0.06362592 0.2577021 -0.050391074 -0.39752352 -0.3312357 -0.3861882
2015 0.17313148 0.19713418 0.044574417 0.15993245 0.32602665 0.087393336 -0.18398017 0.22975053 0.08636562 -0.14676444 -0.07062534 -0.20333852 0.28627858 -0.24021128 -0.13601184 0.10164276 -0.05832288 0.16837 0.097404376 -0.06165279 0.20131344 -0.38478693 -0.25249627 -0.16880819 -0.38802865 -0.26742527 -0.0057975925 0.029386787 0.5475515 0.50938654 -0.011829156 -0.080360144 0.2843343 0.42566925 0.47338048 -0.003909646 0.14934355 -0.21903619 0.14340015 0.2720137 0.052811135 -0.12452731 0.07732397 -0.21396783 -0.21907055 0.091638915 -0.0038161003 -0.34865975 0.05164816 -0.06741594 -0.28561428 0.24159293 -0.22005135 0.3444746 0.46969348 0.08172457 0.16085516 0.6879816 -0.3672887 -0.48401883 0.13368218 -0.24342614 0.07577998 0.18615536 -0.013011804 0.18021682 -0.026635481 -0.39830256 -0.44391277 -0.23342955
0 0.18043561 0.07655859 0.15775758 -0.097796544 0.2679724 0.21456444 -0.0647796 0.23258659 0.17613898 -0.31696814 -0.061485313 -0.11341013 0.28937927 -0.21267806 -0.11384632 -0.1258591 0.28212872 0.04033317 -0.20022246 -0.017474726 0.07981666 -0.36453342 -0.17629541 -0.10504253 -0.43786347 -0.29603407 0.21856052 0.24648091 0.3016267 0.43454415 0.008339005 0.01582236 0.21852782 0.17944108 0.5814568 -0.1812932 0.30654716 -0.17186911 -0.010524656 0.26913464 -0.08579851 -0.17130294 0.062605076 -0.18800437 -0.123302735 0.266394 -0.20994817 -0.29397416 0.09979375 -0.105054595 -0.14131539 0.32099053 -0.2936974 0.45126933 0.4102714 0.15073729 -0.025786282 0.5840511 -0.3014717 -0.26799813 0.07072172 0.0891395 -0.038298592 0.100858934 -0.032576676 0.3490457 -0.0027122735 -0.14497064 -0.34550473 -0.20211123
> 0.19608866 -0.07515671 0.16132766 -0.18138969 0.053372473 0.16151448 -0.037165288 0.22419302 0.15613222 -0.30163613 0.016517308 -0.04383092 0.24996781 -0.1201088 -0.07577966 -0.06765468 0.30739674 -0.03485584 -0.3244422 -0.06538792 0.023491947 -0.19855861 -0.06812159 -0.06688843 -0.3487385 -0.29384485 0.24242933 0.29314324 0.051723078 0.24579026 0.02903431 0.08557336 0.25827453 0.026906958 0.4361821 -0.23205344 0.38579875 -0.16030373 -0.08544027 0.21049927 -0.14076224 -0.0773807 0.026753703 -0.13901784 -0.04806911 0.30166066 -0.22355045 -0.1059414 0.06630584 0.03240378 -0.103257306 0.28342405 -0.23647119 0.40681195 0.2864824 0.21510567 -0.007463914 0.36776972 -0.20141312 -0.06736831 0.05067612 0.17446096 -0.07082481 0.07670491 -0.048637748 0.41928732 -0.024783 -0.038190108 -0.2506077 -0.16734323
出身 0.16301966 -0.016150516 0.019408666 0.08018171 0.024031073 -0.032564435 -0.12863001 0.34133697 0.12015079 -0.23062345 0.082181 -0.0340223 0.20412602 -0.234678 -0.04988866 0.11915566 -0.03900322 0.16060069 -0.045422107 -0.15837222 0.063045435 -0.14333959 -0.05369897 -0.17486808 -0.27789235 -0.27289996 0.07223286 0.09452374 0.15705174 0.31852967 0.020562476 -0.04102666 0.36608988 0.18827453 0.34056264 -0.16214767 0.22399668 -0.25120446 0.060425073 0.18147556 0.04651991 -0.07656704 -0.008381677 -0.08061437 -0.06590568 0.15809143 0.05349331 -0.08088529 -0.0020148729 0.07569575 -0.18167296 0.21852982 -0.19449991 0.31420287 0.29582182 0.18363054 0.18307662 0.51202893 -0.27056354 -0.28146324 0.058452692 -0.03202952 0.030127665 0.13763717 -0.008663945 0.2659007 -0.036988616 -0.33066875 -0.34089962 -0.2535544
27 0.2508812 0.20065647 -0.06574141 0.26806268 0.21295063 -0.09386404 -0.24795806 0.38228536 0.054935474 -0.15851228 -0.041013997 -0.1999916 0.33513203 -0.17455482 -0.094013445 0.23223768 -0.25794128 0.14773302 0.10114174 -0.0024613633 0.29764214 -0.28847507 -0.21321662 -0.2776911 -0.43235084 -0.28198817 -0.09207532 -0.058231194 0.5797066 0.51608306 0.08079673 -0.10828393 0.3945698 0.45780256 0.3212496 0.050693337 0.11610287 -0.31199116 0.11980504 0.28332433 0.19846195 -0.027481705 0.068565965 -0.27613714 -0.2801444 0.00297043 0.22989847 -0.403988 -0.05910695 -0.024718504 -0.31201017 0.32424533 -0.1822255 0.37968162 0.50907725 0.16915233 0.2789972 0.67171234 -0.5272617 -0.5026235 0.22449964 -0.41060907 0.087436296 0.12524797 0.06811911 0.07103145 -0.013468889 -0.6679577 -0.42453182 -0.2900127
テーマ 0.28868115 -0.08746218 -0.024043996 -0.08814664 -0.36778817 0.03620404 -0.25167432 0.3814149 -0.009861876 -0.34840602 0.2021318 -0.0026086345 0.2664529 -0.24917151 -0.013994113 0.10939441 0.0098037915 0.19044493 -0.33028826 -0.06117159 0.049277686 -0.14958198 -0.12872724 -0.057017636 -0.28544113 -0.28949022 0.04936154 0.21131577 -0.122207426 0.16627042 0.15993397 0.01951938 0.46201757 -0.0531611 0.26302117 -0.2643405 0.3276444 -0.2664371 -0.13470238 0.0928399 0.09507369 0.020631673 -0.06522629 -0.04532293 -0.07109345 0.19642453 0.23014212 -0.046735 -0.1423183 0.23768418 -0.05626979 0.19757709 -0.22663902 0.2280374 0.20008506 0.2757975 0.33902487 0.21953379 -0.28667146 -0.03825773 0.06116365 -0.0005892344 0.04452797 0.015010279 -0.10900757 0.35124135 -0.030901693 -0.19849256 -0.15274508 -0.37817517
盤 0.24361122 -0.04447683 -0.0062584127 -0.0339152 -0.17395133 -0.02692311 -0.14958782 0.327123 0.05975749 -0.31830192 0.14112705 -0.04104436 0.22651069 -0.16478817 -0.007406018 0.113308705 0.029477771 0.12178255 -0.18131293 -0.111248285 0.10251145 -0.1455351 -0.083271585 -0.09180234 -0.28414822 -0.32237613 0.10682207 0.15739968 -0.019957114 0.18505782 0.11258014 0.04447604 0.42039695 0.06220698 0.25436175 -0.1705459 0.2905724 -0.246752 -0.06581137 0.12941942 0.01616468 0.01077725 -0.043962814 -0.064814195 -0.05228168 0.19272122 0.12307931 -0.059895135 -0.051248137 0.18424313 -0.08471629 0.24491572 -0.18375656 0.24304812 0.2416736 0.22867286 0.2826699 0.2969255 -0.2581985 -0.09895627 0.0680151 0.030851796 0.018239012 0.060099505 -0.051566564 0.33228064 -0.035088237 -0.23790699 -0.1983285 -0.25910738
displaystyle 0.107906364 -0.0653408 0.24240102 -0.18063888 0.26589054 0.3113877 -0.011792084 0.21881834 0.28180102 -0.27093667 -0.08509951 -0.052302007 0.27246323 -0.1643552 -0.1375086 -0.1638593 0.4438465 -0.06448189 -0.3722442 -0.039876103 0.042979624 -0.3189819 -0.098140046 0.009957109 -0.46095097 -0.24252276 0.25838667 0.31273937 0.21396779 0.39009494 0.014212327 0.02223618 0.16492084 0.045997936 0.6104306 -0.22706822 0.3502716 -0.11507936 -0.045387924 0.23446631 -0.09864728 -0.19147244 0.10557103 -0.22897065 -0.11154392 0.36126086 -0.32252166 -0.20755377 0.10428421 -0.13611841 -0.11473269 0.32284763 -0.2750911 0.5753884 0.40897766 0.11545411 -0.15140045 0.5241578 -0.2456205 -0.19954772 0.035802886 0.22800529 -0.11646538 0.13115934 -0.045775708 0.46502662 0.007844782 -0.03934181 -0.41770437 -0.19947857
6 0.2074272 0.1143765 0.010047989 0.07276605 0.02638883 -0.011460629 -0.19484197 0.27465108 0.017192196 -0.23998827 0.086605735 -0.10586487 0.28344 -0.23839158 -0.050716784 0.087929614 -0.026143987 0.14622045 -0.011387346 -0.04924571 0.15617122 -0.28478333 -0.20088135 -0.14604378 -0.31306702 -0.26766008 0.009220647 0.106665544 0.2716658 0.31671217 0.06950764 -0.070930555 0.35514957 0.28450936 0.3418072 -0.07534163 0.20938666 -0.23674579 0.04197983 0.21888213 0.07084568 -0.033263903 0.05432764 -0.16492608 -0.08676712 0.13911399 0.16932735 -0.20782235 -0.046531055 0.07427166 -0.14853387 0.20762481 -0.20749818 0.28218412 0.34846383 0.16094111 0.26728627 0.46824676 -0.35260114 -0.26971382 0.09473675 -0.14405663 0.07342854 0.055737354 -0.033598565 0.21373166 -0.012207734 -0.32229 -0.25611678 -0.30300424
チャート 0.22578211 0.043819785 0.06147342 0.032610334 -0.024768079 0.03174389 -0.20145325 0.27751186 0.047664113 -0.3025982 0.10442423 -0.072696336 0.2265812 -0.21024325 -0.07393584 0.08609417 -0.011260046 0.12053564 -0.09757779 -0.09303568 0.11332988 -0.2536833 -0.15676548 -0.13647011 -0.3309134 -0.26193574 0.048649855 0.13758843 0.18962832 0.2876326 0.11878906 -0.022839902 0.36751443 0.2269477 0.32918084 -0.13713351 0.24150419 -0.24972698 0.0033806327 0.19518213 0.039305925 -0.038432166 -0.0316343 -0.11996197 -0.038416974 0.18041721 0.0830048 -0.15998322 -0.03365237 0.15214418 -0.16285738 0.19030206 -0.22117797 0.1855783 0.27838773 0.17938046 0.2628503 0.43550336 -0.28780156 -0.19361255 0.09191114 -0.10115622 0.05434419 0.06367344 -0.016051184 0.24953744 -0.0036926072 -0.27505213 -0.17896526 -0.28709963
例 0.26242143 0.05043082 0.07075482 -0.06797409 -0.014969946 -7.021951e-05 -0.14219388 0.2461729 0.04324014 -0.29519466 0.01592917 -0.073980555 0.23385128 -0.13013302 -0.0065890406 0.011455856 0.15205187 0.08890245 -0.101281956 -0.099809304 0.051886313 -0.19451748 -0.091722794 -0.098224476 -0.33030376 -0.2938147 0.1742404 0.19899179 0.10671179 0.2723494 0.061682068 0.094003856 0.32609153 0.14496213 0.33672747 -0.1281482 0.36355525 -0.1703396 -0.051330097 0.22004332 -0.102222115 -0.024837868 -0.035419013 -0.096459575 -0.04301737 0.25206235 -0.062393315 -0.09161151 0.0137819 0.09698034 -0.07621962 0.25759828 -0.21715374 0.2708689 0.20966113 0.21813366 0.19469556 0.35922882 -0.2767866 -0.11911611 0.12304518 0.033079322 0.022687532 0.07557715 0.040154323 0.32787487 -0.039890982 -0.13966753 -0.13642356 -0.1327209
大きい 0.24711254 -0.07365908 0.14084998 -0.11552482 -0.008822526 -0.001943647 -0.028517647 0.29076555 0.09698319 -0.3091844 0.041759726 -0.08176595 0.1818831 -0.12029324 -0.012011008 0.07814528 0.21717219 0.13446918 -0.19083728 -0.27528054 0.019430112 -0.16413732 0.08171359 -0.022621708 -0.3062275 -0.3345646 0.11246184 0.29421973 0.008828732 0.26513565 0.0088444445 0.06144484 0.29187348 0.12875058 0.40148565 -0.2117995 0.33876866 -0.16349958 0.0035430277 0.244127 -0.17347217 -0.045493513 -0.06542856 -0.02634234 -0.071329236 0.33950746 -0.13741097 0.016133597 0.052872293 0.04974592 -0.1176696 0.2171499 -0.175162 0.32238194 0.26939854 0.2136008 0.09752192 0.42831525 -0.1832646 -0.14006835 0.065800175 0.12984751 0.020223433 0.20996374 0.02579062 0.47109282 -0.05382835 -0.124003306 -0.2758948 -0.121834494
作品 0.28595355 0.0067010606 -0.002965262 -0.05482102 -0.25605917 -0.09972468 -0.18295966 0.35069603 -0.024032464 -0.3498235 0.121727295 0.0075750486 0.26223916 -0.15224406 0.0063171205 0.11561743 0.045285635 0.09654919 -0.1466887 -0.10183912 0.10625202 -0.09244735 -0.04760677 -0.1458204 -0.2809106 -0.37531763 0.13623992 0.18597052 -0.023877282 0.17912737 0.12905902 0.12242725 0.44014362 0.09631282 0.21519887 -0.17004259 0.37769434 -0.24921913 -0.08646181 0.15341917 -0.06499693 0.072639935 -0.053915083 -0.07065956 0.020759817 0.21481912 0.122485526 -0.048070706 -0.03679155 0.24888991 -0.06752674 0.23371176 -0.21386369 0.19737056 0.1501529 0.31145817 0.36404327 0.23007959 -0.30502358 -0.04350246 0.13717487 0.004219498 0.01653443 -0.003655969 0.014299654 0.32378364 -0.053677466 -0.21027625 -0.08179113 -0.20722185
い 0.32053116 -0.11159248 -0.046111625 -0.050788157 -0.3798067 -0.14528874 -0.24829817 0.4296373 -0.012411008 -0.39788824 0.13665245 0.05923037 0.27040234 -0.079271734 -0.006083702 0.17013317 -0.002771549 0.06874029 -0.245302 -0.13199916 0.16082732 0.016371604 0.06450395 -0.13144366 -0.29128975 -0.43734014 0.09212778 0.17323898 -0.15378907 0.08139264 0.20591103 0.17389709 0.5363414 -0.043267734 0.11645148 -0.2327661 0.3942579 -0.2592182 -0.09234405 0.15472879 -0.014115656 0.11833448 -0.11287074 -0.054527007 0.005878362 0.269439 0.13791747 0.052809395 -0.096300475 0.28390548 -0.1385601 0.30834246 -0.18467446 0.19756316 0.13211468 0.40948945 0.43665087 0.14751989 -0.30836108 0.07253939 0.15578616 0.034206748 -0.013196634 -0.015611321 -0.022027316 0.43118456 -0.077325694 -0.2329143 -0.11341203 -0.20349763
{\ 0.14619675 -0.07276749 0.24239594 -0.18439497 0.2252537 0.2473251 -0.017897118 0.23257336 0.23312598 -0.2557505 -0.06636261 -0.08468734 0.26659432 -0.1396 -0.09906173 -0.14930929 0.43212068 -0.06257213 -0.41876176 -0.053073414 0.024994176 -0.3068295 -0.09006409 -0.002275276 -0.43866953 -0.28137782 0.2860406 0.36212736 0.13551898 0.36307317 0.00715789 0.069684766 0.15438205 0.026979532 0.59767586 -0.2654438 0.38752577 -0.14719485 -0.05712262 0.2595803 -0.13108554 -0.20051253 0.06917468 -0.221856 -0.09311535 0.34135547 -0.3202835 -0.20112044 0.12811263 -0.112050004 -0.13248952 0.31964865 -0.25719497 0.57195836 0.37283054 0.14266764 -0.13993388 0.47332186 -0.20163378 -0.13708362 0.030246088 0.23676191 -0.10863893 0.13084675 -0.083535075 0.48323357 0.03404405 -0.041246645 -0.44664258 -0.18496166
B 0.15076986 0.019831784 0.06401671 0.028169487 0.10554685 0.06307604 -0.1050478 0.26713988 0.14136557 -0.19503525 0.023409706 -0.10588488 0.23400602 -0.22815776 -0.032721408 0.06614997 0.03505966 0.1688765 -0.023726838 -0.1325174 0.10774595 -0.25034216 -0.0989187 -0.1112989 -0.34404364 -0.25572145 0.06258259 0.12437233 0.21868548 0.3683187 0.03435929 -0.024849635 0.3220069 0.20868513 0.39834794 -0.13188958 0.19988312 -0.1851177 0.049006324 0.19697803 0.04176177 -0.085548095 0.057517543 -0.09051437 -0.109193884 0.16380338 -0.013798929 -0.14217977 0.03009932 -0.019548012 -0.14126304 0.20870873 -0.1860369 0.32729778 0.3475917 0.1261126 0.14577971 0.5439844 -0.27776167 -0.30499798 0.0595905 -0.0136590125 0.043998204 0.19175749 -0.004918511 0.27540633 -0.0062969243 -0.2926282 -0.3661957 -0.25396308
記号 0.3175959 -0.059090376 0.0059804525 -0.08969758 -0.33565697 -0.1473914 -0.21138018 0.3798614 -0.029111667 -0.39046255 0.13582982 0.020560248 0.26911846 -0.114514254 0.01896781 0.14244254 0.03330055 0.0798655 -0.23619354 -0.12967446 0.08338239 0.013690124 0.009675375 -0.15031579 -0.2666117 -0.40918443 0.1540752 0.19715115 -0.13021713 0.09944947 0.14733735 0.12897593 0.468649 -0.00018188139 0.18216929 -0.20684479 0.4211988 -0.26021448 -0.14202924 0.16287212 -0.07426415 0.08917871 -0.10019057 -0.031224893 0.005586071 0.2402227 0.14347653 -0.003141343 -0.061213933 0.26569173 -0.055567864 0.29159614 -0.20945807 0.20459042 0.15890522 0.36806056 0.3626069 0.1719076 -0.28060663 0.041141093 0.14824896 0.03828783 0.02263988 -0.021330189 0.013932867 0.37552893 -0.06876596 -0.19061863 -0.06551538 -0.18005171
